{"learner":{"attributes":{},"feature_names":["wind_speed","wind_angle","position_x","position_y","position_z","orientation_x","orientation_y","orientation_z","orientation_w","velocity_x","velocity_y","velocity_z","angular_x","angular_y","angular_z","linear_acceleration_x","linear_acceleration_y","linear_acceleration_z","payload"],"feature_types":[],"gradient_booster":{"model":{"cats":{"enc":[],"feature_segments":[],"sorted_idx":[]},"gbtree_model_param":{"num_parallel_tree":"1","num_trees":"200"},"iteration_indptr":[0,1,2,3,4,5,6,7,8,9,10,11,12,13,14,15,16,17,18,19,20,21,22,23,24,25,26,27,28,29,30,31,32,33,34,35,36,37,38,39,40,41,42,43,44,45,46,47,48,49,50,51,52,53,54,55,56,57,58,59,60,61,62,63,64,65,66,67,68,69,70,71,72,73,74,75,76,77,78,79,80,81,82,83,84,85,86,87,88,89,90,91,92,93,94,95,96,97,98,99,100,101,102,103,104,105,106,107,108,109,110,111,112,113,114,115,116,117,118,119,120,121,122,123,124,125,126,127,128,129,130,131,132,133,134,135,136,137,138,139,140,141,142,143,144,145,146,147,148,149,150,151,152,153,154,155,156,157,158,159,160,161,162,163,164,165,166,167,168,169,170,171,172,173,174,175,176,177,178,179,180,181,182,183,184,185,186,187,188,189,190,191,192,193,194,195,196,197,198,199,200],"tree_info":[0,0,0,0,0,0,0,0,0,0,0,0,0,0,0,0,0,0,0,0,0,0,0,0,0,0,0,0,0,0,0,0,0,0,0,0,0,0,0,0,0,0,0,0,0,0,0,0,0,0,0,0,0,0,0,0,0,0,0,0,0,0,0,0,0,0,0,0,0,0,0,0,0,0,0,0,0,0,0,0,0,0,0,0,0,0,0,0,0,0,0,0,0,0,0,0,0,0,0,0,0,0,0,0,0,0,0,0,0,0,0,0,0,0,0,0,0,0,0,0,0,0,0,0,0,0,0,0,0,0,0,0,0,0,0,0,0,0,0,0,0,0,0,0,0,0,0,0,0,0,0,0,0,0,0,0,0,0,0,0,0,0,0,0,0,0,0,0,0,0,0,0,0,0,0,0,0,0,0,0,0,0,0,0,0,0,0,0,0,0,0,0,0,0,0,0,0,0,0,0],"trees":[{"base_weights":[-1.8990661E-1,-2.9544731E1,4.537505E1,-5.2154224E1,-4.5684166E0,9.145151E1,3.7331467E1,-5.9173713E0,2.2873614E0,-9.6468E-1,9.342486E0,8.494906E0,1.5612551E1,1.0111216E1,3.1868703E0],"categories":[],"categories_nodes":[],"categories_segments":[],"categories_sizes":[],"default_left":[0,0,0,0,0,0,0,0,0,0,0,0,0,0,0],"id":0,"left_children":[1,3,5,7,9,11,13,-1,-1,-1,-1,-1,-1,-1,-1],"loss_changes":[6.5935936E7,1.6930088E7,7.155108E6,8.28882E6,7.0903875E6,1.193684E6,5.726874E6,0E0,0E0,0E0,0E0,0E0,0E0,0E0,0E0],"parents":[2147483647,0,0,1,1,2,2,3,3,4,4,5,5,6,6],"right_children":[2,4,6,8,10,12,14,-1,-1,-1,-1,-1,-1,-1,-1],"split_conditions":[5E2,2.5E2,3.5876296E0,2.5062656E0,3.017051E0,1.1943499E-1,-1.08966365E-1,-5.9173713E0,2.2873614E0,-9.6468E-1,9.342486E0,8.494906E0,1.5612551E1,1.0111216E1,3.1868703E0],"split_indices":[18,18,10,11,11,5,5,0,0,0,0,0,0,0,0],"split_type":[0,0,0,0,0,0,0,0,0,0,0,0,0,0,0],"sum_hessian":[4.9294E4,2.998E4,1.9314E4,1.5735E4,1.4245E4,2.869E3,1.6445E4,1.4389E4,1.346E3,1.3544E4,7.01E2,2.609E3,2.6E2,1.296E3,1.5149E4],"tree_param":{"num_deleted":"0","num_feature":"19","num_nodes":"15","size_leaf_vector":"1"}},{"base_weights":[1.12967625E-1,4.569679E1,-6.387078E0,6.866838E1,5.3911753E0,5.0892155E1,-1.0263406E1,1.1682181E1,4.904679E0,-1.0429039E0,6.8801827E0,3.1262178E0,8.586246E0,1.4593946E0,-1.6125797E0],"categories":[],"categories_nodes":[],"categories_segments":[],"categories_sizes":[],"default_left":[0,0,0,0,0,0,0,0,0,0,0,0,0,0,0],"id":1,"left_children":[1,3,5,7,9,11,13,-1,-1,-1,-1,-1,-1,-1,-1],"loss_changes":[1.4596469E7,5.691966E6,9.57348E6,3.69429E6,2.2407962E6,1.8734275E6,5.8849875E6,0E0,0E0,0E0,0E0,0E0,0E0,0E0,0E0],"parents":[2147483647,0,0,1,1,2,2,3,3,4,4,5,5,6,6],"right_children":[2,4,6,8,10,12,14,-1,-1,-1,-1,-1,-1,-1,-1],"split_conditions":[-1.0189737E1,7.5E0,-1.2511714E-1,-1.0768396E1,2.63E2,2.71E2,4.7E0,1.1682181E1,4.904679E0,-1.0429039E0,6.8801827E0,3.1262178E0,8.586246E0,1.4593946E0,-1.6125797E0],"split_indices":[17,0,6,17,1,1,0,0,0,0,0,0,0,0,0],"split_type":[0,0,0,0,0,0,0,0,0,0,0,0,0,0,0],"sum_hessian":[4.9261E4,6.147E3,4.3114E4,3.915E3,2.232E3,2.732E3,4.0382E4,1.132E3,2.783E3,1.787E3,4.45E2,1.751E3,9.81E2,7.706E3,3.2676E4],"tree_param":{"num_deleted":"0","num_feature":"19","num_nodes":"15","size_leaf_vector":"1"}},{"base_weights":[-2.2400527E-1,-2.6689333E1,4.0832375E1,-4.6988125E1,-4.2307057E0,8.2115036E1,3.372501E1,-5.382767E0,1.766824E0,-9.1033775E-1,7.4586635E0,1.1514892E1,5.83233E0,8.314536E0,2.8994253E0],"categories":[],"categories_nodes":[],"categories_segments":[],"categories_sizes":[],"default_left":[0,0,0,0,0,0,0,0,0,0,0,0,0,0,0],"id":2,"left_children":[1,3,5,7,9,11,13,-1,-1,-1,-1,-1,-1,-1,-1],"loss_changes":[5.338973E7,1.3620218E7,5.648036E6,6.940716E6,5.4484425E6,2.215904E6,3.83932E6,0E0,0E0,0E0,0E0,0E0,0E0,0E0,0E0],"parents":[2147483647,0,0,1,1,2,2,3,3,4,4,5,5,6,6],"right_children":[2,4,6,8,10,12,14,-1,-1,-1,-1,-1,-1,-1,-1],"split_conditions":[5E2,2.5E2,-1.0134853E1,2.4019446E0,2.8669462E0,3.7156963E0,-1.0312195E-1,-5.382767E0,1.766824E0,-9.1033775E-1,7.4586635E0,1.1514892E1,5.83233E0,8.314536E0,2.8994253E0],"split_indices":[18,18,17,11,11,10,5,0,0,0,0,0,0,0,0],"split_type":[0,0,0,0,0,0,0,0,0,0,0,0,0,0,0],"sum_hessian":[4.9134E4,2.9876E4,1.9258E4,1.5692E4,1.4184E4,2.827E3,1.6431E4,1.4191E4,1.501E3,1.3359E4,8.25E2,1.182E3,1.645E3,1.434E3,1.4997E4],"tree_param":{"num_deleted":"0","num_feature":"19","num_nodes":"15","size_leaf_vector":"1"}},{"base_weights":[-1.9808267E-1,4.1568348E1,-5.5319543E0,7.383825E1,3.3081078E1,-1.4327037E1,2.9806461E1,9.241149E0,4.3484836E0,5.4596515E0,2.228658E0,4.3234363E0,-1.9870592E0,8.35891E0,1.8276923E0],"categories":[],"categories_nodes":[],"categories_segments":[],"categories_sizes":[],"default_left":[0,0,0,0,0,0,0,0,0,0,0,0,0,0,0],"id":3,"left_children":[1,3,5,7,9,11,13,-1,-1,-1,-1,-1,-1,-1,-1],"loss_changes":[1.0984907E7,1.526922E6,1.3590344E7,6.510725E5,1.0260175E6,1.1173008E7,5.4019285E6,0E0,0E0,0E0,0E0,0E0,0E0,0E0,0E0],"parents":[2147483647,0,0,1,1,2,2,3,3,4,4,5,5,6,6],"right_children":[2,4,6,8,10,12,14,-1,-1,-1,-1,-1,-1,-1,-1],"split_conditions":[-9.880593E-2,-1.5903586E-1,-2.56591E-1,-1.489386E0,-9.974211E0,-1.2007711E-1,-1.0383348E1,9.241149E0,4.3484836E0,5.4596515E0,2.228658E0,4.3234363E0,-1.9870592E0,8.35891E0,1.8276923E0],"split_indices":[5,5,15,15,17,6,17,0,0,0,0,0,0,0,0],"split_type":[0,0,0,0,0,0,0,0,0,0,0,0,0,0,0],"sum_hessian":[4.9307E4,5.583E3,4.3724E4,1.161E3,4.422E3,3.5011E4,8.713E3,7.19E2,4.42E2,1.476E3,2.946E3,3.075E3,3.1936E4,1.537E3,7.176E3],"tree_param":{"num_deleted":"0","num_feature":"19","num_nodes":"15","size_leaf_vector":"1"}},{"base_weights":[9.5508285E-2,-2.3682535E1,3.721671E1,-4.2521736E1,-2.8528812E0,8.684363E1,3.2638863E1,-4.8109527E0,1.1757091E0,-6.934479E-1,7.2518206E0,1.0507783E1,2.8079166E0,7.29022E0,2.8508666E0],"categories":[],"categories_nodes":[],"categories_segments":[],"categories_sizes":[],"default_left":[0,0,0,0,0,0,0,0,0,0,0,0,0,0,0],"id":4,"left_children":[1,3,5,7,9,11,13,-1,-1,-1,-1,-1,-1,-1,-1],"loss_changes":[4.337968E7,1.1755424E7,4.356612E6,4.771454E6,4.377526E6,1.732916E6,2.919734E6,0E0,0E0,0E0,0E0,0E0,0E0,0E0,0E0],"parents":[2147483647,0,0,1,1,2,2,3,3,4,4,5,5,6,6],"right_children":[2,4,6,8,10,12,14,-1,-1,-1,-1,-1,-1,-1,-1],"split_conditions":[5E2,2.5E2,-1.0325214E1,2.4505744E0,3.017051E0,8.8E0,-1.0312195E-1,-4.8109527E0,1.1757091E0,-6.934479E-1,7.2518206E0,1.0507783E1,2.8079166E0,7.29022E0,2.8508666E0],"split_indices":[18,18,17,11,11,0,5,0,0,0,0,0,0,0,0],"split_type":[0,0,0,0,0,0,0,0,0,0,0,0,0,0,0],"sum_hessian":[4.9144E4,2.9956E4,1.9188E4,1.5729E4,1.4227E4,1.619E3,1.7569E4,1.4261E4,1.468E3,1.3497E4,7.3E2,1.235E3,3.84E2,1.633E3,1.5936E4],"tree_param":{"num_deleted":"0","num_feature":"19","num_nodes":"15","size_leaf_vector":"1"}},{"base_weights":[2.0005293E-1,-2.1198668E1,3.3135956E1,-3.8133312E1,-2.4369664E0,5.5209427E1,2.4028913E1,2.913451E0,-4.216698E0,3.9814785E0,-9.570767E-1,8.469758E0,4.3375626E0,2.185441E0,8.45165E0],"categories":[],"categories_nodes":[],"categories_segments":[],"categories_sizes":[],"default_left":[0,0,0,0,0,0,0,0,0,0,0,0,0,0,0],"id":5,"left_children":[1,3,5,7,9,11,13,-1,-1,-1,-1,-1,-1,-1,-1],"loss_changes":[3.4622616E7,9.461055E6,3.887884E6,4.24791E6,4.25878E6,1.967932E6,1.799856E6,0E0,0E0,0E0,0E0,0E0,0E0,0E0,0E0],"parents":[2147483647,0,0,1,1,2,2,3,3,4,4,5,5,6,6],"right_children":[2,4,6,8,10,12,14,-1,-1,-1,-1,-1,-1,-1,-1],"split_conditions":[5E2,2.5E2,-9.932457E0,-1.0574297E1,3.3828893E0,3.655511E0,2.8669462E0,2.913451E0,-4.216698E0,3.9814785E0,-9.570767E-1,8.469758E0,4.3375626E0,2.185441E0,8.45165E0],"split_indices":[18,18,17,17,10,10,11,0,0,0,0,0,0,0,0],"split_type":[0,0,0,0,0,0,0,0,0,0,0,0,0,0,0],"sum_hessian":[4.9123E4,2.9777E4,1.9346E4,1.565E4,1.4127E4,5.649E3,1.3697E4,8.85E2,1.4765E4,2.04E3,1.2087E4,1.616E3,4.033E3,1.3223E4,4.74E2],"tree_param":{"num_deleted":"0","num_feature":"19","num_nodes":"15","size_leaf_vector":"1"}},{"base_weights":[3.0270802E-2,-1.9331745E1,3.0143486E1,-3.4536057E1,-2.4621603E0,4.1143055E1,1.4373398E1,2.049382E-1,-4.1166415E0,3.2217038E0,-1.0142916E0,6.810558E0,3.4550202E0,1.8395821E0,-1.9984745E0],"categories":[],"categories_nodes":[],"categories_segments":[],"categories_sizes":[],"default_left":[0,0,0,0,0,0,0,0,0,0,0,0,0,0,0],"id":6,"left_children":[1,3,5,7,9,11,13,-1,-1,-1,-1,-1,-1,-1,-1],"loss_changes":[2.8693178E7,7.682575E6,3.340156E6,3.821604E6,3.7826738E6,2.014332E6,1.0942441E6,0E0,0E0,0E0,0E0,0E0,0E0,0E0,0E0],"parents":[2147483647,0,0,1,1,2,2,3,3,4,4,5,5,6,6],"right_children":[2,4,6,8,10,12,14,-1,-1,-1,-1,-1,-1,-1,-1],"split_conditions":[5E2,2.5E2,-9.689926E0,-8.564141E-2,3.886611E0,3.655511E0,-9.116431E0,2.049382E-1,-4.1166415E0,3.2217038E0,-1.0142916E0,6.810558E0,3.4550202E0,1.8395821E0,-1.9984745E0],"split_indices":[18,18,17,5,10,10,17,0,0,0,0,0,0,0,0],"split_type":[0,0,0,0,0,0,0,0,0,0,0,0,0,0,0],"sum_hessian":[4.921E4,2.9952E4,1.9258E4,1.5753E4,1.4199E4,1.1344E4,7.914E3,2.417E3,1.3336E4,2.574E3,1.1625E4,2.227E3,9.117E3,7.085E3,8.29E2],"tree_param":{"num_deleted":"0","num_feature":"19","num_nodes":"15","size_leaf_vector":"1"}},{"base_weights":[1.07366525E-1,-1.742884E1,2.7149141E1,-2.143434E1,4.181579E1,6.0483696E1,2.2744446E1,1.3552431E0,-2.833483E0,2.5972133E0,6.920894E0,1.1744705E1,5.5494313E0,3.6219792E0,6.6488564E-1],"categories":[],"categories_nodes":[],"categories_segments":[],"categories_sizes":[],"default_left":[0,0,0,0,0,0,0,0,0,0,0,0,0,0,0],"id":7,"left_children":[1,3,5,7,9,11,13,-1,-1,-1,-1,-1,-1,-1,-1],"loss_changes":[2.346202E7,7.123112E6,2.856349E6,6.787588E6,8.2325125E5,6.38928E5,3.728811E6,0E0,0E0,0E0,0E0,0E0,0E0,0E0,0E0],"parents":[2147483647,0,0,1,1,2,2,3,3,4,4,5,5,6,6],"right_children":[2,4,6,8,10,12,14,-1,-1,-1,-1,-1,-1,-1,-1],"split_conditions":[5E2,2.800288E0,-9.094115E-2,3.3828893E0,3.585775E0,-8.746221E-2,7.3E0,1.3552431E0,-2.833483E0,2.5972133E0,6.920894E0,1.1744705E1,5.5494313E0,3.6219792E0,6.6488564E-1],"split_indices":[18,11,5,10,11,6,0,0,0,0,0,0,0,0,0],"split_type":[0,0,0,0,0,0,0,0,0,0,0,0,0,0,0],"sum_hessian":[4.9474E4,3.0012E4,1.9462E4,2.8112E4,1.9E3,2.27E3,1.7192E4,4.631E3,2.3481E4,1.205E3,6.95E2,1.81E2,2.089E3,9.357E3,7.835E3],"tree_param":{"num_deleted":"0","num_feature":"19","num_nodes":"15","size_leaf_vector":"1"}},{"base_weights":[9.259331E-2,5.4219616E1,-2.5953178E0,7.458959E1,-3.9209294E0,-6.643612E0,3.639794E1,1.1427278E1,5.8188524E0,-3.8363044E0,5.9807305E0,3.3016568E-1,-2.3989031E0,2.4813743E0,6.886421E0],"categories":[],"categories_nodes":[],"categories_segments":[],"categories_sizes":[],"default_left":[0,0,0,0,0,0,0,0,0,0,0,0,0,0,0],"id":8,"left_children":[1,3,5,7,9,11,13,-1,-1,-1,-1,-1,-1,-1,-1],"loss_changes":[7.1714215E6,2.7621295E6,7.4131675E6,1.117363E6,1.3324251E6,7.339126E6,1.659506E6,0E0,0E0,0E0,0E0,0E0,0E0,0E0,0E0],"parents":[2147483647,0,0,1,1,2,2,3,3,4,4,5,5,6,6],"right_children":[2,4,6,8,10,12,14,-1,-1,-1,-1,-1,-1,-1,-1],"split_conditions":[-1.0574297E1,8.5E0,2.2707639E0,-1.1253956E1,1.1923436E0,7.9E0,2.77E2,1.1427278E1,5.8188524E0,-3.8363044E0,5.9807305E0,3.3016568E-1,-2.3989031E0,2.4813743E0,6.886421E0],"split_indices":[17,0,11,17,11,0,1,0,0,0,0,0,0,0,0],"split_type":[0,0,0,0,0,0,0,0,0,0,0,0,0,0,0],"sum_hessian":[4.929E4,2.331E3,4.6959E4,1.726E3,6.05E2,4.2543E4,4.416E3,5.03E2,1.223E3,3.93E2,2.12E2,2.704E4,1.5503E4,3.256E3,1.16E3],"tree_param":{"num_deleted":"0","num_feature":"19","num_nodes":"15","size_leaf_vector":"1"}},{"base_weights":[1.7040168E-1,-2.94668E1,1.4042678E1,3.0571838E1,-3.256951E1,-1.8535975E-1,2.4396748E1,4.3216734E0,-6.3038456E-1,1.1523366E0,-3.667359E0,-4.436837E-1,4.0731254E0,5.4809756E0,2.0288098E0],"categories":[],"categories_nodes":[],"categories_segments":[],"categories_sizes":[],"default_left":[0,0,0,0,0,0,0,0,0,0,0,0,0,0,0],"id":9,"left_children":[1,3,5,7,9,11,13,-1,-1,-1,-1,-1,-1,-1,-1],"loss_changes":[2.0245134E7,2.925631E6,4.9413475E6,3.6024762E5,2.701988E6,2.4580055E6,2.424792E6,0E0,0E0,0E0,0E0,0E0,0E0,0E0,0E0],"parents":[2147483647,0,0,1,1,2,2,3,3,4,4,5,5,6,6],"right_children":[2,4,6,8,10,12,14,-1,-1,-1,-1,-1,-1,-1,-1],"split_conditions":[2.5E2,-1.4366224E-1,5E2,-1.2672185E0,-1.0383348E1,2.357135E0,-9.3907535E-2,4.3216734E0,-6.3038456E-1,1.1523366E0,-3.667359E0,-4.436837E-1,4.0731254E0,5.4809756E0,2.0288098E0],"split_indices":[18,6,18,15,17,11,6,0,0,0,0,0,0,0,0],"split_type":[0,0,0,0,0,0,0,0,0,0,0,0,0,0,0],"sum_hessian":[4.924E4,1.5699E4,3.3541E4,7.71E2,1.4928E4,1.4128E4,1.9413E4,5.74E2,1.97E2,1.271E3,1.3657E4,1.2799E4,1.329E3,2.309E3,1.7104E4],"tree_param":{"num_deleted":"0","num_feature":"19","num_nodes":"15","size_leaf_vector":"1"}},{"base_weights":[8.573687E-2,-2.6394207E1,1.2538494E1,-3.2679207E1,-9.1844094E-1,6.09689E0,3.4203156E1,-3.0101856E-2,-3.8006253E0,3.029989E0,-1.6028451E0,-1.0313008E-1,3.4432266E0,8.442324E0,2.883589E0],"categories":[],"categories_nodes":[],"categories_segments":[],"categories_sizes":[],"default_left":[0,0,0,0,0,0,0,0,0,0,0,0,0,0,0],"id":10,"left_children":[1,3,5,7,9,11,13,-1,-1,-1,-1,-1,-1,-1,-1],"loss_changes":[1.6202185E7,2.51634E6,4.6635855E6,2.174272E6,1.467973E6,5.203242E6,2.062007E6,0E0,0E0,0E0,0E0,0E0,0E0,0E0,0E0],"parents":[2147483647,0,0,1,1,2,2,3,3,4,4,5,5,6,6],"right_children":[2,4,6,8,10,12,14,-1,-1,-1,-1,-1,-1,-1,-1],"split_conditions":[2.5E2,2.59E2,-3.6231992E-1,3.3828893E0,-8.614425E-2,1.6660904E0,-1.0574297E1,-3.0101856E-2,-3.8006253E0,3.029989E0,-1.6028451E0,-1.0313008E-1,3.4432266E0,8.442324E0,2.883589E0],"split_indices":[18,1,15,10,6,11,17,0,0,0,0,0,0,0,0],"split_type":[0,0,0,0,0,0,0,0,0,0,0,0,0,0,0],"sum_hessian":[4.9133E4,1.5715E4,3.3418E4,1.2605E4,3.11E3,2.576E4,7.658E3,1.781E3,1.0824E4,1.014E3,2.096E3,2.0583E4,5.177E3,7.38E2,6.92E3],"tree_param":{"num_deleted":"0","num_feature":"19","num_nodes":"15","size_leaf_vector":"1"}},{"base_weights":[-8.6449474E-2,1.8764894E1,-6.2382708E0,2.9224367E1,-4.343635E0,4.428222E1,-8.108963E0,8.056493E0,2.2996495E0,-3.1902578E0,4.053396E0,-6.699334E0,4.79829E0,2.2882726E0,-1.1390536E0],"categories":[],"categories_nodes":[],"categories_segments":[],"categories_sizes":[],"default_left":[0,0,0,0,0,0,0,0,0,0,0,0,0,0,0],"id":11,"left_children":[1,3,5,7,9,11,13,-1,-1,-1,-1,-1,-1,-1,-1],"loss_changes":[5.69854E6,2.922316E6,3.5017028E6,2.659364E6,4.6614765E6,5.48019E5,3.6336468E6,0E0,0E0,0E0,0E0,0E0,0E0,0E0,0E0],"parents":[2147483647,0,0,1,1,2,2,3,3,4,4,5,5,6,6],"right_children":[2,4,6,8,10,12,14,-1,-1,-1,-1,-1,-1,-1,-1],"split_conditions":[-9.979142E0,8.2E0,-1.471949E-1,-1.0916587E1,1.5888714E0,-3.5767566E-2,-1.0312195E-1,8.056493E0,2.2996495E0,-3.1902578E0,4.053396E0,-6.699334E0,4.79829E0,2.2882726E0,-1.1390536E0],"split_indices":[17,0,6,17,11,7,5,0,0,0,0,0,0,0,0],"split_type":[0,0,0,0,0,0,0,0,0,0,0,0,0,0,0],"sum_hessian":[4.9136E4,1.2089E4,3.7047E4,8.322E3,3.767E3,1.322E3,3.5725E4,8.99E2,7.423E3,2.334E3,1.433E3,4.2E1,1.28E3,3.42E3,3.2305E4],"tree_param":{"num_deleted":"0","num_feature":"19","num_nodes":"15","size_leaf_vector":"1"}},{"base_weights":[-2.4179754E-1,-1.36185E1,2.0473007E1,-1.6324482E1,3.1847519E1,2.776167E1,4.0516768E0,-3.1703836E-1,-2.763905E0,4.222883E0,-3.2350647E-1,2.22842E0,4.618106E0,2.97508E0,-6.6029474E-2],"categories":[],"categories_nodes":[],"categories_segments":[],"categories_sizes":[],"default_left":[0,0,0,0,0,0,0,0,0,0,0,0,0,0,0],"id":12,"left_children":[1,3,5,7,9,11,13,-1,-1,-1,-1,-1,-1,-1,-1],"loss_changes":[1.3652233E7,3.683676E6,2.3137265E6,4.205337E6,6.127264E5,1.349809E6,7.197996E5,0E0,0E0,0E0,0E0,0E0,0E0,0E0,0E0],"parents":[2147483647,0,0,1,1,2,2,3,3,4,4,5,5,6,6],"right_children":[2,4,6,8,10,12,14,-1,-1,-1,-1,-1,-1,-1,-1],"split_conditions":[5E2,2.940231E0,-9.602809E0,6.7E0,1.1358315E1,2.46E2,-9.574241E-2,-3.1703836E-1,-2.763905E0,4.222883E0,-3.2350647E-1,2.22842E0,4.618106E0,2.97508E0,-6.6029474E-2],"split_indices":[18,11,17,0,10,1,6,0,0,0,0,0,0,0,0],"split_type":[0,0,0,0,0,0,0,0,0,0,0,0,0,0,0],"sum_hessian":[4.9267E4,2.9936E4,1.9331E4,2.8255E4,1.681E3,1.3388E4,5.943E3,1.3066E4,1.5189E4,1.297E3,3.84E2,1.0321E4,3.067E3,9.2E2,5.023E3],"tree_param":{"num_deleted":"0","num_feature":"19","num_nodes":"15","size_leaf_vector":"1"}},{"base_weights":[2.859005E-2,-2.272874E1,1.0691981E1,6.259458E0,-2.7686352E1,5.225993E0,2.8894127E1,5.8413315E0,1.6430767E-1,2.3108928E0,-3.033147E0,4.270128E0,1.2899439E-1,7.1419487E0,2.4205513E0],"categories":[],"categories_nodes":[],"categories_segments":[],"categories_sizes":[],"default_left":[0,0,0,0,0,0,0,0,0,0,0,0,0,0,0],"id":13,"left_children":[1,3,5,7,9,11,13,-1,-1,-1,-1,-1,-1,-1,-1],"loss_changes":[1.1973598E7,2.2626355E6,3.3426055E6,5.536569E5,1.807031E6,3.8114622E6,1.5453E6,0E0,0E0,0E0,0E0,0E0,0E0,0E0,0E0],"parents":[2147483647,0,0,1,1,2,2,3,3,4,4,5,5,6,6],"right_children":[2,4,6,8,10,12,14,-1,-1,-1,-1,-1,-1,-1,-1],"split_conditions":[2.5E2,-8.90269E-2,-3.710338E-1,3.331465E-1,-1.471949E-1,-1.1329469E-1,-1.0574297E1,5.8413315E0,1.6430767E-1,2.3108928E0,-3.033147E0,4.270128E0,1.2899439E-1,7.1419487E0,2.4205513E0],"split_indices":[18,5,15,8,6,5,17,0,0,0,0,0,0,0,0],"split_type":[0,0,0,0,0,0,0,0,0,0,0,0,0,0,0],"sum_hessian":[4.9339E4,1.5742E4,3.3597E4,2.299E3,1.3443E4,2.5839E4,7.758E3,1.86E2,2.113E3,6.65E2,1.2778E4,2.455E3,2.3384E4,7.69E2,6.989E3],"tree_param":{"num_deleted":"0","num_feature":"19","num_nodes":"15","size_leaf_vector":"1"}},{"base_weights":[-1.9930799E-2,-1.1320553E1,1.743831E1,9.089792E0,-1.5813144E1,2.1362204E1,-8.057815E0,2.4146762E0,-1.0260283E0,-2.522277E0,-5.646411E-1,9.276758E0,2.020378E0,2.2687075E0,-1.6601673E0],"categories":[],"categories_nodes":[],"categories_segments":[],"categories_sizes":[],"default_left":[0,0,0,0,0,0,0,0,0,0,0,0,0,0,0],"id":14,"left_children":[1,3,5,7,9,11,13,-1,-1,-1,-1,-1,-1,-1,-1],"loss_changes":[9.735816E6,2.7470608E6,1.940127E6,1.5750132E6,2.348725E6,1.388196E6,6.7992975E5,0E0,0E0,0E0,0E0,0E0,0E0,0E0,0E0],"parents":[2147483647,0,0,1,1,2,2,3,3,4,4,5,5,6,6],"right_children":[2,4,6,8,10,12,14,-1,-1,-1,-1,-1,-1,-1,-1],"split_conditions":[5E2,-1.00747595E1,-9.38754E0,6.8E0,2.5E2,-1.111838E1,-9.221118E-2,2.4146762E0,-1.0260283E0,-2.522277E0,-5.646411E-1,9.276758E0,2.020378E0,2.2687075E0,-1.6601673E0],"split_indices":[18,17,17,0,18,17,6,0,0,0,0,0,0,0,0],"split_type":[0,0,0,0,0,0,0,0,0,0,0,0,0,0,0],"sum_hessian":[4.9346E4,2.9956E4,1.939E4,5.404E3,2.4552E4,1.6804E4,2.586E3,3.039E3,2.365E3,1.275E4,1.1802E4,2.67E2,1.6537E4,5.62E2,2.024E3],"tree_param":{"num_deleted":"0","num_feature":"19","num_nodes":"15","size_leaf_vector":"1"}},{"base_weights":[-1.7925853E-1,-1.8084679E1,8.267236E0,-2.3100983E1,5.414978E0,3.4821583E1,5.3149095E0,-1.4427084E0,-4.3920918E0,-4.2547545E-1,3.7825863E0,6.9879794E0,2.7840161E0,1.2476071E0,-7.8491634E-1],"categories":[],"categories_nodes":[],"categories_segments":[],"categories_sizes":[],"default_left":[0,0,0,0,0,0,0,0,0,0,0,0,0,0,0],"id":15,"left_children":[1,3,5,7,9,11,13,-1,-1,-1,-1,-1,-1,-1,-1],"loss_changes":[7.4437825E6,1.8598225E6,2.6216488E6,2.347218E6,8.70172E5,8.170085E5,2.8374375E6,0E0,0E0,0E0,0E0,0E0,0E0,0E0,0E0],"parents":[2147483647,0,0,1,1,2,2,3,3,4,4,5,5,6,6],"right_children":[2,4,6,8,10,12,14,-1,-1,-1,-1,-1,-1,-1,-1],"split_conditions":[2.5E2,1.6937777E0,-1.00393996E-1,8.2E0,2.74E2,-1.6349183E-1,8.2E0,-1.4427084E0,-4.3920918E0,-4.2547545E-1,3.7825863E0,6.9879794E0,2.7840161E0,1.2476071E0,-7.8491634E-1],"split_indices":[18,11,6,0,1,6,0,0,0,0,0,0,0,0,0],"split_type":[0,0,0,0,0,0,0,0,0,0,0,0,0,0,0],"sum_hessian":[4.9217E4,1.5775E4,3.3442E4,1.3E4,2.775E3,3.345E3,3.0097E4,9.178E3,3.822E3,2.138E3,6.37E2,5.54E2,2.791E3,1.9493E4,1.0604E4],"tree_param":{"num_deleted":"0","num_feature":"19","num_nodes":"15","size_leaf_vector":"1"}},{"base_weights":[5.2678723E-2,-9.578621E0,1.4989776E1,-1.3754419E1,1.0155793E1,1.8479694E1,-8.008678E0,-2.4580865E-1,-2.7738233E0,4.5591316E-1,4.518301E0,5.2025223E0,1.6621227E0,2.5154269E0,-1.4137081E0],"categories":[],"categories_nodes":[],"categories_segments":[],"categories_sizes":[],"default_left":[0,0,0,0,0,0,0,0,0,0,0,0,0,0,0],"id":16,"left_children":[1,3,5,7,9,11,13,-1,-1,-1,-1,-1,-1,-1,-1],"loss_changes":[7.081257E6,2.4662495E6,1.5488975E6,3.901686E6,1.0244715E6,1.0436335E6,5.171845E5,0E0,0E0,0E0,0E0,0E0,0E0,0E0,0E0],"parents":[2147483647,0,0,1,1,2,2,3,3,4,4,5,5,6,6],"right_children":[2,4,6,8,10,12,14,-1,-1,-1,-1,-1,-1,-1,-1],"split_conditions":[5E2,1.6937777E0,-9.38754E0,7E0,3.585775E0,-1.0574297E1,-2.1126988E0,-2.4580865E-1,-2.7738233E0,4.5591316E-1,4.518301E0,5.2025223E0,1.6621227E0,2.5154269E0,-1.4137081E0],"split_indices":[18,11,17,0,11,17,15,0,0,0,0,0,0,0,0],"split_type":[0,0,0,0,0,0,0,0,0,0,0,0,0,0,0],"sum_hessian":[4.922E4,2.9925E4,1.9295E4,2.4699E4,5.226E3,1.6753E4,2.542E3,1.3663E4,1.1036E4,4.507E3,7.19E2,8.78E2,1.5875E4,3.96E2,2.146E3],"tree_param":{"num_deleted":"0","num_feature":"19","num_nodes":"15","size_leaf_vector":"1"}},{"base_weights":[-5.7549477E-2,-8.725422E0,1.3381566E1,4.7985466E1,-1.0144207E1,3.6724472E1,9.446193E0,5.6609955E0,-7.556579E-1,1.0766312E0,-1.3802087E0,8.78366E0,3.2301166E0,1.1378086E0,-3.5737534E0],"categories":[],"categories_nodes":[],"categories_segments":[],"categories_sizes":[],"default_left":[0,0,0,0,0,0,0,0,0,0,0,0,0,0,0],"id":17,"left_children":[1,3,5,7,9,11,13,-1,-1,-1,-1,-1,-1,-1,-1],"loss_changes":[5.729839E6,2.4064188E6,1.771324E6,3.5011375E5,2.2315375E6,6.2612975E5,1.4411302E6,0E0,0E0,0E0,0E0,0E0,0E0,0E0,0E0],"parents":[2147483647,0,0,1,1,2,2,3,3,4,4,5,5,6,6],"right_children":[2,4,6,8,10,12,14,-1,-1,-1,-1,-1,-1,-1,-1],"split_conditions":[5E2,-1.0916587E1,-7.914812E-2,7.4925013E0,-8.564141E-2,-9.044744E-2,-9.116431E0,5.6609955E0,-7.556579E-1,1.0766312E0,-1.3802087E0,8.78366E0,3.2301166E0,1.1378086E0,-3.5737534E0],"split_indices":[18,17,5,10,5,6,17,0,0,0,0,0,0,0,0],"split_type":[0,0,0,0,0,0,0,0,0,0,0,0,0,0,0],"sum_hessian":[4.9186E4,2.9901E4,1.9285E4,7.29E2,2.9172E4,2.781E3,1.6504E4,6.31E2,9.8E1,4.343E3,2.4829E4,2.2E2,2.561E3,1.5828E4,6.76E2],"tree_param":{"num_deleted":"0","num_feature":"19","num_nodes":"15","size_leaf_vector":"1"}},{"base_weights":[4.1694487E-3,7.036829E0,-9.42861E0,5.954392E1,5.5605536E0,-4.4546833E1,-6.373413E0,6.783166E0,1.9402335E0,2.5204718E0,1.620615E-1,-8.2135075E-1,-8.237301E0,3.5346584E0,-8.284131E-1],"categories":[],"categories_nodes":[],"categories_segments":[],"categories_sizes":[],"default_left":[0,0,0,0,0,0,0,0,0,0,0,0,0,0,0],"id":18,"left_children":[1,3,5,7,9,11,13,-1,-1,-1,-1,-1,-1,-1,-1],"loss_changes":[3.2566422E6,2.179699E6,2.2494378E6,2.54517E5,2.117226E6,2.305484E6,1.5380782E6,0E0,0E0,0E0,0E0,0E0,0E0,0E0,0E0],"parents":[2147483647,0,0,1,1,2,2,3,3,4,4,5,5,6,6],"right_children":[2,4,6,8,10,12,14,-1,-1,-1,-1,-1,-1,-1,-1],"split_conditions":[-9.704757E0,-1.111838E1,-2.7357706E-1,8.5E0,-7.381436E-2,7.7E0,-1.471949E-1,6.783166E0,1.9402335E0,2.5204718E0,1.620615E-1,-8.2135075E-1,-8.237301E0,3.5346584E0,-8.284131E-1],"split_indices":[17,17,11,0,5,0,6,0,0,0,0,0,0,0,0],"split_type":[0,0,0,0,0,0,0,0,0,0,0,0,0,0,0],"sum_hessian":[4.909E4,2.8123E4,2.0967E4,7.68E2,2.7355E4,1.677E3,1.929E4,6.36E2,1.32E2,4.569E3,2.2786E4,8.56E2,8.21E2,8.44E2,1.8446E4],"tree_param":{"num_deleted":"0","num_feature":"19","num_nodes":"15","size_leaf_vector":"1"}},{"base_weights":[1.6515991E-1,-1.4273133E1,6.946751E0,-1.9149153E1,3.555427E0,3.0688711E1,4.262104E0,3.679432E0,-2.1132953E0,2.3590581E0,-6.915402E-1,7.5784945E0,2.5880005E0,1.0705093E0,-7.3976946E-1],"categories":[],"categories_nodes":[],"categories_segments":[],"categories_sizes":[],"default_left":[0,0,0,0,0,0,0,0,0,0,0,0,0,0,0],"id":19,"left_children":[1,3,5,7,9,11,13,-1,-1,-1,-1,-1,-1,-1,-1],"loss_changes":[4.8150495E6,1.3662975E6,2.132569E6,1.3703915E6,7.083962E5,7.351275E5,2.2584552E6,0E0,0E0,0E0,0E0,0E0,0E0,0E0,0E0],"parents":[2147483647,0,0,1,1,2,2,3,3,4,4,5,5,6,6],"right_children":[2,4,6,8,10,12,14,-1,-1,-1,-1,-1,-1,-1,-1],"split_conditions":[2.5E2,2.54E2,-1.00393996E-1,-1.0768396E1,-8.225395E-2,-1.7515422E-1,8.2E0,3.679432E0,-2.1132953E0,2.3590581E0,-6.915402E-1,7.5784945E0,2.5880005E0,1.0705093E0,-7.3976946E-1],"split_indices":[18,1,6,17,6,6,0,0,0,0,0,0,0,0,0],"split_type":[0,0,0,0,0,0,0,0,0,0,0,0,0,0,0],"sum_hessian":[4.9174E4,1.5715E4,3.3459E4,1.234E4,3.375E3,3.398E3,3.0061E4,4.22E2,1.1918E4,1.158E3,2.217E3,3.26E2,3.072E3,1.9362E4,1.0699E4],"tree_param":{"num_deleted":"0","num_feature":"19","num_nodes":"15","size_leaf_vector":"1"}},{"base_weights":[7.438272E-2,-7.2730217E0,1.1495723E1,2.82109E1,-9.3030615E0,3.276207E1,8.097783E0,9.939066E-1,4.8970013E0,1.1014106E0,-1.284198E0,7.2254367E0,2.828689E0,1.4978712E0,-6.097282E-1],"categories":[],"categories_nodes":[],"categories_segments":[],"categories_sizes":[],"default_left":[0,0,0,0,0,0,0,0,0,0,0,0,0,0,0],"id":20,"left_children":[1,3,5,7,9,11,13,-1,-1,-1,-1,-1,-1,-1,-1],"loss_changes":[4.1378732E6,2.161708E6,1.3946038E6,6.1550775E5,2.040902E6,4.67895E5,1.6258955E6,0E0,0E0,0E0,0E0,0E0,0E0,0E0,0E0],"parents":[2147483647,0,0,1,1,2,2,3,3,4,4,5,5,6,6],"right_children":[2,4,6,8,10,12,14,-1,-1,-1,-1,-1,-1,-1,-1],"split_conditions":[5E2,-1.3781588E-1,-8.2302384E-2,9.6E0,3.1128652E0,-1.6364038E-1,8.2E0,9.939066E-1,4.8970013E0,1.1014106E0,-1.284198E0,7.2254367E0,2.828689E0,1.4978712E0,-6.097282E-1],"split_indices":[18,5,5,0,10,5,0,0,0,0,0,0,0,0,0],"split_type":[0,0,0,0,0,0,0,0,0,0,0,0,0,0,0],"sum_hessian":[4.9307E4,3.0005E4,1.9302E4,1.623E3,2.8382E4,2.658E3,1.6644E4,8.64E2,7.59E2,4.21E3,2.4172E4,2.69E2,2.389E3,1.121E4,5.434E3],"tree_param":{"num_deleted":"0","num_feature":"19","num_nodes":"15","size_leaf_vector":"1"}},{"base_weights":[2.4802268E-2,-1.2521339E1,5.9100895E0,4.7676283E-1,-1.7893171E1,8.683172E0,-1.3556382E1,6.8171473E0,-1.2352323E-1,-6.7835236E-1,-2.9965897E0,3.0488772E0,6.231844E-1,-2.6579907E0,5.790929E-2],"categories":[],"categories_nodes":[],"categories_segments":[],"categories_sizes":[],"default_left":[0,0,0,0,0,0,0,0,0,0,0,0,0,0,0],"id":21,"left_children":[1,3,5,7,9,11,13,-1,-1,-1,-1,-1,-1,-1,-1],"loss_changes":[3.653413E6,1.1031518E6,1.8182362E6,5.356258E5,1.499166E6,1.5756488E6,7.7320906E5,0E0,0E0,0E0,0E0,0E0,0E0,0E0,0E0],"parents":[2147483647,0,0,1,1,2,2,3,3,4,4,5,5,6,6],"right_children":[2,4,6,8,10,12,14,-1,-1,-1,-1,-1,-1,-1,-1],"split_conditions":[2.5E2,-5.3571787E-2,-9.38754E0,-1.9226864E-1,6.7E0,-9.574241E-2,7.773104E-1,6.8171473E0,-1.2352323E-1,-6.7835236E-1,-2.9965897E0,3.0488772E0,6.231844E-1,-2.6579907E0,5.790929E-2],"split_indices":[18,5,17,5,0,6,11,0,0,0,0,0,0,0,0],"split_type":[0,0,0,0,0,0,0,0,0,0,0,0,0,0,0],"sum_hessian":[4.9477E4,1.5798E4,3.3679E4,4.62E3,1.1178E4,2.948E4,4.199E3,1.13E2,4.507E3,5.822E3,5.356E3,2.978E3,2.6502E4,2.185E3,2.014E3],"tree_param":{"num_deleted":"0","num_feature":"19","num_nodes":"15","size_leaf_vector":"1"}},{"base_weights":[2.0668529E-2,-6.1825094E0,9.693753E0,3.0303865E1,-7.74063E0,2.6986866E1,6.3611164E0,1.362766E0,4.855045E0,1.1605791E0,-1.0822235E0,6.8397765E0,2.3385296E0,1.293702E0,-7.870929E-1],"categories":[],"categories_nodes":[],"categories_segments":[],"categories_sizes":[],"default_left":[0,0,0,0,0,0,0,0,0,0,0,0,0,0,0],"id":22,"left_children":[1,3,5,7,9,11,13,-1,-1,-1,-1,-1,-1,-1,-1],"loss_changes":[2.95243E6,1.704546E6,1.1077971E6,3.7299862E5,1.714263E6,4.6164275E5,1.5087495E6,0E0,0E0,0E0,0E0,0E0,0E0,0E0,0E0],"parents":[2147483647,0,0,1,1,2,2,3,3,4,4,5,5,6,6],"right_children":[2,4,6,8,10,12,14,-1,-1,-1,-1,-1,-1,-1,-1],"split_conditions":[5E2,-1.471748E-1,-7.381436E-2,9.9E0,-9.221118E-2,-9.221118E-2,8.2E0,1.362766E0,4.855045E0,1.1605791E0,-1.0822235E0,6.8397765E0,2.3385296E0,1.293702E0,-7.870929E-1],"split_indices":[18,5,5,0,6,6,0,0,0,0,0,0,0,0,0],"split_type":[0,0,0,0,0,0,0,0,0,0,0,0,0,0,0],"sum_hessian":[4.9202E4,2.9978E4,1.9224E4,1.227E3,2.8751E4,3.105E3,1.6119E4,6.42E2,5.85E2,3.95E3,2.4801E4,2.47E2,2.858E3,1.1025E4,5.094E3],"tree_param":{"num_deleted":"0","num_feature":"19","num_nodes":"15","size_leaf_vector":"1"}},{"base_weights":[1.7322956E-1,-1.047924E1,5.148312E0,-1.4506565E1,5.04479E0,1.8808801E0,1.9451532E1,-1.2699072E-1,-2.0280943E0,2.8593528E0,-5.3779572E-2,-2.0978844E-1,1.7220846E0,2.5822015E0,5.685188E-1],"categories":[],"categories_nodes":[],"categories_segments":[],"categories_sizes":[],"default_left":[0,0,0,0,0,0,0,0,0,0,0,0,0,0,0],"id":23,"left_children":[1,3,5,7,9,11,13,-1,-1,-1,-1,-1,-1,-1,-1],"loss_changes":[2.6097812E6,9.802041E5,1.5687108E6,9.51418E5,4.2464034E5,1.6678541E6,5.4726575E5,0E0,0E0,0E0,0E0,0E0,0E0,0E0,0E0],"parents":[2147483647,0,0,1,1,2,2,3,3,4,4,5,5,6,6],"right_children":[2,4,6,8,10,12,14,-1,-1,-1,-1,-1,-1,-1,-1],"split_conditions":[2.5E2,2.57E2,2.59E2,5.6E0,-1.6488392E0,-4.160878E-1,9.820393E-1,-1.2699072E-1,-2.0280943E0,2.8593528E0,-5.3779572E-2,-2.0978844E-1,1.7220846E0,2.5822015E0,5.685188E-1],"split_indices":[18,1,1,0,15,15,8,0,0,0,0,0,0,0,0],"split_type":[0,0,0,0,0,0,0,0,0,0,0,0,0,0,0],"sum_hessian":[4.9242E4,1.5676E4,3.3566E4,1.2447E4,3.229E3,2.7325E4,6.241E3,3.781E3,8.666E3,6.18E2,2.611E3,2.1698E4,5.627E3,4.266E3,1.975E3],"tree_param":{"num_deleted":"0","num_feature":"19","num_nodes":"15","size_leaf_vector":"1"}},{"base_weights":[-1.8398988E-1,4.2207894E0,-1.1474549E1,2.417106E1,1.7940413E0,-4.149999E1,-8.21664E0,5.277072E0,2.0112195E0,7.365939E-1,-6.816891E-1,-2.7629457E0,-7.5678697E0,3.4760957E0,-9.7060585E-1],"categories":[],"categories_nodes":[],"categories_segments":[],"categories_sizes":[],"default_left":[0,0,0,0,0,0,0,0,0,0,0,0,0,0,0],"id":24,"left_children":[1,3,5,7,9,11,13,-1,-1,-1,-1,-1,-1,-1,-1],"loss_changes":[2.4499175E6,1.7156138E6,1.3520224E6,4.450425E5,1.5159539E6,6.39335E5,7.9875406E5,0E0,0E0,0E0,0E0,0E0,0E0,0E0,0E0],"parents":[2147483647,0,0,1,1,2,2,3,3,4,4,5,5,6,6],"right_children":[2,4,6,8,10,12,14,-1,-1,-1,-1,-1,-1,-1,-1],"split_conditions":[-9.585289E0,-9.221118E-2,-2.7357706E-1,-1.687766E-1,5.8478813E0,6.2650533E0,-1.5897991E-1,5.277072E0,2.0112195E0,7.365939E-1,-6.816891E-1,-2.7629457E0,-7.5678697E0,3.4760957E0,-9.7060585E-1],"split_indices":[17,6,11,6,10,10,6,0,0,0,0,0,0,0,0],"split_type":[0,0,0,0,0,0,0,0,0,0,0,0,0,0,0],"sum_hessian":[4.926E4,3.5436E4,1.3824E4,3.842E3,3.1594E4,1.352E3,1.2472E4,4.76E2,3.366E3,1.9182E4,1.2412E4,9.63E2,3.89E2,4.17E2,1.2055E4],"tree_param":{"num_deleted":"0","num_feature":"19","num_nodes":"15","size_leaf_vector":"1"}},{"base_weights":[-1.4837381E-1,-1.0175848E1,4.530682E0,9.678801E0,-1.3067108E1,2.0088926E1,1.6688341E0,5.8142695E0,6.715411E-1,-9.0233165E-1,-2.8987203E0,5.1645713E0,1.6249924E0,6.940665E-1,-1.126329E0],"categories":[],"categories_nodes":[],"categories_segments":[],"categories_sizes":[],"default_left":[0,0,0,0,0,0,0,0,0,0,0,0,0,0,0],"id":25,"left_children":[1,3,5,7,9,11,13,-1,-1,-1,-1,-1,-1,-1,-1],"loss_changes":[2.3173342E6,9.0218775E5,1.4994012E6,2.8655712E5,8.8280575E5,6.3299975E5,1.9393438E6,0E0,0E0,0E0,0E0,0E0,0E0,0E0,0E0],"parents":[2147483647,0,0,1,1,2,2,3,3,4,4,5,5,6,6],"right_children":[2,4,6,8,10,12,14,-1,-1,-1,-1,-1,-1,-1,-1],"split_conditions":[2.5E2,-9.668899E-2,-7.638086E-2,3.331465E-1,-9.507274E0,-1.6364038E-1,8.7E0,5.8142695E0,6.715411E-1,-9.0233165E-1,-2.8987203E0,5.1645713E0,1.6249924E0,6.940665E-1,-1.126329E0],"split_indices":[18,5,5,8,17,5,0,0,0,0,0,0,0,0,0],"split_type":[0,0,0,0,0,0,0,0,0,0,0,0,0,0,0],"sum_hessian":[4.9388E4,1.5713E4,3.3675E4,1.997E3,1.3716E4,5.231E3,2.8444E4,1.14E2,1.883E3,1.0939E4,2.777E3,5.66E2,4.665E3,2.0207E4,8.237E3],"tree_param":{"num_deleted":"0","num_feature":"19","num_nodes":"15","size_leaf_vector":"1"}},{"base_weights":[2.3536738E-2,-5.011472E0,7.8358865E0,-1.0458349E0,-1.5670703E1,4.3898655E1,6.61264E0,-2.0791344E-1,4.3032684E0,-2.7792108E0,-6.4077467E-1,1.6026891E0,6.2658634E0,8.3257073E-1,-1.7244129E0],"categories":[],"categories_nodes":[],"categories_segments":[],"categories_sizes":[],"default_left":[0,0,0,0,0,0,0,0,0,0,0,0,0,0,0],"id":26,"left_children":[1,3,5,7,9,11,13,-1,-1,-1,-1,-1,-1,-1,-1],"loss_changes":[1.9371036E6,1.2658204E6,8.511034E5,9.942289E5,9.11536E5,3.2997475E5,7.63072E5,0E0,0E0,0E0,0E0,0E0,0E0,0E0,0E0],"parents":[2147483647,0,0,1,1,2,2,3,3,4,4,5,5,6,6],"right_children":[2,4,6,8,10,12,14,-1,-1,-1,-1,-1,-1,-1,-1],"split_conditions":[5E2,-9.58194E0,-1.4073212E-1,1.2915754E-1,6.233397E-1,8E0,-9.213727E0,-2.0791344E-1,4.3032684E0,-2.7792108E0,-6.4077467E-1,1.6026891E0,6.2658634E0,8.3257073E-1,-1.7244129E0],"split_indices":[18,17,5,5,11,0,17,0,0,0,0,0,0,0,0],"split_type":[0,0,0,0,0,0,0,0,0,0,0,0,0,0,0],"sum_hessian":[4.9244E4,2.9945E4,1.9299E4,2.1826E4,8.119E3,6.32E2,1.8667E4,2.1327E4,4.99E2,3.516E3,4.603E3,2.55E2,3.77E2,1.7417E4,1.25E3],"tree_param":{"num_deleted":"0","num_feature":"19","num_nodes":"15","size_leaf_vector":"1"}},{"base_weights":[7.027798E-2,1.0141139E1,-3.651692E0,2.8669888E1,6.6281905E0,2.7291107E0,-1.7089323E1,1.535714E0,4.0052304E0,3.5428274E0,4.151596E-1,3.4576187E0,1.5673129E-2,-5.904433E0,-5.596403E-1],"categories":[],"categories_nodes":[],"categories_segments":[],"categories_sizes":[],"default_left":[0,0,0,0,0,0,0,0,0,0,0,0,0,0,0],"id":27,"left_children":[1,3,5,7,9,11,13,-1,-1,-1,-1,-1,-1,-1,-1],"loss_changes":[1.842723E6,8.633011E5,3.0777875E6,3.1972188E5,7.953531E5,1.9939128E6,5.572288E6,0E0,0E0,0E0,0E0,0E0,0E0,0E0,0E0],"parents":[2147483647,0,0,1,1,2,2,3,3,4,4,5,5,6,6],"right_children":[2,4,6,8,10,12,14,-1,-1,-1,-1,-1,-1,-1,-1],"split_conditions":[-5.3571787E-2,-6.27881E-2,8E0,2.5E2,-1.6364038E-1,-1.0383348E1,2.1652213E-1,1.535714E0,4.0052304E0,3.5428274E0,4.151596E-1,3.4576187E0,1.5673129E-2,-5.904433E0,-5.596403E-1],"split_indices":[5,6,0,18,5,17,11,0,0,0,0,0,0,0,0],"split_type":[0,0,0,0,0,0,0,0,0,0,0,0,0,0,0],"sum_hessian":[4.9159E4,1.3265E4,3.5894E4,2.113E3,1.1152E4,2.4338E4,1.1556E4,9.75E2,1.138E3,8.82E2,1.027E4,1.818E3,2.252E4,2.484E3,9.072E3],"tree_param":{"num_deleted":"0","num_feature":"19","num_nodes":"15","size_leaf_vector":"1"}},{"base_weights":[-2.13474E-1,4.6409367E1,-9.3515867E-1,5.137131E1,-9.640831E0,-3.7137647E0,1.1624398E1,6.890864E0,3.7659402E0,9.122734E0,-2.4137278E0,-1.2942955E-1,-1.9585365E0,2.7654965E0,5.5196446E-1],"categories":[],"categories_nodes":[],"categories_segments":[],"categories_sizes":[],"default_left":[0,0,0,0,0,0,0,0,0,0,0,0,0,0,0],"id":28,"left_children":[1,3,5,7,9,11,13,-1,-1,-1,-1,-1,-1,-1,-1],"loss_changes":[1.6599166E6,2.0963988E5,1.6954259E6,1.6357012E5,9.286025E4,1.5275989E6,8.6113675E5,0E0,0E0,0E0,0E0,0E0,0E0,0E0,0E0],"parents":[2147483647,0,0,1,1,2,2,3,3,4,4,5,5,6,6],"right_children":[2,4,6,8,10,12,14,-1,-1,-1,-1,-1,-1,-1,-1],"split_conditions":[-1.111838E1,7.541872E0,2.62E2,-3.0255473E-1,-5.6392852E-2,-9.401936E0,-8.614425E-2,6.890864E0,3.7659402E0,9.122734E0,-2.4137278E0,-1.2942955E-1,-1.9585365E0,2.7654965E0,5.5196446E-1],"split_indices":[17,10,1,11,6,17,6,0,0,0,0,0,0,0,0],"split_type":[0,0,0,0,0,0,0,0,0,0,0,0,0,0,0],"sum_hessian":[4.9331E4,7.51E2,4.858E4,6.9E2,6.1E1,3.978E4,8.8E3,3.01E2,3.89E2,7E0,5.4E1,3.4519E4,5.261E3,2.426E3,6.374E3],"tree_param":{"num_deleted":"0","num_feature":"19","num_nodes":"15","size_leaf_vector":"1"}},{"base_weights":[9.510075E-2,-8.178328E0,4.0032935E0,8.600244E0,-1.086999E1,1.0783092E1,-8.667016E-1,1.4409071E0,-1.3382806E0,5.094322E-1,-1.3707732E0,1.5753297E0,-4.305682E-1,-2.4491518E0,3.6465585E-2],"categories":[],"categories_nodes":[],"categories_segments":[],"categories_sizes":[],"default_left":[0,0,0,0,0,0,0,0,0,0,0,0,0,0,0],"id":29,"left_children":[1,3,5,7,9,11,13,-1,-1,-1,-1,-1,-1,-1,-1],"loss_changes":[1.5917782E6,7.13386E5,1.1039522E6,2.790803E5,6.1668375E5,1.0482629E6,5.6608275E5,0E0,0E0,0E0,0E0,0E0,0E0,0E0,0E0],"parents":[2147483647,0,0,1,1,2,2,3,3,4,4,5,5,6,6],"right_children":[2,4,6,8,10,12,14,-1,-1,-1,-1,-1,-1,-1,-1],"split_conditions":[2.5E2,-9.2888705E-2,-9.820949E0,9.806356E1,-9.3907535E-2,8.8E0,-4.9611804E-1,1.4409071E0,-1.3382806E0,5.094322E-1,-1.3707732E0,1.5753297E0,-4.305682E-1,-2.4491518E0,3.6465585E-2],"split_indices":[18,5,17,4,6,0,11,0,0,0,0,0,0,0,0],"split_type":[0,0,0,0,0,0,0,0,0,0,0,0,0,0,0],"sum_hessian":[4.9227E4,1.5793E4,3.3434E4,2.183E3,1.361E4,1.3976E4,1.9458E4,1.727E3,4.56E2,2.054E3,1.1556E4,1.0513E4,3.463E3,9.63E2,1.8495E4],"tree_param":{"num_deleted":"0","num_feature":"19","num_nodes":"15","size_leaf_vector":"1"}},{"base_weights":[2.9479218E-1,1.7337343E1,-1.4760535E0,4.8854877E1,1.290395E1,-2.4210697E1,-2.9051786E-3,6.5914316E0,3.08866E0,3.494822E0,8.467733E-1,-4.698688E0,8.739869E-1,-1.1123186E-1,2.604196E0],"categories":[],"categories_nodes":[],"categories_segments":[],"categories_sizes":[],"default_left":[0,0,0,0,0,0,0,0,0,0,0,0,0,0,0],"id":30,"left_children":[1,3,5,7,9,11,13,-1,-1,-1,-1,-1,-1,-1,-1],"loss_changes":[1.4803412E6,6.445015E5,1.4881614E6,1.72379E5,3.956685E5,2.0297306E6,1.2058264E6,0E0,0E0,0E0,0E0,0E0,0E0,0E0,0E0],"parents":[2147483647,0,0,1,1,2,2,3,3,4,4,5,5,6,6],"right_children":[2,4,6,8,10,12,14,-1,-1,-1,-1,-1,-1,-1,-1],"split_conditions":[-1.0291875E1,-1.1253956E1,-4.0809232E-1,-2.4616648E-1,-8.346123E-2,-3.4330815E-1,3.0901139E0,6.5914316E0,3.08866E0,3.494822E0,8.467733E-1,-4.698688E0,8.739869E-1,-1.1123186E-1,2.604196E0],"split_indices":[17,17,11,11,6,15,11,0,0,0,0,0,0,0,0],"split_type":[0,0,0,0,0,0,0,0,0,0,0,0,0,0,0],"sum_hessian":[4.9049E4,4.616E3,4.4433E4,5.68E2,4.048E3,2.703E3,4.173E4,2.9E2,2.78E2,6.77E2,3.371E3,1.598E3,1.105E3,4.0026E4,1.704E3],"tree_param":{"num_deleted":"0","num_feature":"19","num_nodes":"15","size_leaf_vector":"1"}},{"base_weights":[3.6166848E-3,1.3487417E1,-2.0446236E0,4.2794197E1,1.070767E1,6.7423683E-1,-1.5982436E1,-8.95163E0,4.5353293E0,3.9529064E0,8.418892E-1,2.042609E-1,-2.0178518E0,2.0685027E0,-2.728501E0],"categories":[],"categories_nodes":[],"categories_segments":[],"categories_sizes":[],"default_left":[0,0,0,0,0,0,0,0,0,0,0,0,0,0,0],"id":31,"left_children":[1,3,5,7,9,11,13,-1,-1,-1,-1,-1,-1,-1,-1],"loss_changes":[1.3594162E6,5.28334E5,1.6193006E6,1.943505E5,3.908442E5,1.0203432E6,2.8912605E6,0E0,0E0,0E0,0E0,0E0,0E0,0E0,0E0],"parents":[2147483647,0,0,1,1,2,2,3,3,4,4,5,5,6,6],"right_children":[2,4,6,8,10,12,14,-1,-1,-1,-1,-1,-1,-1,-1],"split_conditions":[-9.044744E-2,-1.7515422E-1,8.02004E0,-1.7574518E0,-8.2302384E-2,-9.290419E0,-1.1329469E-1,-8.95163E0,4.5353293E0,3.9529064E0,8.418892E-1,2.042609E-1,-2.0178518E0,2.0685027E0,-2.728501E0],"split_indices":[6,6,10,9,5,17,5,0,0,0,0,0,0,0,0],"split_type":[0,0,0,0,0,0,0,0,0,0,0,0,0,0,0],"sum_hessian":[4.922E4,6.49E3,4.273E4,5.61E2,5.929E3,3.5756E4,6.974E3,1E1,5.51E2,4.35E2,5.494E3,3.3555E4,2.201E3,1.643E3,5.331E3],"tree_param":{"num_deleted":"0","num_feature":"19","num_nodes":"15","size_leaf_vector":"1"}},{"base_weights":[2.6381642E-2,-4.1271744E0,6.474224E0,-1.9471008E0,-1.6887613E1,1.825281E1,3.57231E0,-3.8275108E-1,1.4830846E0,1.3599542E0,-2.0933979E0,1.6460285E0,5.4370346E0,9.340469E-1,-3.7397262E-1],"categories":[],"categories_nodes":[],"categories_segments":[],"categories_sizes":[],"default_left":[0,0,0,0,0,0,0,0,0,0,0,0,0,0,0],"id":32,"left_children":[1,3,5,7,9,11,13,-1,-1,-1,-1,-1,-1,-1,-1],"loss_changes":[1.319684E6,8.3369344E5,6.5982256E5,8.0765856E5,5.397476E5,2.4615875E5,6.533987E5,0E0,0E0,0E0,0E0,0E0,0E0,0E0,0E0],"parents":[2147483647,0,0,1,1,2,2,3,3,4,4,5,5,6,6],"right_children":[2,4,6,8,10,12,14,-1,-1,-1,-1,-1,-1,-1,-1],"split_conditions":[5E2,-9.42263E0,-6.349292E-2,-8.250542E-3,-2.6514614E0,-7.978142E1,7.2E0,-3.8275108E-1,1.4830846E0,1.3599542E0,-2.0933979E0,1.6460285E0,5.4370346E0,9.340469E-1,-3.7397262E-1],"split_indices":[18,17,5,15,15,2,0,0,0,0,0,0,0,0,0],"split_type":[0,0,0,0,0,0,0,0,0,0,0,0,0,0,0],"sum_hessian":[4.9274E4,2.9969E4,1.9305E4,2.5597E4,4.372E3,3.815E3,1.549E4,2.3018E4,2.579E3,5.12E2,3.86E3,3.636E3,1.79E2,8.659E3,6.831E3],"tree_param":{"num_deleted":"0","num_feature":"19","num_nodes":"15","size_leaf_vector":"1"}},{"base_weights":[-4.199785E-2,-7.274574E0,3.3522954E0,2.0710245E1,-8.560855E0,2.5698755E0,3.978897E1,2.8599598E0,-1.1695564E0,-5.753222E-1,-2.4362555E0,3.8150868E-1,-2.3406942E0,4.934191E0,8.0332947E-1],"categories":[],"categories_nodes":[],"categories_segments":[],"categories_sizes":[],"default_left":[0,0,0,0,0,0,0,0,0,0,0,0,0,0,0],"id":33,"left_children":[1,3,5,7,9,11,13,-1,-1,-1,-1,-1,-1,-1,-1],"loss_changes":[1.20808E6,5.65968E5,9.54714E5,1.7699612E5,6.665826E5,1.0607025E6,2.1316912E5,0E0,0E0,0E0,0E0,0E0,0E0,0E0,0E0],"parents":[2147483647,0,0,1,1,2,2,3,3,4,4,5,5,6,6],"right_children":[2,4,6,8,10,12,14,-1,-1,-1,-1,-1,-1,-1,-1],"split_conditions":[2.5E2,-2.6514614E0,3.4760804E0,1.1358315E1,8.571109E0,9.941965E0,1.1358315E1,2.8599598E0,-1.1695564E0,-5.753222E-1,-2.4362555E0,3.8150868E-1,-2.3406942E0,4.934191E0,8.0332947E-1],"split_indices":[18,15,11,10,10,10,10,0,0,0,0,0,0,0,0],"split_type":[0,0,0,0,0,0,0,0,0,0,0,0,0,0,0],"sum_hessian":[4.9208E4,1.5717E4,3.3491E4,6.9E2,1.5027E4,3.2788E4,7.03E2,5.55E2,1.35E2,1.2761E4,2.266E3,3.1289E4,1.499E3,5.4E2,1.63E2],"tree_param":{"num_deleted":"0","num_feature":"19","num_nodes":"15","size_leaf_vector":"1"}},{"base_weights":[-1.1258714E-1,5.942492E0,-4.004067E0,1.5227589E1,2.09365E0,1.4889079E0,-1.796961E1,1.3475925E0,4.8635798E0,1.5515246E0,-5.7479657E-2,2.0367246E0,-9.973821E-2,-3.7566492E-1,-4.751053E0],"categories":[],"categories_nodes":[],"categories_segments":[],"categories_sizes":[],"default_left":[0,0,0,0,0,0,0,0,0,0,0,0,0,0,0],"id":34,"left_children":[1,3,5,7,9,11,13,-1,-1,-1,-1,-1,-1,-1,-1],"loss_changes":[1.1608185E6,6.887606E5,2.300631E6,3.2986538E5,4.8805738E5,1.01033975E6,3.554389E6,0E0,0E0,0E0,0E0,0E0,0E0,0E0,0E0],"parents":[2147483647,0,0,1,1,2,2,3,3,4,4,5,5,6,6],"right_children":[2,4,6,8,10,12,14,-1,-1,-1,-1,-1,-1,-1,-1],"split_conditions":[-3.7773475E-2,-9.924326E0,8.2E0,1.2963476E0,-8.4663935E-2,-3.0255473E-1,-4.733941E-2,1.3475925E0,4.8635798E0,1.5515246E0,-5.7479657E-2,2.0367246E0,-9.973821E-2,-3.7566492E-1,-4.751053E0],"split_indices":[5,17,0,16,6,11,6,0,0,0,0,0,0,0,0],"split_type":[0,0,0,0,0,0,0,0,0,0,0,0,0,0,0],"sum_hessian":[4.9262E4,1.9273E4,2.9989E4,5.647E3,1.3626E4,2.1524E4,8.465E3,5.367E3,2.8E2,2.259E3,1.1367E4,2.504E3,1.902E4,5.716E3,2.749E3],"tree_param":{"num_deleted":"0","num_feature":"19","num_nodes":"15","size_leaf_vector":"1"}},{"base_weights":[-1.9329002E-1,1.0839152E1,-1.9888463E0,5.8837223E0,2.3087389E1,5.7978528E-3,-1.914351E1,2.5995505E0,1.823474E-1,5.8791393E-1,3.1071236E0,1.22205555E-1,-2.3776164E0,-8.423357E0,-1.4776443E0],"categories":[],"categories_nodes":[],"categories_segments":[],"categories_sizes":[],"default_left":[0,0,0,0,0,0,0,0,0,0,0,0,0,0,0],"id":35,"left_children":[1,3,5,7,9,11,13,-1,-1,-1,-1,-1,-1,-1,-1],"loss_changes":[9.7495956E5,4.1799412E5,1.4483564E6,4.005708E5,2.7239512E5,1.0968648E6,1.2520251E6,0E0,0E0,0E0,0E0,0E0,0E0,0E0,0E0],"parents":[2147483647,0,0,1,1,2,2,3,3,4,4,5,5,6,6],"right_children":[2,4,6,8,10,12,14,-1,-1,-1,-1,-1,-1,-1,-1],"split_conditions":[-8.746221E-2,2.72E2,1.08E1,2.5248938E0,8E0,-9.241713E0,4.0458096E1,2.5995505E0,1.823474E-1,5.8791393E-1,3.1071236E0,1.22205555E-1,-2.3776164E0,-8.423357E0,-1.4776443E0],"split_indices":[6,1,0,10,0,17,3,0,0,0,0,0,0,0,0],"split_type":[0,0,0,0,0,0,0,0,0,0,0,0,0,0,0],"sum_hessian":[4.9215E4,6.888E3,4.2327E4,4.905E3,1.983E3,3.7919E4,4.408E3,8.23E2,4.082E3,6.29E2,1.354E3,3.6075E4,1.844E3,2.76E2,4.132E3],"tree_param":{"num_deleted":"0","num_feature":"19","num_nodes":"15","size_leaf_vector":"1"}},{"base_weights":[2.401248E-2,-1.3571658E0,1.6243282E1,-1.6074432E1,3.2913047E-1,2.5907349E1,2.8586643E0,1.4175557E0,-3.9851022E0,-2.0071125E-1,8.3492535E-1,2.7778072E0,-3.6190712E0,7.886711E-2,3.499888E0],"categories":[],"categories_nodes":[],"categories_segments":[],"categories_sizes":[],"default_left":[0,0,0,0,0,0,0,0,0,0,0,0,0,0,0],"id":36,"left_children":[1,3,5,7,9,11,13,-1,-1,-1,-1,-1,-1,-1,-1],"loss_changes":[1.1021859E6,1.1252384E6,4.9934575E5,3.35295E6,7.622361E5,2.614545E5,1.0775104E5,0E0,0E0,0E0,0E0,0E0,0E0,0E0,0E0],"parents":[2147483647,0,0,1,1,2,2,3,3,4,4,5,5,6,6],"right_children":[2,4,6,8,10,12,14,-1,-1,-1,-1,-1,-1,-1,-1],"split_conditions":[1.0091031E-1,-1.0177709E-1,9.2735425E-2,7E0,1.5071697E0,-8.922064E0,3.7368912E-1,1.4175557E0,-3.9851022E0,-2.0071125E-1,8.3492535E-1,2.7778072E0,-3.6190712E0,7.886711E-2,3.499888E0],"split_indices":[15,11,11,0,11,17,12,0,0,0,0,0,0,0,0],"split_type":[0,0,0,0,0,0,0,0,0,0,0,0,0,0,0],"sum_hessian":[4.9199E4,4.5339E4,3.86E3,4.66E3,4.0679E4,2.241E3,1.619E3,2.051E3,2.609E3,3.1503E4,9.176E3,2.176E3,6.5E1,1.522E3,9.7E1],"tree_param":{"num_deleted":"0","num_feature":"19","num_nodes":"15","size_leaf_vector":"1"}},{"base_weights":[-8.4617876E-2,2.2591978E1,-1.1004953E0,-6.884431E-2,3.2586266E1,-2.4206576E-1,-2.5293512E1,7.549255E0,-3.2221788E-1,1.2840507E1,3.1240299E0,-3.9419493E-1,5.397222E-1,-3.5540245E0,-6.35833E-1],"categories":[],"categories_nodes":[],"categories_segments":[],"categories_sizes":[],"default_left":[0,0,0,0,0,0,0,0,0,0,0,0,0,0,0],"id":37,"left_children":[1,3,5,7,9,11,13,-1,-1,-1,-1,-1,-1,-1,-1],"loss_changes":[1.1357774E6,4.787785E5,9.80015E5,1.5464242E5,1.8518612E5,9.508886E5,3.135105E5,0E0,0E0,0E0,0E0,0E0,0E0,0E0,0E0],"parents":[2147483647,0,0,1,1,2,2,3,3,4,4,5,5,6,6],"right_children":[2,4,6,8,10,12,14,-1,-1,-1,-1,-1,-1,-1,-1],"split_conditions":[-1.4073212E-1,7.2E0,-9.0692835E0,4.115352E-1,-1.1315064E-1,5E2,1.320135E0,7.549255E0,-3.2221788E-1,1.2840507E1,3.1240299E0,-3.9419493E-1,5.397222E-1,-3.5540245E0,-6.35833E-1],"split_indices":[5,0,17,10,6,18,11,0,0,0,0,0,0,0,0],"split_type":[0,0,0,0,0,0,0,0,0,0,0,0,0,0,0],"sum_hessian":[4.9301E4,2.113E3,4.7188E4,6.47E2,1.466E3,4.5572E4,1.616E3,2.5E1,6.22E2,1.9E1,1.447E3,2.7518E4,1.8054E4,1.048E3,5.68E2],"tree_param":{"num_deleted":"0","num_feature":"19","num_nodes":"15","size_leaf_vector":"1"}},{"base_weights":[5.321162E-2,7.159887E0,-2.5941176E0,2.8832956E1,5.4206843E0,2.3293464E0,-9.878495E0,1.6236147E0,4.5200343E0,3.886363E-1,3.193255E0,2.8703127E0,3.3522103E-2,-3.4966908E0,-2.9245284E-1],"categories":[],"categories_nodes":[],"categories_segments":[],"categories_sizes":[],"default_left":[0,0,0,0,0,0,0,0,0,0,0,0,0,0,0],"id":38,"left_children":[1,3,5,7,9,11,13,-1,-1,-1,-1,-1,-1,-1,-1],"loss_changes":[9.240163E5,5.0230288E5,1.2833938E6,2.0338112E5,5.018797E5,1.1230008E6,2.517762E6,0E0,0E0,0E0,0E0,0E0,0E0,0E0,0E0],"parents":[2147483647,0,0,1,1,2,2,3,3,4,4,5,5,6,6],"right_children":[2,4,6,8,10,12,14,-1,-1,-1,-1,-1,-1,-1,-1],"split_conditions":[-5.3571787E-2,-1.6364038E-1,7.3E0,1E1,-7.978142E1,-5.528091E-1,1.9306527E-1,1.6236147E0,4.5200343E0,3.886363E-1,3.193255E0,2.8703127E0,3.3522103E-2,-3.4966908E0,-2.9245284E-1],"split_indices":[5,5,0,0,2,11,11,0,0,0,0,0,0,0,0],"split_type":[0,0,0,0,0,0,0,0,0,0,0,0,0,0,0],"sum_hessian":[4.9112E4,1.3329E4,3.5783E4,9.89E2,1.234E4,2.1352E4,1.4431E4,5.6E2,4.29E2,1.1666E4,6.74E2,1.5E3,1.9852E4,3.131E3,1.13E4],"tree_param":{"num_deleted":"0","num_feature":"19","num_nodes":"15","size_leaf_vector":"1"}},{"base_weights":[-1.4903217E-3,3.3660103E1,-5.356799E-1,5.659443E1,2.6233337E1,4.6476417E0,-3.6733022E0,6.8157077E0,1.7466806E0,1.9859171E-1,3.2007222E0,1.4804149E0,2.4418104E-1,-3.469283E-2,-1.7468294E0],"categories":[],"categories_nodes":[],"categories_segments":[],"categories_sizes":[],"default_left":[0,0,0,0,0,0,0,0,0,0,0,0,0,0,0],"id":39,"left_children":[1,3,5,7,9,11,13,-1,-1,-1,-1,-1,-1,-1,-1],"loss_changes":[8.8403294E5,1.29327125E5,7.870797E5,8.3411875E4,8.141747E4,4.0880612E5,1.3833585E6,0E0,0E0,0E0,0E0,0E0,0E0,0E0,0E0],"parents":[2147483647,0,0,1,1,2,2,3,3,4,4,5,5,6,6],"right_children":[2,4,6,8,10,12,14,-1,-1,-1,-1,-1,-1,-1,-1],"split_conditions":[-1.111838E1,-1.1759925E1,-3.966469E-2,6.3E0,3.4E0,-7.142302E-2,9.5E0,6.8157077E0,1.7466806E0,1.9859171E-1,3.2007222E0,1.4804149E0,2.4418104E-1,-3.469283E-2,-1.7468294E0],"split_indices":[17,17,5,0,0,6,0,0,0,0,0,0,0,0,0],"split_type":[0,0,0,0,0,0,0,0,0,0,0,0,0,0,0],"sum_hessian":[4.9161E4,7.67E2,4.8394E4,1.86E2,5.81E2,1.8248E4,3.0146E4,1.43E2,4.3E1,1.12E2,4.69E2,3.255E3,1.4993E4,2.429E4,5.856E3],"tree_param":{"num_deleted":"0","num_feature":"19","num_nodes":"15","size_leaf_vector":"1"}},{"base_weights":[6.849712E-2,1.3846744E1,-1.2232819E0,1.9873953E1,-2.8410406E0,-7.6102805E0,1.7262273E0,3.8176255E0,1.1001742E0,-1.1883209E0,6.1255193E0,-4.902703E-1,-1.8114375E0,9.877631E-2,2.4948373E0],"categories":[],"categories_nodes":[],"categories_segments":[],"categories_sizes":[],"default_left":[0,0,0,0,0,0,0,0,0,0,0,0,0,0,0],"id":40,"left_children":[1,3,5,7,9,11,13,-1,-1,-1,-1,-1,-1,-1,-1],"loss_changes":[8.781034E5,4.2541244E5,8.497618E5,5.0410062E5,6.5158375E5,4.0519056E5,5.2915056E5,0E0,0E0,0E0,0E0,0E0,0E0,0E0,0E0],"parents":[2147483647,0,0,1,1,2,2,3,3,4,4,5,5,6,6],"right_children":[2,4,6,8,10,12,14,-1,-1,-1,-1,-1,-1,-1,-1],"split_conditions":[-1.0325214E1,8.8E0,2.5E2,-1.5429886E-1,1.2017791E0,9.806356E1,3.1738696E0,3.8176255E0,1.1001742E0,-1.1883209E0,6.1255193E0,-4.902703E-1,-1.8114375E0,9.877631E-2,2.4948373E0],"split_indices":[17,0,18,11,16,4,11,0,0,0,0,0,0,0,0],"split_type":[0,0,0,0,0,0,0,0,0,0,0,0,0,0,0],"sum_hessian":[4.9334E4,4.228E3,4.5106E4,3.106E3,1.122E3,1.4249E4,3.0857E4,1.013E3,2.093E3,9.84E2,1.38E2,1.133E4,2.919E3,2.9907E4,9.5E2],"tree_param":{"num_deleted":"0","num_feature":"19","num_nodes":"15","size_leaf_vector":"1"}},{"base_weights":[3.39573E-3,4.348276E0,-3.5875094E0,7.109696E0,-3.9347785E0,-1.8626589E1,-2.2953894E0,2.3224103E0,4.8098308E-1,-3.8284512E0,4.318609E-1,-7.8234506E-1,-5.3373675E0,4.9385735E-1,-4.284165E-1],"categories":[],"categories_nodes":[],"categories_segments":[],"categories_sizes":[],"default_left":[0,0,0,0,0,0,0,0,0,0,0,0,0,0,0],"id":41,"left_children":[1,3,5,7,9,11,13,-1,-1,-1,-1,-1,-1,-1,-1],"loss_changes":[7.6721544E5,5.0897488E5,5.23133E5,6.1836156E5,1.5775685E6,7.991366E5,3.567257E5,0E0,0E0,0E0,0E0,0E0,0E0,0E0,0E0],"parents":[2147483647,0,0,1,1,2,2,3,3,4,4,5,5,6,6],"right_children":[2,4,6,8,10,12,14,-1,-1,-1,-1,-1,-1,-1,-1],"split_conditions":[-9.794084E0,8.8E0,-2.4616648E-1,-1.9959193E-1,2.8351468E-1,9.2E0,-7.255745E-2,2.3224103E0,4.8098308E-1,-3.8284512E0,4.318609E-1,-7.8234506E-1,-5.3373675E0,4.9385735E-1,-4.284165E-1],"split_indices":[17,0,11,11,11,0,6,0,0,0,0,0,0,0,0],"split_type":[0,0,0,0,0,0,0,0,0,0,0,0,0,0,0],"sum_hessian":[4.9172E4,2.225E4,2.6922E4,1.6687E4,5.563E3,2.129E3,2.4793E4,2.083E3,1.4604E4,1.077E3,4.486E3,1.625E3,5.04E2,5.346E3,1.9447E4],"tree_param":{"num_deleted":"0","num_feature":"19","num_nodes":"15","size_leaf_vector":"1"}},{"base_weights":[-6.648092E-2,2.904898E1,-6.4653134E-1,1.321914E2,2.7715551E1,1.5254306E1,-1.6509206E0,4.651457E0,1.4467532E1,-7.7194834E0,2.8913743E0,9.7915605E-3,2.3426657E0,6.0349543E-2,-1.2318178E0],"categories":[],"categories_nodes":[],"categories_segments":[],"categories_sizes":[],"default_left":[0,0,0,0,0,0,0,0,0,0,0,0,0,0,0],"id":42,"left_children":[1,3,5,7,9,11,13,-1,-1,-1,-1,-1,-1,-1,-1],"loss_changes":[8.308792E5,1.2850556E5,7.7040056E5,6.1054688E3,1.2164944E5,3.5499E5,1.0911332E6,0E0,0E0,0E0,0E0,0E0,0E0,0E0,0E0],"parents":[2147483647,0,0,1,1,2,2,3,3,4,4,5,5,6,6],"right_children":[2,4,6,8,10,12,14,-1,-1,-1,-1,-1,-1,-1,-1],"split_conditions":[-1.6349183E-1,-3.91077E-1,-1.2980887E-1,-7.978216E1,-1.4216782E0,7.2E0,8.02004E0,4.651457E0,1.4467532E1,-7.7194834E0,2.8913743E0,9.7915605E-3,2.3426657E0,6.0349543E-2,-1.2318178E0],"split_indices":[6,13,5,2,9,0,10,0,0,0,0,0,0,0,0],"split_type":[0,0,0,0,0,0,0,0,0,0,0,0,0,0,0],"sum_hessian":[4.9196E4,9.6E2,4.8236E4,1.1E1,9.49E2,2.865E3,4.5371E4,2E0,9E0,1E1,9.39E2,1.004E3,1.861E3,3.7456E4,7.915E3],"tree_param":{"num_deleted":"0","num_feature":"19","num_nodes":"15","size_leaf_vector":"1"}},{"base_weights":[2.2781959E-1,-2.947159E0,5.173324E0,-1.185112E0,-1.2967438E1,2.0559413E0,1.4050383E1,1.558462E0,-2.026782E-1,-1.990963E0,-5.4083645E-2,4.1085678E-1,-8.0996984E-1,2.9108977E0,1.0631564E0],"categories":[],"categories_nodes":[],"categories_segments":[],"categories_sizes":[],"default_left":[0,0,0,0,0,0,0,0,0,0,0,0,0,0,0],"id":43,"left_children":[1,3,5,7,9,11,13,-1,-1,-1,-1,-1,-1,-1,-1],"loss_changes":[7.763315E5,5.316305E5,5.3492156E5,3.614919E5,3.884533E5,2.9829406E5,2.5833912E5,0E0,0E0,0E0,0E0,0E0,0E0,0E0,0E0],"parents":[2147483647,0,0,1,1,2,2,3,3,4,4,5,5,6,6],"right_children":[2,4,6,8,10,12,14,-1,-1,-1,-1,-1,-1,-1,-1],"split_conditions":[5E2,-9.42936E0,8.074744E1,-1.0661729E1,1.4337249E0,9.6471614E-1,9.980325E1,1.558462E0,-2.026782E-1,-1.990963E0,-5.4083645E-2,4.1085678E-1,-8.0996984E-1,2.9108977E0,1.0631564E0],"split_indices":[18,17,4,17,11,7,4,0,0,0,0,0,0,0,0],"split_type":[0,0,0,0,0,0,0,0,0,0,0,0,0,0,0],"sum_hessian":[4.944E4,3.011E4,1.933E4,2.5608E4,4.502E3,1.4307E4,5.023E3,1.223E3,2.4385E4,2.888E3,1.614E3,1.1902E4,2.405E3,9.28E2,4.095E3],"tree_param":{"num_deleted":"0","num_feature":"19","num_nodes":"15","size_leaf_vector":"1"}},{"base_weights":[1.4676727E-1,-8.8086927E-1,1.2458568E1,3.9182475E0,-4.655873E0,1.0332768E1,4.0688698E1,1.8081588E0,2.7273867E-1,-2.1208046E-1,-1.7017065E0,1.1099266E0,-5.1993814E0,3.0469625E0,1.2963941E1],"categories":[],"categories_nodes":[],"categories_segments":[],"categories_sizes":[],"default_left":[0,0,0,0,0,0,0,0,0,0,0,0,0,0,0],"id":44,"left_children":[1,3,5,7,9,11,13,-1,-1,-1,-1,-1,-1,-1,-1],"loss_changes":[6.2227706E5,8.2242506E5,2.2696344E5,3.3706275E5,7.9619225E5,1.6897747E5,2.3693322E5,0E0,0E0,0E0,0E0,0E0,0E0,0E0,0E0],"parents":[2147483647,0,0,1,1,2,2,3,3,4,4,5,5,6,6],"right_children":[2,4,6,8,10,12,14,-1,-1,-1,-1,-1,-1,-1,-1],"split_conditions":[1.0091031E-1,-3.3722106E-2,1.4770193E-1,-1.5068159E-1,9.9E0,-8.652694E0,1.0380579E-1,1.8081588E0,2.7273867E-1,-2.1208046E-1,-1.7017065E0,1.1099266E0,-5.1993814E0,3.0469625E0,1.2963941E1],"split_indices":[15,5,5,5,0,17,7,0,0,0,0,0,0,0,0],"split_type":[0,0,0,0,0,0,0,0,0,0,0,0,0,0,0],"sum_hessian":[4.9182E4,4.5394E4,3.788E3,1.9986E4,2.5408E4,3.524E3,2.64E2,1.549E3,1.8437E4,2.1085E4,4.323E3,3.482E3,4.2E1,2.38E2,2.6E1],"tree_param":{"num_deleted":"0","num_feature":"19","num_nodes":"15","size_leaf_vector":"1"}},{"base_weights":[-4.6963792E-2,-5.236506E0,2.3925633E0,-2.840489E0,-1.4587189E1,1.4507526E1,1.3335791E0,-5.934033E-1,5.4702586E-1,-6.7998135E-1,-2.5788963E0,1.9752175E0,-1.0315074E-1,-3.881791E-2,7.8796554E-1],"categories":[],"categories_nodes":[],"categories_segments":[],"categories_sizes":[],"default_left":[0,0,0,0,0,0,0,0,0,0,0,0,0,0,0],"id":45,"left_children":[1,3,5,7,9,11,13,-1,-1,-1,-1,-1,-1,-1,-1],"loss_changes":[6.221391E5,3.520213E5,4.288471E5,3.2166028E5,2.794045E5,2.1900219E5,3.4648878E5,0E0,0E0,0E0,0E0,0E0,0E0,0E0,0E0],"parents":[2147483647,0,0,1,1,2,2,3,3,4,4,5,5,6,6],"right_children":[2,4,6,8,10,12,14,-1,-1,-1,-1,-1,-1,-1,-1],"split_conditions":[2.5E2,9.806356E1,-1.0325214E1,2.37E2,8.3E0,8.7E0,9.806356E1,-5.934033E-1,5.4702586E-1,-6.7998135E-1,-2.5788963E0,1.9752175E0,-1.0315074E-1,-3.881791E-2,7.8796554E-1],"split_indices":[18,4,17,1,0,0,4,0,0,0,0,0,0,0,0],"split_type":[0,0,0,0,0,0,0,0,0,0,0,0,0,0,0],"sum_hessian":[4.914E4,1.5713E4,3.3427E4,1.2509E4,3.204E3,2.686E3,3.0741E4,9.116E3,3.393E3,1.891E3,1.313E3,2.008E3,6.78E2,2.434E4,6.401E3],"tree_param":{"num_deleted":"0","num_feature":"19","num_nodes":"15","size_leaf_vector":"1"}},{"base_weights":[-1.8066539E-1,9.499188E0,-1.6721818E0,2.722721E1,7.1319942E0,-5.8037615E-1,-1.5452572E1,5.904003E0,2.2709234E0,1.3526226E0,2.0443714E-1,6.363203E-2,-1.2516503E0,2.1072485E0,-1.7418082E0],"categories":[],"categories_nodes":[],"categories_segments":[],"categories_sizes":[],"default_left":[0,0,0,0,0,0,0,0,0,0,0,0,0,0,0],"id":46,"left_children":[1,3,5,7,9,11,13,-1,-1,-1,-1,-1,-1,-1,-1],"loss_changes":[7.1359725E5,2.7673725E5,6.44345E5,1.1033706E5,1.8940294E5,5.763245E5,2.26076E5,0E0,0E0,0E0,0E0,0E0,0E0,0E0,0E0],"parents":[2147483647,0,0,1,1,2,2,3,3,4,4,5,5,6,6],"right_children":[2,4,6,8,10,12,14,-1,-1,-1,-1,-1,-1,-1,-1],"split_conditions":[-9.044744E-2,-1.687766E-1,-9.290419E0,9.4676214E-1,4.0459E1,9.473333E0,-1.544699E-1,5.904003E0,2.2709234E0,1.3526226E0,2.0443714E-1,6.363203E-2,-1.2516503E0,2.1072485E0,-1.7418082E0],"split_indices":[6,6,17,7,3,10,5,0,0,0,0,0,0,0,0],"split_type":[0,0,0,0,0,0,0,0,0,0,0,0,0,0,0],"sum_hessian":[4.9424E4,6.598E3,4.2826E4,7.76E2,5.822E3,3.9683E4,3.143E3,9.5E1,6.81E2,2.579E3,3.243E3,3.6013E4,3.67E3,1.6E2,2.983E3],"tree_param":{"num_deleted":"0","num_feature":"19","num_nodes":"15","size_leaf_vector":"1"}},{"base_weights":[8.367592E-2,-8.5729057E-1,1.2573787E1,3.4402578E0,-4.4218693E0,9.573505E0,3.584932E1,3.7066884E0,2.842561E-1,-1.2377661E-1,-1.4782459E0,7.3645395E-1,3.4973595E0,3.0492842E0,9.335963E0],"categories":[],"categories_nodes":[],"categories_segments":[],"categories_sizes":[],"default_left":[0,0,0,0,0,0,0,0,0,0,0,0,0,0,0],"id":47,"left_children":[1,3,5,7,9,11,13,-1,-1,-1,-1,-1,-1,-1,-1],"loss_changes":[5.7791825E5,7.005201E5,2.40232E5,4.1659738E5,8.245795E5,1.7104E5,1.1821794E5,0E0,0E0,0E0,0E0,0E0,0E0,0E0,0E0],"parents":[2147483647,0,0,1,1,2,2,3,3,4,4,5,5,6,6],"right_children":[2,4,6,8,10,12,14,-1,-1,-1,-1,-1,-1,-1,-1],"split_conditions":[1.388813E-1,-3.2049853E-2,1.1943499E-1,4.115352E-1,9.1E0,8.967365E-2,1.0380579E-1,3.7066884E0,2.842561E-1,-1.2377661E-1,-1.4782459E0,7.3645395E-1,3.4973595E0,3.0492842E0,9.335963E0],"split_indices":[15,5,5,10,0,6,7,0,0,0,0,0,0,0,0],"split_type":[0,0,0,0,0,0,0,0,0,0,0,0,0,0,0],"sum_hessian":[4.9171E4,4.5727E4,3.444E3,2.0732E4,2.4995E4,3.052E3,3.92E2,3.61E2,2.0371E4,1.912E4,5.875E3,2.809E3,2.43E2,3.6E2,3.2E1],"tree_param":{"num_deleted":"0","num_feature":"19","num_nodes":"15","size_leaf_vector":"1"}},{"base_weights":[1.0181617E-1,-4.777455E0,2.3815382E0,3.4957325E1,-5.407448E0,2.86257E1,1.9799559E0,5.1462154E0,1.9468831E0,-3.56217E-1,-1.6822646E0,1.5411368E1,2.2603285E0,1.5430659E-1,2.7205865E0],"categories":[],"categories_nodes":[],"categories_segments":[],"categories_sizes":[],"default_left":[0,0,0,0,0,0,0,0,0,0,0,0,0,0,0],"id":48,"left_children":[1,3,5,7,9,11,13,-1,-1,-1,-1,-1,-1,-1,-1],"loss_changes":[5.48027E5,3.929261E5,3.538387E5,6.1628656E4,3.252768E5,3.7892128E5,3.6446478E5,0E0,0E0,0E0,0E0,0E0,0E0,0E0,0E0],"parents":[2147483647,0,0,1,1,2,2,3,3,4,4,5,5,6,6],"right_children":[2,4,6,8,10,12,14,-1,-1,-1,-1,-1,-1,-1,-1],"split_conditions":[2.5E2,-3.1303744E0,-6.00935E-1,3.3735335E0,1.4687575E-1,-1.2253624E0,3.585775E0,5.1462154E0,1.9468831E0,-3.56217E-1,-1.6822646E0,1.5411368E1,2.2603285E0,1.5430659E-1,2.7205865E0],"split_indices":[18,15,13,11,13,11,11,0,0,0,0,0,0,0,0],"split_type":[0,0,0,0,0,0,0,0,0,0,0,0,0,0,0],"sum_hessian":[4.9266E4,1.5688E4,3.3578E4,2.44E2,1.5444E4,5.05E2,3.3073E4,1.17E2,1.27E2,1.3296E4,2.148E3,2.2E1,4.83E2,3.2511E4,5.62E2],"tree_param":{"num_deleted":"0","num_feature":"19","num_nodes":"15","size_leaf_vector":"1"}},{"base_weights":[-1.2571599E-1,6.945676E0,-1.6345685E0,3.2358776E1,5.7368803E0,-9.76345E-1,-2.3000587E1,-5.0437455E0,3.5541894E0,8.572282E-1,-5.8164686E-1,7.381363E-1,-2.6347136E-1,-3.160444E0,-7.3130316E-1],"categories":[],"categories_nodes":[],"categories_segments":[],"categories_sizes":[],"default_left":[0,0,0,0,0,0,0,0,0,0,0,0,0,0,0],"id":49,"left_children":[1,3,5,7,9,11,13,-1,-1,-1,-1,-1,-1,-1,-1],"loss_changes":[5.267739E5,2.6651884E5,5.72212E5,1.0563141E5,2.7158412E5,5.4713544E5,1.6389662E5,0E0,0E0,0E0,0E0,0E0,0E0,0E0,0E0],"parents":[2147483647,0,0,1,1,2,2,3,3,4,4,5,5,6,6],"right_children":[2,4,6,8,10,12,14,-1,-1,-1,-1,-1,-1,-1,-1],"split_conditions":[-7.272952E-2,-1.8100412E-1,-9.0692835E0,-7.978274E1,9.552021E0,-8.225395E-2,9.0092075E-1,-5.0437455E0,3.5541894E0,8.572282E-1,-5.8164686E-1,7.381363E-1,-2.6347136E-1,-3.160444E0,-7.3130316E-1],"split_indices":[5,5,17,2,10,6,11,0,0,0,0,0,0,0,0],"split_type":[0,0,0,0,0,0,0,0,0,0,0,0,0,0,0],"sum_hessian":[4.9369E4,8.681E3,4.0688E4,3.93E2,8.288E3,3.9473E4,1.215E3,1.4E1,3.79E2,6.655E3,1.633E3,6.535E3,3.2938E4,7.84E2,4.31E2],"tree_param":{"num_deleted":"0","num_feature":"19","num_nodes":"15","size_leaf_vector":"1"}},{"base_weights":[-1.329491E-1,1.5203434E0,-6.346622E0,1.1076926E0,2.6872702E1,-1.1003895E0,-1.2736677E1,4.7527304E0,8.8310175E-2,6.046033E0,1.830346E0,2.29685E0,-2.6191378E-1,-1.0805663E0,-6.2448144E0],"categories":[],"categories_nodes":[],"categories_segments":[],"categories_sizes":[],"default_left":[0,0,0,0,0,0,0,0,0,0,0,0,0,0,0],"id":50,"left_children":[1,3,5,7,9,11,13,-1,-1,-1,-1,-1,-1,-1,-1],"loss_changes":[5.0515456E5,4.0629112E5,3.4642006E5,3.9839688E5,1.7791769E5,2.0754398E5,4.4655925E5,0E0,0E0,0E0,0E0,0E0,0E0,0E0,0E0],"parents":[2147483647,0,0,1,1,2,2,3,3,4,4,5,5,6,6],"right_children":[2,4,6,8,10,12,14,-1,-1,-1,-1,-1,-1,-1,-1],"split_conditions":[-9.511839E0,1.2963476E0,-1.0900778E0,-1.1759925E1,2.2E1,-1.4379035E-1,-8.652694E0,4.7527304E0,8.8310175E-2,6.046033E0,1.830346E0,2.29685E0,-2.6191378E-1,-1.0805663E0,-6.2448144E0],"split_indices":[17,16,15,17,1,5,17,0,0,0,0,0,0,0,0],"split_type":[0,0,0,0,0,0,0,0,0,0,0,0,0,0,0],"sum_hessian":[4.9171E4,3.8838E4,1.0333E4,3.8217E4,6.21E2,5.675E3,4.658E3,1.83E2,3.8034E4,1.25E2,4.96E2,3.36E2,5.339E3,4.485E3,1.73E2],"tree_param":{"num_deleted":"0","num_feature":"19","num_nodes":"15","size_leaf_vector":"1"}},{"base_weights":[5.523883E-2,7.3764896E0,-1.2579322E0,3.1282017E1,6.0810723E0,-1.4499121E0,5.2619064E1,-1.9688227E0,3.5971608E0,5.6103716E0,5.588811E-1,-1.8652061E0,-8.7321736E-2,3.1817462E0,9.399745E0],"categories":[],"categories_nodes":[],"categories_segments":[],"categories_sizes":[],"default_left":[0,0,0,0,0,0,0,0,0,0,0,0,0,0,0],"id":51,"left_children":[1,3,5,7,9,11,13,-1,-1,-1,-1,-1,-1,-1,-1],"loss_changes":[4.7253044E5,2.3129284E5,4.3113312E5,9.249556E4,1.7432138E5,4.1195762E5,1.2439828E5,0E0,0E0,0E0,0E0,0E0,0E0,0E0,0E0],"parents":[2147483647,0,0,1,1,2,2,3,3,4,4,5,5,6,6],"right_children":[2,4,6,8,10,12,14,-1,-1,-1,-1,-1,-1,-1,-1],"split_conditions":[-8.346123E-2,-1.8273827E-1,1.8067124E-1,-6.041114E-1,-1.471748E-1,-1.0527925E0,1.1610433E-1,-1.9688227E0,3.5971608E0,5.6103716E0,5.588811E-1,-1.8652061E0,-8.7321736E-2,3.1817462E0,9.399745E0],"split_indices":[6,6,5,9,5,11,7,0,0,0,0,0,0,0,0],"split_type":[0,0,0,0,0,0,0,0,0,0,0,0,0,0,0],"sum_hessian":[4.9148E4,7.474E3,4.1674E4,3.83E2,7.091E3,4.1527E4,1.47E2,3.2E1,3.51E2,6.8E1,7.023E3,1.346E3,4.0181E4,9.9E1,4.8E1],"tree_param":{"num_deleted":"0","num_feature":"19","num_nodes":"15","size_leaf_vector":"1"}},{"base_weights":[-9.306518E-3,-2.471766E0,3.8093238E0,-1.2711352E0,-1.0568086E1,1.1839721E0,1.1362969E1,4.5764422E-1,-2.8415805E-1,-1.1301501E0,6.3611164E0,2.6406837E-1,-8.019657E-1,1.8834879E0,7.717355E-1],"categories":[],"categories_nodes":[],"categories_segments":[],"categories_sizes":[],"default_left":[0,0,0,0,0,0,0,0,0,0,0,0,0,0,0],"id":52,"left_children":[1,3,5,7,9,11,13,-1,-1,-1,-1,-1,-1,-1,-1],"loss_changes":[4.630335E5,2.9099488E5,3.8282353E5,2.3943998E5,2.1104528E5,1.9210375E5,1.3548112E5,0E0,0E0,0E0,0E0,0E0,0E0,0E0,0E0],"parents":[2147483647,0,0,1,1,2,2,3,3,4,4,5,5,6,6],"right_children":[2,4,6,8,10,12,14,-1,-1,-1,-1,-1,-1,-1,-1],"split_conditions":[5E2,1.5060677E-1,8.074744E1,-6.501354E-2,1.8067124E-1,9.662399E-1,1.0031368E2,4.5764422E-1,-2.8415805E-1,-1.1301501E0,6.3611164E0,2.6406837E-1,-8.019657E-1,1.8834879E0,7.717355E-1],"split_indices":[18,13,4,5,5,7,4,0,0,0,0,0,0,0,0],"split_type":[0,0,0,0,0,0,0,0,0,0,0,0,0,0,0],"sum_hessian":[4.924E4,2.9936E4,1.9304E4,2.6071E4,3.865E3,1.4326E4,4.978E3,5.519E3,2.0552E4,3.828E3,3.7E1,1.2369E4,1.957E3,1.631E3,3.347E3],"tree_param":{"num_deleted":"0","num_feature":"19","num_nodes":"15","size_leaf_vector":"1"}},{"base_weights":[-1.2764032E-1,-4.6232524E0,2.000275E0,-5.6462913E0,8.057157E0,6.9851146E0,1.2317597E-2,-2.1568239E0,-4.7113332E-1,1.1687839E1,6.932232E-1,1.4791497E0,4.1910282E-1,9.5600784E-2,-1.4671248E0],"categories":[],"categories_nodes":[],"categories_segments":[],"categories_sizes":[],"default_left":[0,0,0,0,0,0,0,0,0,0,0,0,0,0,0],"id":53,"left_children":[1,3,5,7,9,11,13,-1,-1,-1,-1,-1,-1,-1,-1],"loss_changes":[4.7008672E5,2.0484319E5,3.305164E5,2.173731E5,1.4351786E5,2.073455E5,3.3042794E5,0E0,0E0,0E0,0E0,0E0,0E0,0E0,0E0],"parents":[2147483647,0,0,1,1,2,2,3,3,4,4,5,5,6,6],"right_children":[2,4,6,8,10,12,14,-1,-1,-1,-1,-1,-1,-1,-1],"split_conditions":[2.5E2,-7.978136E1,-5.1717658E-2,-6.7005265E-1,-1.2980887E-1,-4.208409E-2,9.7816515E0,-2.1568239E0,-4.7113332E-1,1.1687839E1,6.932232E-1,1.4791497E0,4.1910282E-1,9.5600784E-2,-1.4671248E0],"split_indices":[18,2,6,11,5,5,10,0,0,0,0,0,0,0,0],"split_type":[0,0,0,0,0,0,0,0,0,0,0,0,0,0,0],"sum_hessian":[4.9138E4,1.5786E4,3.3352E4,1.4608E4,1.178E3,9.508E3,2.3844E4,8.09E2,1.3799E4,1.1E1,1.167E3,2.505E3,7.003E3,2.2405E4,1.439E3],"tree_param":{"num_deleted":"0","num_feature":"19","num_nodes":"15","size_leaf_vector":"1"}},{"base_weights":[4.5315094E-2,1.0206332E0,-8.649297E0,3.8976738E0,-1.8972526E0,5.598092E-1,-1.3762752E1,3.2468736E0,3.5055587E-1,2.1549983E-1,-4.7273737E-1,3.8255075E-1,-2.5240378E0,-1.4343127E0,1.0988476E1],"categories":[],"categories_nodes":[],"categories_segments":[],"categories_sizes":[],"default_left":[0,0,0,0,0,0,0,0,0,0,0,0,0,0,0],"id":54,"left_children":[1,3,5,7,9,11,13,-1,-1,-1,-1,-1,-1,-1,-1],"loss_changes":[4.1659794E5,3.7082588E5,2.3334038E5,2.4906638E5,2.5152281E5,1.4922902E5,2.3020962E5,0E0,0E0,0E0,0E0,0E0,0E0,0E0,0E0],"parents":[2147483647,0,0,1,1,2,2,3,3,4,4,5,5,6,6],"right_children":[2,4,6,8,10,12,14,-1,-1,-1,-1,-1,-1,-1,-1],"split_conditions":[1.7823626E-1,-9.744813E0,-1.00818405E1,-1.1416535E1,-1.215281E0,9.674635E-1,1.8067124E-1,3.2468736E0,3.5055587E-1,2.1549983E-1,-4.7273737E-1,3.8255075E-1,-2.5240378E0,-1.4343127E0,1.0988476E1],"split_indices":[13,17,17,17,15,7,5,0,0,0,0,0,0,0,0],"split_type":[0,0,0,0,0,0,0,0,0,0,0,0,0,0,0],"sum_hessian":[4.9125E4,4.4171E4,4.954E3,2.2241E4,2.193E4,1.769E3,3.185E3,3E2,2.1941E4,9.018E3,1.2912E4,1.571E3,1.98E2,3.171E3,1.4E1],"tree_param":{"num_deleted":"0","num_feature":"19","num_nodes":"15","size_leaf_vector":"1"}},{"base_weights":[-2.1748595E-2,8.435941E-1,-9.077247E0,-4.4763654E-2,9.5679035E0,-3.4255028E0,-1.8100834E1,3.384275E-1,-2.8321347E-1,1.6082371E0,-4.584832E-1,2.104126E0,-5.56304E-1,-1.217739E0,-3.7271237E0],"categories":[],"categories_nodes":[],"categories_segments":[],"categories_sizes":[],"default_left":[0,0,0,0,0,0,0,0,0,0,0,0,0,0,0],"id":55,"left_children":[1,3,5,7,9,11,13,-1,-1,-1,-1,-1,-1,-1,-1],"loss_changes":[3.849565E5,3.47532E5,2.1846872E5,3.8900116E5,3.8214025E5,1.3797622E5,1.8691156E5,0E0,0E0,0E0,0E0,0E0,0E0,0E0,0E0],"parents":[2147483647,0,0,1,1,2,2,3,3,4,4,5,5,6,6],"right_children":[2,4,6,8,10,12,14,-1,-1,-1,-1,-1,-1,-1,-1],"split_conditions":[-9.290419E0,5.0888874E-2,-9.8417795E-1,-3.168799E-2,2.1652213E-1,-1.4073212E-1,-8.922064E0,3.384275E-1,-2.8321347E-1,1.6082371E0,-4.584832E-1,2.104126E0,-5.56304E-1,-1.217739E0,-3.7271237E0],"split_indices":[17,15,15,5,11,5,17,0,0,0,0,0,0,0,0],"split_type":[0,0,0,0,0,0,0,0,0,0,0,0,0,0,0],"sum_hessian":[4.9124E4,4.484E4,4.284E3,4.0697E4,4.143E3,2.635E3,1.649E3,1.8248E4,2.2449E4,2.837E3,1.306E3,2.11E2,2.424E3,1.261E3,3.88E2],"tree_param":{"num_deleted":"0","num_feature":"19","num_nodes":"15","size_leaf_vector":"1"}},{"base_weights":[-2.4352426E-2,5.5774446E0,-1.2835494E0,4.501474E1,5.018555E0,-1.4220034E-1,-1.9325787E1,5.7025204E0,-1.1250604E0,-4.704829E0,5.412835E-1,-3.5123434E-2,4.4001174E0,5.932859E-1,-4.5559325E0],"categories":[],"categories_nodes":[],"categories_segments":[],"categories_sizes":[],"default_left":[0,0,0,0,0,0,0,0,0,0,0,0,0,0,0],"id":56,"left_children":[1,3,5,7,9,11,13,-1,-1,-1,-1,-1,-1,-1,-1],"loss_changes":[3.4690434E5,1.9871703E5,8.268682E5,8.578894E4,1.8298234E5,3.484999E5,1.5832782E6,0E0,0E0,0E0,0E0,0E0,0E0,0E0,0E0],"parents":[2147483647,0,0,1,1,2,2,3,3,4,4,5,5,6,6],"right_children":[2,4,6,8,10,12,14,-1,-1,-1,-1,-1,-1,-1,-1],"split_conditions":[-7.469588E-2,-3.3317187E0,1.17E1,1.1142084E1,-2.4497955E0,5.4469746E-1,-8.90269E-2,5.7025204E0,-1.1250604E0,-4.704829E0,5.412835E-1,-3.5123434E-2,4.4001174E0,5.932859E-1,-4.5559325E0],"split_indices":[6,15,0,10,9,12,5,0,0,0,0,0,0,0,0],"split_type":[0,0,0,0,0,0,0,0,0,0,0,0,0,0,0],"sum_hessian":[4.9178E4,9.025E3,4.0153E4,1.25E2,8.9E3,3.7765E4,2.388E3,1.03E2,2.2E1,6.6E1,8.834E3,3.7588E4,1.77E2,1.217E3,1.171E3],"tree_param":{"num_deleted":"0","num_feature":"19","num_nodes":"15","size_leaf_vector":"1"}},{"base_weights":[2.345663E-2,1.3590364E0,-5.1166406E0,9.51836E-1,2.094608E1,-7.4009854E-1,-1.0528142E1,5.543366E-1,-8.74045E-2,2.4164302E0,-4.739719E0,8.713685E-1,-3.9273262E-1,-8.308361E-1,-3.296188E0],"categories":[],"categories_nodes":[],"categories_segments":[],"categories_sizes":[],"default_left":[0,0,0,0,0,0,0,0,0,0,0,0,0,0,0],"id":57,"left_children":[1,3,5,7,9,11,13,-1,-1,-1,-1,-1,-1,-1,-1],"loss_changes":[3.3678375E5,3.1055978E5,2.396235E5,3.198219E5,1.7556072E5,1.6861917E5,2.2501228E5,0E0,0E0,0E0,0E0,0E0,0E0,0E0,0E0],"parents":[2147483647,0,0,1,1,2,2,3,3,4,4,5,5,6,6],"right_children":[2,4,6,8,10,12,14,-1,-1,-1,-1,-1,-1,-1,-1],"split_conditions":[-9.507274E0,1.2915754E-1,-1.0900778E0,-4.9091067E-2,1.02E1,6.043475E0,-8.922064E0,5.543366E-1,-8.74045E-2,2.4164302E0,-4.739719E0,8.713685E-1,-3.9273262E-1,-8.308361E-1,-3.296188E0],"split_indices":[17,5,15,5,0,10,17,0,0,0,0,0,0,0,0],"split_type":[0,0,0,0,0,0,0,0,0,0,0,0,0,0,0],"sum_hessian":[4.9056E4,3.8939E4,1.0117E4,3.8147E4,7.92E2,5.594E3,4.523E3,1.0853E4,2.7294E4,7.57E2,3.5E1,1.41E3,4.184E3,4.117E3,4.06E2],"tree_param":{"num_deleted":"0","num_feature":"19","num_nodes":"15","size_leaf_vector":"1"}},{"base_weights":[-3.2622192E-2,1.8372938E1,-4.012681E-1,3.7794952E1,1.3430514E1,-4.144528E0,1.3587785E0,6.0937963E0,2.5204957E0,8.384541E0,1.2110516E0,-1.6671379E-1,-1.2018062E0,4.024532E0,1.13654844E-1],"categories":[],"categories_nodes":[],"categories_segments":[],"categories_sizes":[],"default_left":[0,0,0,0,0,0,0,0,0,0,0,0,0,0,0],"id":58,"left_children":[1,3,5,7,9,11,13,-1,-1,-1,-1,-1,-1,-1,-1],"loss_changes":[3.3310994E5,9.202853E4,3.1710106E5,5.528128E4,7.05542E4,3.00233E5,2.828682E5,0E0,0E0,0E0,0E0,0E0,0E0,0E0,0E0],"parents":[2147483647,0,0,1,1,2,2,3,3,4,4,5,5,6,6],"right_children":[2,4,6,8,10,12,14,-1,-1,-1,-1,-1,-1,-1,-1],"split_conditions":[-1.6349183E-1,-1.9631149E-1,2.5E2,-7.978183E1,5.278099E-1,9.608434E1,-1.8100412E-1,6.0937963E0,2.5204957E0,8.384541E0,1.2110516E0,-1.6671379E-1,-1.2018062E0,4.024532E0,1.13654844E-1],"split_indices":[6,6,18,2,10,4,5,0,0,0,0,0,0,0,0],"split_type":[0,0,0,0,0,0,0,0,0,0,0,0,0,0,0],"sum_hessian":[4.9092E4,9.63E2,4.8129E4,1.94E2,7.69E2,1.5392E4,3.2737E4,6.7E1,1.27E2,1.3E1,7.56E2,1.1709E4,3.683E3,1.85E2,3.2552E4],"tree_param":{"num_deleted":"0","num_feature":"19","num_nodes":"15","size_leaf_vector":"1"}},{"base_weights":[5.392072E-2,1.3079994E1,-4.162685E-1,3.7487766E1,1.010617E1,6.00118E-1,-8.048462E0,4.456015E0,-9.8408026E-1,1.5943607E0,-1.9267729E-1,6.641992E-1,-4.6725813E-2,5.2412944E0,-8.6700946E-1],"categories":[],"categories_nodes":[],"categories_segments":[],"categories_sizes":[],"default_left":[0,0,0,0,0,0,0,0,0,0,0,0,0,0,0],"id":59,"left_children":[1,3,5,7,9,11,13,-1,-1,-1,-1,-1,-1,-1,-1],"loss_changes":[3.0167847E5,1.2417603E5,3.6878484E5,6.26975E4,1.0757056E5,2.705624E5,2.1044069E5,0E0,0E0,0E0,0E0,0E0,0E0,0E0,0E0],"parents":[2147483647,0,0,1,1,2,2,3,3,4,4,5,5,6,6],"right_children":[2,4,6,8,10,12,14,-1,-1,-1,-1,-1,-1,-1,-1],"split_conditions":[-1.0712824E1,-1.1759925E1,1.5060677E-1,8.436219E-1,1.1845237E-1,-8.225395E-2,-3.3317187E0,4.456015E0,-9.8408026E-1,1.5943607E0,-1.9267729E-1,6.641992E-1,-4.6725813E-2,5.2412944E0,-8.6700946E-1],"split_indices":[17,17,13,11,14,6,15,0,0,0,0,0,0,0,0],"split_type":[0,0,0,0,0,0,0,0,0,0,0,0,0,0,0],"sum_hessian":[4.9254E4,1.715E3,4.7539E4,1.85E2,1.53E3,4.1953E4,5.586E3,1.61E2,2.4E1,1.03E3,5E2,6.298E3,3.5655E4,5.6E1,5.53E3],"tree_param":{"num_deleted":"0","num_feature":"19","num_nodes":"15","size_leaf_vector":"1"}},{"base_weights":[4.2690124E-2,-1.8814094E0,3.0130022E0,2.0822495E1,-2.2847946E0,8.9411813E-1,9.218308E0,5.285675E-1,2.9799001E0,-1.05764546E-1,-1.1673678E0,2.6593813E-1,-5.161123E-1,2.9224606E0,7.6891273E-1],"categories":[],"categories_nodes":[],"categories_segments":[],"categories_sizes":[],"default_left":[0,0,0,0,0,0,0,0,0,0,0,0,0,0,0],"id":60,"left_children":[1,3,5,7,9,11,13,-1,-1,-1,-1,-1,-1,-1,-1],"loss_changes":[2.8100375E5,2.7332566E5,2.5413572E5,7.250447E4,3.377883E5,1.5404356E5,1.5029412E5,0E0,0E0,0E0,0E0,0E0,0E0,0E0,0E0],"parents":[2147483647,0,0,1,1,2,2,3,3,4,4,5,5,6,6],"right_children":[2,4,6,8,10,12,14,-1,-1,-1,-1,-1,-1,-1,-1],"split_conditions":[5E2,-2.9938288E0,8.186454E1,1.49E1,1.12E1,9.616811E-1,9.9304115E1,5.285675E-1,2.9799001E0,-1.05764546E-1,-1.1673678E0,2.6593813E-1,-5.161123E-1,2.9224606E0,7.6891273E-1],"split_indices":[18,15,4,0,0,7,4,0,0,0,0,0,0,0,0],"split_type":[0,0,0,0,0,0,0,0,0,0,0,0,0,0,0],"sum_hessian":[4.9166E4,2.9838E4,1.9328E4,5.2E2,2.9318E4,1.4409E4,4.919E3,1.91E2,3.29E2,2.593E4,3.388E3,1.1157E4,3.252E3,3.48E2,4.571E3],"tree_param":{"num_deleted":"0","num_feature":"19","num_nodes":"15","size_leaf_vector":"1"}},{"base_weights":[-1.6650496E-3,2.240472E-1,-2.8518005E1,1.9898216E1,-8.40834E-2,-5.3509243E1,-1.240701E1,3.2749832E0,-1.3871157E0,2.9480398E0,-2.8492644E-2,-9.252254E0,-3.6601696E0,-1.2032111E1,-1.0027797E0],"categories":[],"categories_nodes":[],"categories_segments":[],"categories_sizes":[],"default_left":[0,0,0,0,0,0,0,0,0,0,0,0,0,0,0],"id":61,"left_children":[1,3,5,7,9,11,13,-1,-1,-1,-1,-1,-1,-1,-1],"loss_changes":[3.1637262E5,2.9563762E5,1.5475275E5,3.2681556E5,2.851188E5,9.6216E4,5.93866E4,0E0,0E0,0E0,0E0,0E0,0E0,0E0,0E0],"parents":[2147483647,0,0,1,1,2,2,3,3,4,4,5,5,6,6],"right_children":[2,4,6,8,10,12,14,-1,-1,-1,-1,-1,-1,-1,-1],"split_conditions":[-8.652694E0,-6.00935E-1,7.536963E-2,4.8560512E-1,-3.1303744E0,4.0459034E1,-7.978283E1,3.2749832E0,-1.3871157E0,2.9480398E0,-2.8492644E-2,-9.252254E0,-3.6601696E0,-1.2032111E1,-1.0027797E0],"split_indices":[17,13,7,14,15,3,2,0,0,0,0,0,0,0,0],"split_type":[0,0,0,0,0,0,0,0,0,0,0,0,0,0,0],"sum_hessian":[4.9151E4,4.8766E4,3.85E2,7.51E2,4.8015E4,1.5E2,2.35E2,5.44E2,2.07E2,3.23E2,4.7692E4,4.4E1,1.06E2,4E0,2.31E2],"tree_param":{"num_deleted":"0","num_feature":"19","num_nodes":"15","size_leaf_vector":"1"}},{"base_weights":[1.0553774E-1,-6.033243E-1,8.3855295E0,3.7764665E-1,-8.793904E0,1.9403717E1,4.034487E0,-3.4195415E-3,1.9219462E0,3.6352882E-1,-2.941149E0,3.4981773E0,1.2690694E0,2.0599036E-1,2.5594206E0],"categories":[],"categories_nodes":[],"categories_segments":[],"categories_sizes":[],"default_left":[0,0,0,0,0,0,0,0,0,0,0,0,0,0,0],"id":62,"left_children":[1,3,5,7,9,11,13,-1,-1,-1,-1,-1,-1,-1,-1],"loss_changes":[2.8952356E5,3.6508494E5,1.8641066E5,3.148877E5,1.2455302E6,1.1469406E5,1.1872166E5,0E0,0E0,0E0,0E0,0E0,0E0,0E0,0E0],"parents":[2147483647,0,0,1,1,2,2,3,3,4,4,5,5,6,6],"right_children":[2,4,6,8,10,12,14,-1,-1,-1,-1,-1,-1,-1,-1],"split_conditions":[1.0091031E-1,7.2625913E-3,-1.9255123E-1,1.2963476E0,8.1E0,-5.347273E-1,2.7881917E-1,-3.4195415E-3,1.9219462E0,3.6352882E-1,-2.941149E0,3.4981773E0,1.2690694E0,2.0599036E-1,2.5594206E0],"split_indices":[15,5,9,16,0,7,12,0,0,0,0,0,0,0,0],"split_type":[0,0,0,0,0,0,0,0,0,0,0,0,0,0,0],"sum_hessian":[4.9326E4,4.5437E4,3.889E3,4.0578E4,4.859E3,1.1E3,2.789E3,3.9711E4,8.67E2,3.032E3,1.827E3,3.3E2,7.7E2,2.556E3,2.33E2],"tree_param":{"num_deleted":"0","num_feature":"19","num_nodes":"15","size_leaf_vector":"1"}},{"base_weights":[-5.133557E-2,1.1333616E0,-4.543941E0,8.3814013E-1,2.368041E1,-7.6117736E-1,-9.145052E0,1.1184429E0,2.7802376E-2,6.465782E0,1.4127887E0,-2.0401673E0,5.6467205E-2,-8.282606E-1,-5.582389E0],"categories":[],"categories_nodes":[],"categories_segments":[],"categories_sizes":[],"default_left":[0,0,0,0,0,0,0,0,0,0,0,0,0,0,0],"id":63,"left_children":[1,3,5,7,9,11,13,-1,-1,-1,-1,-1,-1,-1,-1],"loss_changes":[2.6230253E5,2.5957205E5,1.789852E5,2.2308606E5,1.963711E5,1.4700923E5,1.8633466E5,0E0,0E0,0E0,0E0,0E0,0E0,0E0,0E0],"parents":[2147483647,0,0,1,1,2,2,3,3,4,4,5,5,6,6],"right_children":[2,4,6,8,10,12,14,-1,-1,-1,-1,-1,-1,-1,-1],"split_conditions":[-9.507274E0,1.4002529E0,-1.0900778E0,-1.3232435E-1,2.2E1,2.1230474E-1,-8.423706E0,1.1184429E0,2.7802376E-2,6.465782E0,1.4127887E0,-2.0401673E0,5.6467205E-2,-8.282606E-1,-5.582389E0],"split_indices":[17,16,15,5,1,11,17,0,0,0,0,0,0,0,0],"split_type":[0,0,0,0,0,0,0,0,0,0,0,0,0,0,0],"sum_hessian":[4.9281E4,3.8998E4,1.0283E4,3.8495E4,5.03E2,5.644E3,4.639E3,1.976E3,3.6519E4,9.4E1,4.09E2,3.56E2,5.288E3,4.556E3,8.3E1],"tree_param":{"num_deleted":"0","num_feature":"19","num_nodes":"15","size_leaf_vector":"1"}},{"base_weights":[2.5155209E-2,3.943587E1,-1.1559499E-1,2.649265E1,7.312955E1,2.1390913E0,-2.298196E0,7.23189E0,1.2338305E0,1.993548E1,6.0284424E0,3.4186572E-1,-7.3775613E-1,-2.0543073E-1,-3.7348099E0],"categories":[],"categories_nodes":[],"categories_segments":[],"categories_sizes":[],"default_left":[0,0,0,0,0,0,0,0,0,0,0,0,0,0,0],"id":64,"left_children":[1,3,5,7,9,11,13,-1,-1,-1,-1,-1,-1,-1,-1],"loss_changes":[2.7278153E5,7.438091E4,2.411428E5,8.21337E4,6.58082E4,2.9353188E5,2.1276681E5,0E0,0E0,0E0,0E0,0E0,0E0,0E0,0E0],"parents":[2147483647,0,0,1,1,2,2,3,3,4,4,5,5,6,6],"right_children":[2,4,6,8,10,12,14,-1,-1,-1,-1,-1,-1,-1,-1],"split_conditions":[-1.9226864E-1,-7.978238E1,-9.764636E0,8E0,1.0436981E-1,1.05E1,-8.423706E0,7.23189E0,1.2338305E0,1.993548E1,6.0284424E0,3.4186572E-1,-7.3775613E-1,-2.0543073E-1,-3.7348099E0],"split_indices":[5,2,17,1,11,0,17,0,0,0,0,0,0,0,0],"split_type":[0,0,0,0,0,0,0,0,0,0,0,0,0,0,0],"sum_hessian":[4.9174E4,1.74E2,4.9E4,1.27E2,4.7E1,2.4102E4,2.4898E4,2.9E1,9.8E1,3E0,4.4E1,2.1246E4,2.856E3,2.4727E4,1.71E2],"tree_param":{"num_deleted":"0","num_feature":"19","num_nodes":"15","size_leaf_vector":"1"}},{"base_weights":[3.12735E-2,-1.80598E0,2.8869832E0,-8.0311173E-1,-8.716562E0,8.0040586E-1,9.066215E0,3.3517894E-1,-2.7291843E-1,-7.857854E-1,-7.549629E0,5.3891325E0,6.0403254E-2,2.323633E0,6.975705E-1],"categories":[],"categories_nodes":[],"categories_segments":[],"categories_sizes":[],"default_left":[0,0,0,0,0,0,0,0,0,0,0,0,0,0,0],"id":65,"left_children":[1,3,5,7,9,11,13,-1,-1,-1,-1,-1,-1,-1,-1],"loss_changes":[2.5786294E5,2.0726053E5,2.4807548E5,2.0902214E5,2.1674162E5,1.4994028E5,1.4371566E5,0E0,0E0,0E0,0E0,0E0,0E0,0E0,0E0],"parents":[2147483647,0,0,1,1,2,2,3,3,4,4,5,5,6,6],"right_children":[2,4,6,8,10,12,14,-1,-1,-1,-1,-1,-1,-1,-1],"split_conditions":[5E2,9.874701E-1,8.186454E1,-4.6581876E-2,1.0608383E1,-1.8100412E-1,9.96052E1,3.3517894E-1,-2.7291843E-1,-7.857854E-1,-7.549629E0,5.3891325E0,6.0403254E-2,2.323633E0,6.975705E-1],"split_indices":[18,8,4,5,10,5,4,0,0,0,0,0,0,0,0],"split_type":[0,0,0,0,0,0,0,0,0,0,0,0,0,0,0],"sum_hessian":[4.9146E4,2.9906E4,1.924E4,2.6117E4,3.789E3,1.4384E4,4.856E3,8.272E3,1.7845E4,3.742E3,4.7E1,5.2E1,1.4332E4,6.23E2,4.233E3],"tree_param":{"num_deleted":"0","num_feature":"19","num_nodes":"15","size_leaf_vector":"1"}},{"base_weights":[-9.556418E-2,4.0942187E0,-1.2282546E0,3.204358E0,2.904343E1,7.173498E-1,-6.4932175E0,1.8787523E-1,1.5303115E0,5.068931E0,8.9701265E-1,1.9275442E-2,2.3710976E0,3.1609195E-1,-2.0864687E0],"categories":[],"categories_nodes":[],"categories_segments":[],"categories_sizes":[],"default_left":[0,0,0,0,0,0,0,0,0,0,0,0,0,0,0],"id":66,"left_children":[1,3,5,7,9,11,13,-1,-1,-1,-1,-1,-1,-1,-1],"loss_changes":[2.3319105E5,2.320661E5,3.9622456E5,1.6192481E5,1.5596684E5,3.406844E5,1.4481384E6,0E0,0E0,0E0,0E0,0E0,0E0,0E0,0E0],"parents":[2147483647,0,0,1,1,2,2,3,3,4,4,5,5,6,6],"right_children":[2,4,6,8,10,12,14,-1,-1,-1,-1,-1,-1,-1,-1],"split_conditions":[-6.4258836E-2,-7.9781395E1,8.8E0,8.5638724E-2,7.172651E1,1.4497192E-1,-6.27881E-2,1.8787523E-1,1.5303115E0,5.068931E0,8.9701265E-1,1.9275442E-2,2.3710976E0,3.1609195E-1,-2.0864687E0],"split_indices":[5,2,0,6,4,6,6,0,0,0,0,0,0,0,0],"split_type":[0,0,0,0,0,0,0,0,0,0,0,0,0,0,0],"sum_hessian":[4.9135E4,1.0456E4,3.8679E4,1.0097E4,3.59E2,2.8243E4,1.0436E4,9.101E3,9.96E2,1.72E2,1.87E2,2.7614E4,6.29E2,6.243E3,4.193E3],"tree_param":{"num_deleted":"0","num_feature":"19","num_nodes":"15","size_leaf_vector":"1"}},{"base_weights":[2.1246101E-1,1.7506136E1,-7.056587E-2,9.317297E1,1.6321106E1,-3.1154263E-1,1.9795595E1,-4.557905E0,1.2548128E1,-1.0491519E1,1.7080258E0,-1.1561986E0,1.1306906E-2,1.4628869E0,6.35153E0],"categories":[],"categories_nodes":[],"categories_segments":[],"categories_sizes":[],"default_left":[0,0,0,0,0,0,0,0,0,0,0,0,0,0,0],"id":67,"left_children":[1,3,5,7,9,11,13,-1,-1,-1,-1,-1,-1,-1,-1],"loss_changes":[2.4074089E5,6.949594E4,2.3168194E5,5.951343E4,7.367261E4,2.284169E5,1.3008572E5,0E0,0E0,0E0,0E0,0E0,0E0,0E0,0E0],"parents":[2147483647,0,0,1,1,2,2,3,3,4,4,5,5,6,6],"right_children":[2,4,6,8,10,12,14,-1,-1,-1,-1,-1,-1,-1,-1],"split_conditions":[-1.687766E-1,1.689604E-1,1.4770193E-1,-5.674738E-1,-1.0084763E-1,-9.5528954E-1,1.1730437E-1,-4.557905E0,1.2548128E1,-1.0491519E1,1.7080258E0,-1.1561986E0,1.1306906E-2,1.4628869E0,6.35153E0],"split_indices":[6,11,5,7,7,11,7,0,0,0,0,0,0,0,0],"split_type":[0,0,0,0,0,0,0,0,0,0,0,0,0,0,0],"sum_hessian":[4.9184E4,7.91E2,4.8393E4,1.1E1,7.8E2,4.7814E4,5.79E2,2E0,9E0,4E0,7.76E2,1.738E3,4.6076E4,5.19E2,6E1],"tree_param":{"num_deleted":"0","num_feature":"19","num_nodes":"15","size_leaf_vector":"1"}},{"base_weights":[6.296446E-2,6.397177E0,-7.48837E-1,4.7154646E0,2.7200628E1,-1.7505139E-1,-9.39731E0,3.506E-1,2.985048E0,4.031903E-2,4.443348E0,-2.8078651E0,9.1689854E-4,-1.6413479E0,7.0311975E-1],"categories":[],"categories_nodes":[],"categories_segments":[],"categories_sizes":[],"default_left":[0,0,0,0,0,0,0,0,0,0,0,0,0,0,0],"id":68,"left_children":[1,3,5,7,9,11,13,-1,-1,-1,-1,-1,-1,-1,-1],"loss_changes":[2.5370686E5,1.9596505E5,2.1702262E5,1.5757966E5,1.9347472E5,2.108291E5,3.1375203E5,0E0,0E0,0E0,0E0,0E0,0E0,0E0,0E0],"parents":[2147483647,0,0,1,1,2,2,3,3,4,4,5,5,6,6],"right_children":[2,4,6,8,10,12,14,-1,-1,-1,-1,-1,-1,-1,-1],"split_conditions":[-1.0223477E1,9.2494005E-1,9.941965E0,1.5941784E-1,3.988797E0,-1.7574518E0,3.2685223E0,3.506E-1,2.985048E0,4.031903E-2,4.443348E0,-2.8078651E0,9.1689854E-4,-1.6413479E0,7.0311975E-1],"split_indices":[17,16,10,6,10,9,11,0,0,0,0,0,0,0,0],"split_type":[0,0,0,0,0,0,0,0,0,0,0,0,0,0,0],"sum_hessian":[4.9337E4,5.604E3,4.3733E4,5.186E3,4.18E2,4.1013E4,2.72E3,4.949E3,2.37E2,1.64E2,2.54E2,2.68E2,4.0745E4,1.906E3,8.14E2],"tree_param":{"num_deleted":"0","num_feature":"19","num_nodes":"15","size_leaf_vector":"1"}},{"base_weights":[-1.1366022E-1,-3.3946576E0,1.4218017E0,-9.509409E-1,-9.5792055E0,1.2322576E0,2.755018E1,5.5091375E-1,-2.947294E-1,-5.885292E-1,-2.3498533E0,1.8011294E-1,-8.672466E-1,4.128312E0,4.8600593E-1],"categories":[],"categories_nodes":[],"categories_segments":[],"categories_sizes":[],"default_left":[0,0,0,0,0,0,0,0,0,0,0,0,0,0,0],"id":69,"left_children":[1,3,5,7,9,11,13,-1,-1,-1,-1,-1,-1,-1,-1],"loss_changes":[2.4751927E5,2.3671023E5,1.657206E5,1.448192E5,2.279466E5,1.87245E5,7.4895484E4,0E0,0E0,0E0,0E0,0E0,0E0,0E0,0E0],"parents":[2147483647,0,0,1,1,2,2,3,3,4,4,5,5,6,6],"right_children":[2,4,6,8,10,12,14,-1,-1,-1,-1,-1,-1,-1,-1],"split_conditions":[2.5E2,7.825135E1,4.099542E0,2.4196012E-1,9.6348697E-1,9.941965E0,9.50334E-1,5.5091375E-1,-2.947294E-1,-5.885292E-1,-2.3498533E0,1.8011294E-1,-8.672466E-1,4.128312E0,4.8600593E-1],"split_indices":[18,4,11,8,7,10,7,0,0,0,0,0,0,0,0],"split_type":[0,0,0,0,0,0,0,0,0,0,0,0,0,0,0],"sum_hessian":[4.913E4,1.5662E4,3.3468E4,1.1227E4,4.435E3,3.3228E4,2.4E2,2.65E3,8.577E3,3.506E3,9.29E2,3.1424E4,1.804E3,1.49E2,9.1E1],"tree_param":{"num_deleted":"0","num_feature":"19","num_nodes":"15","size_leaf_vector":"1"}},{"base_weights":[-1.0510496E-1,1.333108E-1,-1.983973E1,-1.2254094E0,3.4498625E0,-3.9128983E0,-4.230471E1,-4.777699E-2,-1.2566961E0,2.7205439E0,3.133739E-1,-7.423641E-1,1.3171599E0,-9.061808E0,-3.2049928E0],"categories":[],"categories_nodes":[],"categories_segments":[],"categories_sizes":[],"default_left":[0,0,0,0,0,0,0,0,0,0,0,0,0,0,0],"id":70,"left_children":[1,3,5,7,9,11,13,-1,-1,-1,-1,-1,-1,-1,-1],"loss_changes":[2.3097805E5,2.1858517E5,2.0950286E5,2.9176994E5,1.0577908E5,2.0730652E4,1.1748834E5,0E0,0E0,0E0,0E0,0E0,0E0,0E0,0E0],"parents":[2147483647,0,0,1,1,2,2,3,3,4,4,5,5,6,6],"right_children":[2,4,6,8,10,12,14,-1,-1,-1,-1,-1,-1,-1,-1],"split_conditions":[1.0294048E2,2.29E2,8.5E0,1.21E1,-1.9631149E-1,6.2650533E0,4.0104866E0,-4.777699E-2,-1.2566961E0,2.7205439E0,3.133739E-1,-7.423641E-1,1.3171599E0,-9.061808E0,-3.2049928E0],"split_indices":[4,1,0,0,6,10,10,0,0,0,0,0,0,0,0],"split_type":[0,0,0,0,0,0,0,0,0,0,0,0,0,0,0],"sum_hessian":[4.909E4,4.8505E4,5.85E2,3.4409E4,1.4096E4,3.43E2,2.42E2,3.2282E4,2.127E3,1.84E2,1.3912E4,2.85E2,5.8E1,4.1E1,2.01E2],"tree_param":{"num_deleted":"0","num_feature":"19","num_nodes":"15","size_leaf_vector":"1"}},{"base_weights":[4.595491E-3,3.869123E0,-1.154712E0,5.2069744E1,3.4589617E0,-2.7807875E0,2.647097E0,1.23981695E1,4.5020695E0,6.73324E-1,-1.0743206E-1,-2.2566621E0,-1.8739279E-1,4.8257563E-1,-7.803377E-1],"categories":[],"categories_nodes":[],"categories_segments":[],"categories_sizes":[],"default_left":[0,0,0,0,0,0,0,0,0,0,0,0,0,0,0],"id":71,"left_children":[1,3,5,7,9,11,13,-1,-1,-1,-1,-1,-1,-1,-1],"loss_changes":[2.210563E5,2.2492134E5,2.3464628E5,4.3081703E4,1.6760211E5,4.7697156E5,2.5893281E5,0E0,0E0,0E0,0E0,0E0,0E0,0E0,0E0],"parents":[2147483647,0,0,1,1,2,2,3,3,4,4,5,5,6,6],"right_children":[2,4,6,8,10,12,14,-1,-1,-1,-1,-1,-1,-1,-1],"split_conditions":[-6.052681E-2,-7.798353E-1,-4.4859564E-1,-1.0558424E-1,9.7580993E-1,-8.745837E-1,6.496606E-1,1.23981695E1,4.5020695E0,6.73324E-1,-1.0743206E-1,-2.2566621E0,-1.8739279E-1,4.8257563E-1,-7.803377E-1],"split_indices":[5,13,15,6,8,11,14,0,0,0,0,0,0,0,0],"split_type":[0,0,0,0,0,0,0,0,0,0,0,0,0,0,0],"sum_hessian":[4.9339E4,1.1385E4,3.7954E4,9.5E1,1.129E4,2.6584E4,1.137E4,7E0,8.8E1,6.555E3,4.735E3,1.164E3,2.542E4,9.409E3,1.961E3],"tree_param":{"num_deleted":"0","num_feature":"19","num_nodes":"15","size_leaf_vector":"1"}},{"base_weights":[2.0161867E-2,3.3260408E-1,-1.5584254E1,-3.4942027E-2,1.4620043E1,-2.55139E1,-1.6097655E0,3.548071E0,-1.6247556E-2,4.372758E-1,3.2531307E0,-3.5352266E0,-1.1155263E0,-8.797439E-1,2.0040357E0],"categories":[],"categories_nodes":[],"categories_segments":[],"categories_sizes":[],"default_left":[0,0,0,0,0,0,0,0,0,0,0,0,0,0,0],"id":72,"left_children":[1,3,5,7,9,11,13,-1,-1,-1,-1,-1,-1,-1,-1],"loss_changes":[2.4092206E5,2.5439939E5,1.3455781E5,2.1393558E5,2.2286106E5,7.970319E4,6.3044367E4,0E0,0E0,0E0,0E0,0E0,0E0,0E0,0E0],"parents":[2147483647,0,0,1,1,2,2,3,3,4,4,5,5,6,6],"right_children":[2,4,6,8,10,12,14,-1,-1,-1,-1,-1,-1,-1,-1],"split_conditions":[-8.922064E0,1.1359738E0,1.3422415E0,-1.9226864E-1,7.9921824E-1,7.4015E1,3.03E2,3.548071E0,-1.6247556E-2,4.372758E-1,3.2531307E0,-3.5352266E0,-1.1155263E0,-8.797439E-1,2.0040357E0],"split_indices":[17,16,11,5,11,4,1,0,0,0,0,0,0,0,0],"split_type":[0,0,0,0,0,0,0,0,0,0,0,0,0,0,0],"sum_hessian":[4.9413E4,4.8444E4,9.69E2,4.723E4,1.214E3,5.66E2,4.03E2,1.68E2,4.7062E4,7.73E2,4.41E2,3.35E2,2.31E2,3.03E2,1E2],"tree_param":{"num_deleted":"0","num_feature":"19","num_nodes":"15","size_leaf_vector":"1"}},{"base_weights":[2.0325603E-1,-2.7242715E0,1.5828247E0,-8.488282E-1,-9.946868E0,-4.368207E0,2.4957497E0,-2.1917036E-1,1.0172092E0,-2.5538313E0,-7.180502E-1,-3.899207E-1,-6.004844E0,2.2516496E-1,2.5170736E0],"categories":[],"categories_nodes":[],"categories_segments":[],"categories_sizes":[],"default_left":[0,0,0,0,0,0,0,0,0,0,0,0,0,0,0],"id":73,"left_children":[1,3,5,7,9,11,13,-1,-1,-1,-1,-1,-1,-1,-1],"loss_changes":[1.9825322E5,2.1296853E5,1.8127781E5,1.8476722E5,1.3960628E5,1.1565987E5,1.6005892E5,0E0,0E0,0E0,0E0,0E0,0E0,0E0,0E0],"parents":[2147483647,0,0,1,1,2,2,3,3,4,4,5,5,6,6],"right_children":[2,4,6,8,10,12,14,-1,-1,-1,-1,-1,-1,-1,-1],"split_conditions":[2.5E2,9.806356E1,-5.562713E-1,5.895264E-1,2.2834684E-1,-8.652694E0,3.1220964E-1,-2.1917036E-1,1.0172092E0,-2.5538313E0,-7.180502E-1,-3.899207E-1,-6.004844E0,2.2516496E-1,2.5170736E0],"split_indices":[18,4,7,16,8,17,12,0,0,0,0,0,0,0,0],"split_type":[0,0,0,0,0,0,0,0,0,0,0,0,0,0,0],"sum_hessian":[4.9086E4,1.5722E4,3.3364E4,1.2482E4,3.24E3,4.437E3,2.8927E4,1.1127E4,1.355E3,4.87E2,2.753E3,4.401E3,3.6E1,2.862E4,3.07E2],"tree_param":{"num_deleted":"0","num_feature":"19","num_nodes":"15","size_leaf_vector":"1"}},{"base_weights":[1.585971E-1,1.8207851E1,-5.01898E-2,2.5047256E1,-7.913006E0,8.2406193E-1,-4.7239146E0,3.2581124E0,4.6487173E-1,1.6995314E0,-2.8484333E0,4.9428254E-1,-2.8249316E-3,-5.152012E-1,4.6413836E0],"categories":[],"categories_nodes":[],"categories_segments":[],"categories_sizes":[],"default_left":[0,0,0,0,0,0,0,0,0,0,0,0,0,0,0],"id":74,"left_children":[1,3,5,7,9,11,13,-1,-1,-1,-1,-1,-1,-1,-1],"loss_changes":[1.8619236E5,1.0113609E5,1.9958108E5,6.8697125E4,6.094696E4,1.444489E5,1.6874122E5,0E0,0E0,0E0,0E0,0E0,0E0,0E0,0E0],"parents":[2147483647,0,0,1,1,2,2,3,3,4,4,5,5,6,6],"right_children":[2,4,6,8,10,12,14,-1,-1,-1,-1,-1,-1,-1,-1],"split_conditions":[-2.9938288E0,-8.922064E0,1.22006655E-1,1.1358315E1,9.484571E-1,-7.469588E-2,1.8067124E-1,3.2581124E0,4.6487173E-1,1.6995314E0,-2.8484333E0,4.9428254E-1,-2.8249316E-3,-5.152012E-1,4.6413836E0],"split_indices":[15,17,13,10,7,6,5,0,0,0,0,0,0,0,0],"split_type":[0,0,0,0,0,0,0,0,0,0,0,0,0,0,0],"sum_hessian":[4.9407E4,5.64E2,4.8843E4,4.47E2,1.17E2,4.1147E4,7.696E3,3.26E2,1.21E2,5.3E1,6.4E1,7.054E3,3.4093E4,7.633E3,6.3E1],"tree_param":{"num_deleted":"0","num_feature":"19","num_nodes":"15","size_leaf_vector":"1"}},{"base_weights":[-1.6156729E-1,-1.7637293E0,2.3211691E0,2.7861013E1,-1.9561808E0,3.338044E-1,8.041069E0,-1.8892332E0,3.4930813E0,-6.0352888E-2,-6.354876E-1,1.5038846E-1,-7.5082415E-1,8.9541304E-1,-1.1451796E0],"categories":[],"categories_nodes":[],"categories_segments":[],"categories_sizes":[],"default_left":[0,0,0,0,0,0,0,0,0,0,0,0,0,0,0],"id":75,"left_children":[1,3,5,7,9,11,13,-1,-1,-1,-1,-1,-1,-1,-1],"loss_changes":[1.9563362E5,1.704786E5,2.192769E5,6.44535E4,1.7670831E5,1.3138153E5,8.863072E4,0E0,0E0,0E0,0E0,0E0,0E0,0E0,0E0],"parents":[2147483647,0,0,1,1,2,2,3,3,4,4,5,5,6,6],"right_children":[2,4,6,8,10,12,14,-1,-1,-1,-1,-1,-1,-1,-1],"split_conditions":[5E2,-3.3317187E0,8.074744E1,-1.7608598E-2,7.825135E1,7.617902E1,1.0294048E2,-1.8892332E0,3.4930813E0,-6.0352888E-2,-6.354876E-1,1.5038846E-1,-7.5082415E-1,8.9541304E-1,-1.1451796E0],"split_indices":[18,15,4,16,4,4,4,0,0,0,0,0,0,0,0],"split_type":[0,0,0,0,0,0,0,0,0,0,0,0,0,0,0],"sum_hessian":[4.918E4,2.9891E4,1.9289E4,1.92E2,2.9699E4,1.4316E4,4.973E3,2.5E1,1.67E2,2.2715E4,6.984E3,1.2458E4,1.858E3,4.751E3,2.22E2],"tree_param":{"num_deleted":"0","num_feature":"19","num_nodes":"15","size_leaf_vector":"1"}},{"base_weights":[6.681084E-2,7.1803284E-1,-5.263808E0,1.255568E1,2.0095165E-1,-2.6116703E1,-1.9551883E0,3.3456712E0,9.062004E-1,5.7413667E-2,-2.0658853E0,-1.1286125E0,-4.103801E0,-2.9516444E-1,4.325364E0],"categories":[],"categories_nodes":[],"categories_segments":[],"categories_sizes":[],"default_left":[0,0,0,0,0,0,0,0,0,0,0,0,0,0,0],"id":76,"left_children":[1,3,5,7,9,11,13,-1,-1,-1,-1,-1,-1,-1,-1],"loss_changes":[1.7116888E5,2.689553E5,3.703103E5,1.3398322E5,3.2775766E5,1.6218616E5,2.0888289E5,0E0,0E0,0E0,0E0,0E0,0E0,0E0,0E0],"parents":[2147483647,0,0,1,1,2,2,3,3,4,4,5,5,6,6],"right_children":[2,4,6,8,10,12,14,-1,-1,-1,-1,-1,-1,-1,-1],"split_conditions":[9.588739E0,-2.0888593E0,9.126468E-1,5.9912443E0,1.18E1,1.14E1,1.0994792E-1,3.3456712E0,9.062004E-1,5.7413667E-2,-2.0658853E0,-1.1286125E0,-4.103801E0,-2.9516444E-1,4.325364E0],"split_indices":[10,15,11,10,0,0,6,0,0,0,0,0,0,0,0],"split_type":[0,0,0,0,0,0,0,0,0,0,0,0,0,0,0],"sum_hessian":[4.9306E4,4.3939E4,5.367E3,1.838E3,4.2101E4,7.34E2,4.633E3,2.62E2,1.576E3,4.1362E4,7.39E2,3.69E2,3.65E2,4.534E3,9.9E1],"tree_param":{"num_deleted":"0","num_feature":"19","num_nodes":"15","size_leaf_vector":"1"}},{"base_weights":[-1.7274375E-1,3.2538383E1,-2.9872146E-1,4.3009476E1,1.1901083E1,-1.368928E-1,-2.0926014E1,4.6750565E0,-5.612682E0,1.8058623E0,-5.1657825E0,6.498358E-1,-6.344933E-2,-4.5292798E-1,-4.0500674E0],"categories":[],"categories_nodes":[],"categories_segments":[],"categories_sizes":[],"default_left":[0,0,0,0,0,0,0,0,0,0,0,0,0,0,0],"id":77,"left_children":[1,3,5,7,9,11,13,-1,-1,-1,-1,-1,-1,-1,-1],"loss_changes":[2.0301219E5,4.0330094E4,1.6381044E5,4.8983703E4,2.6371691E4,1.6077402E5,1.22423484E5,0E0,0E0,0E0,0E0,0E0,0E0,0E0,0E0],"parents":[2147483647,0,0,1,1,2,2,3,3,4,4,5,5,6,6],"right_children":[2,4,6,8,10,12,14,-1,-1,-1,-1,-1,-1,-1,-1],"split_conditions":[-1.1759925E1,1.8E2,1.0309882E2,1.0147645E2,9.2494005E-1,-7.015842E-1,8.4E0,4.6750565E0,-5.612682E0,1.8058623E0,-5.1657825E0,6.498358E-1,-6.344933E-2,-4.5292798E-1,-4.0500674E0],"split_indices":[17,1,4,4,16,16,0,0,0,0,0,0,0,0,0],"split_type":[0,0,0,0,0,0,0,0,0,0,0,0,0,0,0],"sum_hessian":[4.9261E4,1.88E2,4.9073E4,1.24E2,6.4E1,4.8692E4,3.81E2,1.2E2,4E0,5.9E1,5E0,3.396E3,4.5296E4,2.08E2,1.73E2],"tree_param":{"num_deleted":"0","num_feature":"19","num_nodes":"15","size_leaf_vector":"1"}},{"base_weights":[7.103179E-2,6.1298555E-1,-7.1008744E0,3.8294384E-1,2.0192621E1,5.9260166E1,-7.5425034E0,1.4203958E-2,1.8414611E0,1.5095656E0,8.25079E0,1.5151187E1,2.5217366E0,1.6036866E0,-8.765661E-1],"categories":[],"categories_nodes":[],"categories_segments":[],"categories_sizes":[],"default_left":[0,0,0,0,0,0,0,0,0,0,0,0,0,0,0],"id":78,"left_children":[1,3,5,7,9,11,13,-1,-1,-1,-1,-1,-1,-1,-1],"loss_changes":[1.9152847E5,2.063446E5,1.0190761E5,1.9670244E5,1.6772767E5,6.8410914E4,9.935464E4,0E0,0E0,0E0,0E0,0E0,0E0,0E0,0E0],"parents":[2147483647,0,0,1,1,2,2,3,3,4,4,5,5,6,6],"right_children":[2,4,6,8,10,12,14,-1,-1,-1,-1,-1,-1,-1,-1],"split_conditions":[-9.241713E0,1.4770193E-1,4.0457973E1,1.4002529E0,8.7440217E-1,4.870549E1,-1.1697177E0,1.4203958E-2,1.8414611E0,1.5095656E0,8.25079E0,1.5151187E1,2.5217366E0,1.6036866E0,-8.765661E-1],"split_indices":[17,5,3,16,13,4,16,0,0,0,0,0,0,0,0],"split_type":[0,0,0,0,0,0,0,0,0,0,0,0,0,0,0],"sum_hessian":[4.9274E4,4.5813E4,3.461E3,4.5282E4,5.31E2,2.2E1,3.439E3,4.4686E4,5.96E2,4.92E2,3.9E1,5E0,1.7E1,1.69E2,3.27E3],"tree_param":{"num_deleted":"0","num_feature":"19","num_nodes":"15","size_leaf_vector":"1"}},{"base_weights":[1.6100515E-1,-1.755081E1,3.6973614E-1,-3.1286695E1,-6.9730067E0,3.4419608E0,-6.21643E-1,-4.525963E0,-6.949629E-1,-1.2599205E0,1.228071E0,5.079736E-1,-3.777315E-1,-8.571249E-1,-1.8955001E-6],"categories":[],"categories_nodes":[],"categories_segments":[],"categories_sizes":[],"default_left":[0,0,0,0,0,0,0,0,0,0,0,0,0,0,0],"id":79,"left_children":[1,3,5,7,9,11,13,-1,-1,-1,-1,-1,-1,-1,-1],"loss_changes":[1.8187322E5,8.303617E4,1.4808903E5,8.436044E4,3.5360426E4,1.4027016E5,1.8165567E5,0E0,0E0,0E0,0E0,0E0,0E0,0E0,0E0],"parents":[2147483647,0,0,1,1,2,2,3,3,4,4,5,5,6,6],"right_children":[2,4,6,8,10,12,14,-1,-1,-1,-1,-1,-1,-1,-1],"split_conditions":[-1.5968269E0,2.4854805E1,-9.979142E0,1.24E2,9.437792E-1,9.8E0,-2.4616648E-1,-4.525963E0,-6.949629E-1,-1.2599205E0,1.228071E0,5.079736E-1,-3.777315E-1,-8.571249E-1,-1.8955001E-6],"split_indices":[9,4,17,1,7,0,11,0,0,0,0,0,0,0,0],"split_type":[0,0,0,0,0,0,0,0,0,0,0,0,0,0,0],"sum_hessian":[4.9192E4,5.72E2,4.862E4,2.48E2,3.24E2,1.1861E4,3.6759E4,1.57E2,9.1E1,2.51E2,7.3E1,9.668E3,2.193E3,2.665E3,3.4094E4],"tree_param":{"num_deleted":"0","num_feature":"19","num_nodes":"15","size_leaf_vector":"1"}},{"base_weights":[-6.963128E-2,1.56371765E1,-3.1857988E-1,2.5479868E1,-1.1796368E1,5.1219273E0,-9.323229E-1,2.935437E0,-4.0214305E0,2.8133378E0,-3.0670948E0,3.5650894E-1,2.373315E0,-1.058735E0,-3.401128E-2],"categories":[],"categories_nodes":[],"categories_segments":[],"categories_sizes":[],"default_left":[0,0,0,0,0,0,0,0,0,0,0,0,0,0,0],"id":80,"left_children":[1,3,5,7,9,11,13,-1,-1,-1,-1,-1,-1,-1,-1],"loss_changes":[1.9297275E5,2.0821589E5,1.622203E5,1.4550025E5,1.5460895E5,1.4261562E5,2.4961861E5,0E0,0E0,0E0,0E0,0E0,0E0,0E0,0E0],"parents":[2147483647,0,0,1,1,2,2,3,3,4,4,5,5,6,6],"right_children":[2,4,6,8,10,12,14,-1,-1,-1,-1,-1,-1,-1,-1],"split_conditions":[-6.00935E-1,4.8560512E-1,-1.0246835E1,1.581217E0,-2.7357706E-1,9.2494005E-1,-4.0809232E-1,2.935437E0,-4.0214305E0,2.8133378E0,-3.0670948E0,3.5650894E-1,2.373315E0,-1.058735E0,-3.401128E-2],"split_indices":[13,14,17,10,11,16,11,0,0,0,0,0,0,0,0],"split_type":[0,0,0,0,0,0,0,0,0,0,0,0,0,0,0],"sum_hessian":[4.9349E4,7.69E2,4.858E4,5.66E2,2.03E2,4.924E3,4.3656E4,5.35E2,3.1E1,6.5E1,1.38E2,4.545E3,3.79E2,2.522E3,4.1134E4],"tree_param":{"num_deleted":"0","num_feature":"19","num_nodes":"15","size_leaf_vector":"1"}},{"base_weights":[-1.5123868E-2,-2.077224E1,1.4714788E-1,-1.2368144E1,-5.8594116E1,3.2825477E-2,3.1158993E1,-1.011902E0,-5.9680233E0,-7.953923E-1,-7.9101257E0,-1.956368E-2,1.489806E0,9.8786545E0,2.00503E0],"categories":[],"categories_nodes":[],"categories_segments":[],"categories_sizes":[],"default_left":[0,0,0,0,0,0,0,0,0,0,0,0,0,0,0],"id":81,"left_children":[1,3,5,7,9,11,13,-1,-1,-1,-1,-1,-1,-1,-1],"loss_changes":[1.6544016E5,1.2037945E5,1.7278511E5,3.2702672E4,7.102633E4,1.6491294E5,1.3249372E5,0E0,0E0,0E0,0E0,0E0,0E0,0E0,0E0],"parents":[2147483647,0,0,1,1,2,2,3,3,4,4,5,5,6,6],"right_children":[2,4,6,8,10,12,14,-1,-1,-1,-1,-1,-1,-1,-1],"split_conditions":[-1.7574518E0,7.055544E-1,5.4469746E-1,1.8406079E0,6E0,1.4002529E0,-5.127722E-4,-1.011902E0,-5.9680233E0,-7.953923E-1,-7.9101257E0,-1.956368E-2,1.489806E0,9.8786545E0,2.00503E0],"split_indices":[9,16,12,11,0,16,14,0,0,0,0,0,0,0,0],"split_type":[0,0,0,0,0,0,0,0,0,0,0,0,0,0,0],"sum_hessian":[4.9115E4,3.8E2,4.8735E4,3.12E2,6.8E1,4.8557E4,1.78E2,2.99E2,1.3E1,2E1,4.8E1,4.7823E4,7.34E2,2.4E1,1.54E2],"tree_param":{"num_deleted":"0","num_feature":"19","num_nodes":"15","size_leaf_vector":"1"}},{"base_weights":[1.9716997E-2,-1.3927741E-1,1.9955276E1,2.9121312E-1,-7.33314E0,2.3034027E1,-4.876996E1,-5.6597125E-2,3.9601767E-1,1.1990542E0,-1.1900576E0,2.7047524E0,-1.0125206E0,-9.997354E0,-1.1752228E0],"categories":[],"categories_nodes":[],"categories_segments":[],"categories_sizes":[],"default_left":[0,0,0,0,0,0,0,0,0,0,0,0,0,0,0],"id":82,"left_children":[1,3,5,7,9,11,13,-1,-1,-1,-1,-1,-1,-1,-1],"loss_changes":[1.5583192E5,1.5105295E5,8.343105E4,1.4474044E5,2.4320984E5,4.991436E4,3.104757E4,0E0,0E0,0E0,0E0,0E0,0E0,0E0,0E0],"parents":[2147483647,0,0,1,1,2,2,3,3,4,4,5,5,6,6],"right_children":[2,4,6,8,10,12,14,-1,-1,-1,-1,-1,-1,-1,-1],"split_conditions":[4.099542E0,9.941965E0,1.72E1,1.2793673E0,-1.2007711E-1,9.586679E-1,-2.5073333E-2,-5.6597125E-2,3.9601767E-1,1.1990542E0,-1.1900576E0,2.7047524E0,-1.0125206E0,-9.997354E0,-1.1752228E0],"split_indices":[11,10,0,11,6,7,13,0,0,0,0,0,0,0,0],"split_type":[0,0,0,0,0,0,0,0,0,0,0,0,0,0,0],"sum_hessian":[4.9162E4,4.8774E4,3.88E2,4.6021E4,2.753E3,3.72E2,1.6E1,3.7306E4,8.715E3,5.26E2,2.227E3,3.32E2,4E1,6E0,1E1],"tree_param":{"num_deleted":"0","num_feature":"19","num_nodes":"15","size_leaf_vector":"1"}},{"base_weights":[1.7882638E-1,6.306283E-2,2.902126E1,8.0337924E-1,-4.65613E0,1.1650948E1,7.044923E1,3.7403795E-1,-2.7773255E-2,2.3941073E0,-5.301158E-1,2.112682E0,-5.3748126E0,1.1766706E1,3.8325355E0],"categories":[],"categories_nodes":[],"categories_segments":[],"categories_sizes":[],"default_left":[0,0,0,0,0,0,0,0,0,0,0,0,0,0,0],"id":83,"left_children":[1,3,5,7,9,11,13,-1,-1,-1,-1,-1,-1,-1,-1],"loss_changes":[1.6453927E5,1.714883E5,1.409437E5,1.3472269E5,1.22903484E5,8.789538E4,8.3465875E4,0E0,0E0,0E0,0E0,0E0,0E0,0E0,0E0],"parents":[2147483647,0,0,1,1,2,2,3,3,4,4,5,5,6,6],"right_children":[2,4,6,8,10,12,14,-1,-1,-1,-1,-1,-1,-1,-1],"split_conditions":[1.8067124E-1,1.4016613E-1,-1.002077E1,-5.297574E-2,-1.6842175E-1,9.6E0,-7.9782715E1,3.7403795E-1,-2.7773255E-2,2.3941073E0,-5.301158E-1,2.112682E0,-5.3748126E0,1.1766706E1,3.8325355E0],"split_indices":[5,13,17,5,5,0,2,0,0,0,0,0,0,0,0],"split_type":[0,0,0,0,0,0,0,0,0,0,0,0,0,0,0],"sum_hessian":[4.9279E4,4.9083E4,1.96E2,4.2428E4,6.655E3,1.39E2,5.7E1,1.1415E4,3.1013E4,1.46E2,6.509E3,1.22E2,1.7E1,2.2E1,3.5E1],"tree_param":{"num_deleted":"0","num_feature":"19","num_nodes":"15","size_leaf_vector":"1"}},{"base_weights":[-9.633435E-3,-1.6564143E-1,1.93723E1,-1.247103E-2,-1.969282E1,-4.878455E0,2.9545462E1,2.1395283E0,-1.5481251E-2,-3.9258008E0,-8.500684E-1,1.5206166E1,-1.3242404E0,1.4468368E0,3.9691925E0],"categories":[],"categories_nodes":[],"categories_segments":[],"categories_sizes":[],"default_left":[0,0,0,0,0,0,0,0,0,0,0,0,0,0,0],"id":84,"left_children":[1,3,5,7,9,11,13,-1,-1,-1,-1,-1,-1,-1,-1],"loss_changes":[1.4882245E5,1.4603462E5,9.709992E4,1.4762853E5,8.287725E4,1.5559242E5,4.1800938E4,0E0,