{"learner":{"attributes":{},"feature_names":["wind_speed","wind_angle","position_x","position_y","position_z","orientation_x","orientation_y","orientation_z","orientation_w","velocity_x","velocity_y","velocity_z","angular_x","angular_y","angular_z","linear_acceleration_x","linear_acceleration_y","linear_acceleration_z","payload"],"feature_types":[],"gradient_booster":{"model":{"cats":{"enc":[],"feature_segments":[],"sorted_idx":[]},"gbtree_model_param":{"num_parallel_tree":"1","num_trees":"250"},"iteration_indptr":[0,1,2,3,4,5,6,7,8,9,10,11,12,13,14,15,16,17,18,19,20,21,22,23,24,25,26,27,28,29,30,31,32,33,34,35,36,37,38,39,40,41,42,43,44,45,46,47,48,49,50,51,52,53,54,55,56,57,58,59,60,61,62,63,64,65,66,67,68,69,70,71,72,73,74,75,76,77,78,79,80,81,82,83,84,85,86,87,88,89,90,91,92,93,94,95,96,97,98,99,100,101,102,103,104,105,106,107,108,109,110,111,112,113,114,115,116,117,118,119,120,121,122,123,124,125,126,127,128,129,130,131,132,133,134,135,136,137,138,139,140,141,142,143,144,145,146,147,148,149,150,151,152,153,154,155,156,157,158,159,160,161,162,163,164,165,166,167,168,169,170,171,172,173,174,175,176,177,178,179,180,181,182,183,184,185,186,187,188,189,190,191,192,193,194,195,196,197,198,199,200,201,202,203,204,205,206,207,208,209,210,211,212,213,214,215,216,217,218,219,220,221,222,223,224,225,226,227,228,229,230,231,232,233,234,235,236,237,238,239,240,241,242,243,244,245,246,247,248,249,250],"tree_info":[0,0,0,0,0,0,0,0,0,0,0,0,0,0,0,0,0,0,0,0,0,0,0,0,0,0,0,0,0,0,0,0,0,0,0,0,0,0,0,0,0,0,0,0,0,0,0,0,0,0,0,0,0,0,0,0,0,0,0,0,0,0,0,0,0,0,0,0,0,0,0,0,0,0,0,0,0,0,0,0,0,0,0,0,0,0,0,0,0,0,0,0,0,0,0,0,0,0,0,0,0,0,0,0,0,0,0,0,0,0,0,0,0,0,0,0,0,0,0,0,0,0,0,0,0,0,0,0,0,0,0,0,0,0,0,0,0,0,0,0,0,0,0,0,0,0,0,0,0,0,0,0,0,0,0,0,0,0,0,0,0,0,0,0,0,0,0,0,0,0,0,0,0,0,0,0,0,0,0,0,0,0,0,0,0,0,0,0,0,0,0,0,0,0,0,0,0,0,0,0,0,0,0,0,0,0,0,0,0,0,0,0,0,0,0,0,0,0,0,0,0,0,0,0,0,0,0,0,0,0,0,0,0,0,0,0,0,0,0,0,0,0,0,0,0,0,0,0,0,0],"trees":[{"base_weights":[1.2439196E-1,-5.3412785E1,2.5934267E1,-4.70862E1,-1.1904623E2,3.358142E1,-5.3777245E1,-4.2493544E0,-8.139539E0,-2.0703405E1,-4.9092073E0,7.8607666E-1,5.3571463E0,-1.2549608E1,3.7040029E0],"categories":[],"categories_nodes":[],"categories_segments":[],"categories_sizes":[],"default_left":[0,0,0,0,0,0,0,0,0,0,0,0,0,0,0],"id":0,"left_children":[1,3,5,7,9,11,13,-1,-1,-1,-1,-1,-1,-1,-1],"loss_changes":[3.5738564E7,3.48777E6,1.0639343E7,1.205894E6,4.538465E6,8.187014E6,9.956984E6,0E0,0E0,0E0,0E0,0E0,0E0,0E0,0E0],"parents":[2147483647,0,0,1,1,2,2,3,3,4,4,5,5,6,6],"right_children":[2,4,6,8,10,12,14,-1,-1,-1,-1,-1,-1,-1,-1],"split_conditions":[2.5E2,-4.196118E-1,-4.9552163E-1,6.317489E-1,1.6012555E-1,5E2,1.6012555E-1,-4.2493544E0,-8.139539E0,-2.0703405E1,-4.9092073E0,7.8607666E-1,5.3571463E0,-1.2549608E1,3.7040029E0],"split_indices":[18,11,11,16,10,18,10,0,0,0,0,0,0,0,0],"split_type":[0,0,0,0,0,0,0,0,0,0,0,0,0,0,0],"sum_hessian":[2.5862E4,8.412E3,1.745E4,7.674E3,7.38E2,1.5923E4,1.527E3,6.77E3,9.04E2,3.26E2,4.12E2,6.964E3,8.959E3,8.53E2,6.74E2],"tree_param":{"num_deleted":"0","num_feature":"19","num_nodes":"15","size_leaf_vector":"1"}},{"base_weights":[-8.746817E-2,-1.7946526E2,4.324748E0,-5.2058403E1,-2.2631932E2,1.1163944E1,-4.4737465E1,-2.4279811E0,-1.6082462E1,-9.906723E0,-2.800299E1,1.5275925E0,-3.6390522E0,-3.0524805E0,-7.4813304E0],"categories":[],"categories_nodes":[],"categories_segments":[],"categories_sizes":[],"default_left":[0,0,0,0,0,0,0,0,0,0,0,0,0,0,0],"id":1,"left_children":[1,3,5,7,9,11,13,-1,-1,-1,-1,-1,-1,-1,-1],"loss_changes":[2.0440066E7,3.689324E6,8.458275E6,5.0368575E5,3.068416E6,4.3265545E6,1.315996E6,0E0,0E0,0E0,0E0,0E0,0E0,0E0,0E0],"parents":[2147483647,0,0,1,1,2,2,3,3,4,4,5,5,6,6],"right_children":[2,4,6,8,10,12,14,-1,-1,-1,-1,-1,-1,-1,-1],"split_conditions":[6.0195243E-1,-8.28035E-2,-9.418018E0,7.953606E-3,-1.0054244E1,6E0,-8.793332E0,-2.4279811E0,-1.6082462E1,-9.906723E0,-2.800299E1,1.5275925E0,-3.6390522E0,-3.0524805E0,-7.4813304E0],"split_indices":[4,9,17,6,17,0,17,0,0,0,0,0,0,0,0],"split_type":[0,0,0,0,0,0,0,0,0,0,0,0,0,0,0],"sum_hessian":[2.5824E4,6.19E2,2.5205E4,1.67E2,4.52E2,2.2122E4,3.083E3,1.34E2,3.3E1,1.35E2,3.17E2,2.0362E4,1.76E3,2.095E3,9.88E2],"tree_param":{"num_deleted":"0","num_feature":"19","num_nodes":"15","size_leaf_vector":"1"}},{"base_weights":[4.157684E-1,-4.8663216E1,2.3523907E1,-2.3613304E2,-4.5451237E1,-1.5796063E2,2.7020529E1,-1.5337565E1,-3.0470768E1,-3.9116814E0,-7.5864716E0,-5.2399883E0,-2.3093952E1,2.414147E-1,4.58941E0],"categories":[],"categories_nodes":[],"categories_segments":[],"categories_sizes":[],"default_left":[0,0,0,0,0,0,0,0,0,0,0,0,0,0,0],"id":2,"left_children":[1,3,5,7,9,11,13,-1,-1,-1,-1,-1,-1,-1,-1],"loss_changes":[2.9285356E7,4.966636E6,1.114501E7,7.420975E5,1.562906E6,2.545528E6,7.999354E6,0E0,0E0,0E0,0E0,0E0,0E0,0E0,0E0],"parents":[2147483647,0,0,1,1,2,2,3,3,4,4,5,5,6,6],"right_children":[2,4,6,8,10,12,14,-1,-1,-1,-1,-1,-1,-1,-1],"split_conditions":[2.5E2,3.8535932E-1,4.8671973E-1,-4.0704895E-2,-9.500761E0,2.5082612E-3,5E2,-1.5337565E1,-3.0470768E1,-3.9116814E0,-7.5864716E0,-5.2399883E0,-2.3093952E1,2.414147E-1,4.58941E0],"split_indices":[18,4,4,9,17,6,18,0,0,0,0,0,0,0,0],"split_type":[0,0,0,0,0,0,0,0,0,0,0,0,0,0,0],"sum_hessian":[2.582E4,8.265E3,1.7555E4,1.38E2,8.127E3,3.31E2,1.7224E4,6.4E1,7.4E1,6.728E3,1.399E3,1.36E2,1.95E2,7.477E3,9.747E3],"tree_param":{"num_deleted":"0","num_feature":"19","num_nodes":"15","size_leaf_vector":"1"}},{"base_weights":[1.5581717E-1,5.9661164E0,-6.501768E1,1.1153063E1,-6.310313E1,-1.712069E2,-1.2587233E1,1.4662908E0,-5.265732E0,-7.5224495E0,2.2503583E-1,-9.022026E0,-2.153448E1,-6.9047065E0,1.3225955E0],"categories":[],"categories_nodes":[],"categories_segments":[],"categories_sizes":[],"default_left":[0,0,0,0,0,0,0,0,0,0,0,0,0,0,0],"id":3,"left_children":[1,3,5,7,9,11,13,-1,-1,-1,-1,-1,-1,-1,-1],"loss_changes":[9.812301E6,8.524031E6,1.1806614E7,4.957108E6,1.316761E6,2.486352E6,2.0718905E6,0E0,0E0,0E0,0E0,0E0,0E0,0E0,0E0],"parents":[2147483647,0,0,1,1,2,2,3,3,4,4,5,5,6,6],"right_children":[2,4,6,8,10,12,14,-1,-1,-1,-1,-1,-1,-1,-1],"split_conditions":[-4.196118E-1,6.1E0,2.2E0,-9.031804E0,1.6420054E-1,-9.959967E0,-5.2608557E-2,1.4662908E0,-5.265732E0,-7.5224495E0,2.2503583E-1,-9.022026E0,-2.153448E1,-6.9047065E0,1.3225955E0],"split_indices":[11,0,0,17,5,17,11,0,0,0,0,0,0,0,0],"split_type":[0,0,0,0,0,0,0,0,0,0,0,0,0,0,0],"sum_hessian":[2.591E4,2.379E4,2.12E3,2.2129E4,1.661E3,7E2,1.42E3,2.0976E4,1.153E3,1.401E3,2.6E2,2.48E2,4.52E2,4.45E2,9.75E2],"tree_param":{"num_deleted":"0","num_feature":"19","num_nodes":"15","size_leaf_vector":"1"}},{"base_weights":[-2.0203385E-1,-4.375772E1,2.0780243E1,-3.871984E1,-9.413198E1,-1.7694652E0,3.8092766E1,-3.2642236E0,-1.0106131E1,-1.747022E1,-3.9801147E0,4.19555E-1,-8.0259075E0,5.7084904E0,2.2675147E0],"categories":[],"categories_nodes":[],"categories_segments":[],"categories_sizes":[],"default_left":[0,0,0,0,0,0,0,0,0,0,0,0,0,0,0],"id":4,"left_children":[1,3,5,7,9,11,13,-1,-1,-1,-1,-1,-1,-1,-1],"loss_changes":[2.3612366E7,2.128102E6,6.8073385E6,2.890641E6,3.3330385E6,3.5464205E6,2.887018E6,0E0,0E0,0E0,0E0,0E0,0E0,0E0,0E0],"parents":[2147483647,0,0,1,1,2,2,3,3,4,4,5,5,6,6],"right_children":[2,4,6,8,10,12,14,-1,-1,-1,-1,-1,-1,-1,-1],"split_conditions":[2.5E2,-4.196118E-1,5E2,6.4E0,3.3E0,-4.196118E-1,-9.841182E0,-3.2642236E0,-1.0106131E1,-1.747022E1,-3.9801147E0,4.19555E-1,-8.0259075E0,5.7084904E0,2.2675147E0],"split_indices":[18,11,18,0,0,11,17,0,0,0,0,0,0,0,0],"split_type":[0,0,0,0,0,0,0,0,0,0,0,0,0,0,0],"sum_hessian":[2.5835E4,8.399E3,1.7436E4,7.637E3,7.62E2,7.573E3,9.863E3,6.96E3,6.77E2,3.06E2,4.56E2,7.039E3,5.34E2,4.418E3,5.445E3],"tree_param":{"num_deleted":"0","num_feature":"19","num_nodes":"15","size_leaf_vector":"1"}},{"base_weights":[-1.832673E-3,-3.9071377E1,1.8774786E1,-1.7174724E2,-3.6283657E1,-1.4546715E2,2.1262352E1,-3.4899628E0,-1.992555E1,1.000883E0,-4.0144215E0,-5.257995E0,-1.8498703E1,1.635408E-1,3.6523743E0],"categories":[],"categories_nodes":[],"categories_segments":[],"categories_sizes":[],"default_left":[0,0,0,0,0,0,0,0,0,0,0,0,0,0,0],"id":5,"left_children":[1,3,5,7,9,11,13,-1,-1,-1,-1,-1,-1,-1,-1],"loss_changes":[1.8918656E7,3.089895E6,7.1194335E6,6.405295E5,1.465864E6,9.447055E5,5.1396525E6,0E0,0E0,0E0,0E0,0E0,0E0,0E0,0E0],"parents":[2147483647,0,0,1,1,2,2,3,3,4,4,5,5,6,6],"right_children":[2,4,6,8,10,12,14,-1,-1,-1,-1,-1,-1,-1,-1],"split_conditions":[2.5E2,4.8671973E-1,3.8535932E-1,-4.196118E-1,-1.03759575E1,-9.914229E0,5E2,-3.4899628E0,-1.992555E1,1.000883E0,-4.0144215E0,-5.257995E0,-1.8498703E1,1.635408E-1,3.6523743E0],"split_indices":[18,4,4,11,17,17,18,0,0,0,0,0,0,0,0],"split_type":[0,0,0,0,0,0,0,0,0,0,0,0,0,0,0],"sum_hessian":[2.5787E4,8.37E3,1.7417E4,1.71E2,8.199E3,2.59E2,1.7158E4,2.9E1,1.42E2,6.31E2,7.568E3,7.8E1,1.81E2,7.506E3,9.652E3],"tree_param":{"num_deleted":"0","num_feature":"19","num_nodes":"15","size_leaf_vector":"1"}},{"base_weights":[5.3243134E-2,-3.519948E1,1.681022E1,-1.6371718E2,-3.2594227E1,-1.1224479E2,1.9851599E1,-1.0562569E1,-2.5374243E1,-2.72692E0,-6.611225E0,-8.001504E0,-2.6709583E1,2.0274906E-1,3.3482132E0],"categories":[],"categories_nodes":[],"categories_segments":[],"categories_sizes":[],"default_left":[0,0,0,0,0,0,0,0,0,0,0,0,0,0,0],"id":6,"left_children":[1,3,5,7,9,11,13,-1,-1,-1,-1,-1,-1,-1,-1],"loss_changes":[1.5249081E7,2.77937E6,6.8698905E6,8.36099E5,1.453381E6,1.989925E6,4.1531975E6,0E0,0E0,0E0,0E0,0E0,0E0,0E0,0E0],"parents":[2147483647,0,0,1,1,2,2,3,3,4,4,5,5,6,6],"right_children":[2,4,6,8,10,12,14,-1,-1,-1,-1,-1,-1,-1,-1],"split_conditions":[2.5E2,4.8671973E-1,6.0195243E-1,7.436805E-1,6E0,9.8734057E-1,5E2,-1.0562569E1,-2.5374243E1,-2.72692E0,-6.611225E0,-8.001504E0,-2.6709583E1,2.0274906E-1,3.3482132E0],"split_indices":[18,4,4,8,0,8,18,0,0,0,0,0,0,0,0],"split_type":[0,0,0,0,0,0,0,0,0,0,0,0,0,0,0],"sum_hessian":[2.5812E4,8.316E3,1.7496E4,1.64E2,8.152E3,4.02E2,1.7094E4,1.01E2,6.3E1,7.036E3,1.116E3,3.34E2,6.8E1,7.408E3,9.686E3],"tree_param":{"num_deleted":"0","num_feature":"19","num_nodes":"15","size_leaf_vector":"1"}},{"base_weights":[-1.197468E-1,-1.7143217E1,2.752254E1,-1.2558578E1,-7.017601E1,3.3627182E1,-1.4986545E1,-8.097143E-1,-6.5158677E0,-1.352716E0,-1.286046E1,3.8276658E0,-1.9075043E0,-2.8031176E-1,-4.4629626E0],"categories":[],"categories_nodes":[],"categories_segments":[],"categories_sizes":[],"default_left":[0,0,0,0,0,0,0,0,0,0,0,0,0,0,0],"id":7,"left_children":[1,3,5,7,9,11,13,-1,-1,-1,-1,-1,-1,-1,-1],"loss_changes":[1.2214525E7,3.904859E6,2.567764E6,3.469566E6,4.2283285E6,2.120552E6,4.4878978E5,0E0,0E0,0E0,0E0,0E0,0E0,0E0,0E0],"parents":[2147483647,0,0,1,1,2,2,3,3,4,4,5,5,6,6],"right_children":[2,4,6,8,10,12,14,-1,-1,-1,-1,-1,-1,-1,-1],"split_conditions":[5E2,-4.196118E-1,-9.429272E0,6E0,-1.0019534E-1,-4.196118E-1,-8.751372E0,-8.097143E-1,-6.5158677E0,-1.352716E0,-1.286046E1,3.8276658E0,-1.9075043E0,-2.8031176E-1,-4.4629626E0],"split_indices":[18,11,17,0,9,11,17,0,0,0,0,0,0,0,0],"split_type":[0,0,0,0,0,0,0,0,0,0,0,0,0,0,0],"sum_hessian":[2.5955E4,1.6063E4,9.892E3,1.4786E4,1.277E3,8.65E3,1.242E3,1.3631E4,1.155E3,6.49E2,6.28E2,7.949E3,7.01E2,8.81E2,3.61E2],"tree_param":{"num_deleted":"0","num_feature":"19","num_nodes":"15","size_leaf_vector":"1"}},{"base_weights":[-2.2282615E-1,-1.1288715E2,2.0535448E0,-4.596594E1,-1.7015057E2,3.710354E1,-3.5740411E0,2.7044387E0,-9.165761E0,-8.435271E0,-2.061665E1,3.2372205E0,1.1581946E1,-1.6203081E-2,-4.9210696E0],"categories":[],"categories_nodes":[],"categories_segments":[],"categories_sizes":[],"default_left":[0,0,0,0,0,0,0,0,0,0,0,0,0,0,0],"id":8,"left_children":[1,3,5,7,9,11,13,-1,-1,-1,-1,-1,-1,-1,-1],"loss_changes":[6.6173055E6,1.950402E6,4.9887025E6,7.931023E5,8.32384E5,1.2993875E6,3.39344E6,0E0,0E0,0E0,0E0,0E0,0E0,0E0,0E0],"parents":[2147483647,0,0,1,1,2,2,3,3,4,4,5,5,6,6],"right_children":[2,4,6,8,10,12,14,-1,-1,-1,-1,-1,-1,-1,-1],"split_conditions":[4.8671973E-1,3.8064672E-3,-1.0153722E1,-3.8560715E-1,-9.967737E0,1.6420054E-1,-9.031804E0,2.7044387E0,-9.165761E0,-8.435271E0,-2.061665E1,3.2372205E0,1.1581946E1,-1.6203081E-2,-4.9210696E0],"split_indices":[4,6,17,11,17,5,17,0,0,0,0,0,0,0,0],"split_type":[0,0,0,0,0,0,0,0,0,0,0,0,0,0,0],"sum_hessian":[2.58E4,5.1E2,2.529E4,2.36E2,2.74E2,3.498E3,2.1792E4,9.1E1,1.45E2,8.2E1,1.92E2,3.301E3,1.97E2,2.0277E4,1.515E3],"tree_param":{"num_deleted":"0","num_feature":"19","num_nodes":"15","size_leaf_vector":"1"}},{"base_weights":[-2.4009259E-1,-2.9709566E1,1.3923557E1,-1.3965411E2,-2.8313608E1,-1.1816803E2,1.5980919E1,-5.956733E0,-1.8057524E1,-8.2275075E-1,-3.4226825E0,-2.8992815E0,-1.6461761E1,5.4730554E0,1.0985168E0],"categories":[],"categories_nodes":[],"categories_segments":[],"categories_sizes":[],"default_left":[0,0,0,0,0,0,0,0,0,0,0,0,0,0,0],"id":9,"left_children":[1,3,5,7,9,11,13,-1,-1,-1,-1,-1,-1,-1,-1],"loss_changes":[1.0794673E7,1.2844935E6,4.748723E6,3.33354E5,9.84469E5,1.105324E6,3.329035E6,0E0,0E0,0E0,0E0,0E0,0E0,0E0,0E0],"parents":[2147483647,0,0,1,1,2,2,3,3,4,4,5,5,6,6],"right_children":[2,4,6,8,10,12,14,-1,-1,-1,-1,-1,-1,-1,-1],"split_conditions":[2.5E2,2.9960644E-1,3.8535932E-1,-5.7734735E-2,-1.0022745E1,2.1531568E-3,-1.0201049E1,-5.956733E0,-1.8057524E1,-8.2275075E-1,-3.4226825E0,-2.8992815E0,-1.6461761E1,5.4730554E0,1.0985168E0],"split_indices":[18,4,4,9,17,6,17,0,0,0,0,0,0,0,0],"split_type":[0,0,0,0,0,0,0,0,0,0,0,0,0,0,0],"sum_hessian":[2.586E4,8.394E3,1.7466E4,1.04E2,8.29E3,2.67E2,1.7199E4,3.6E1,6.8E1,1.886E3,6.404E3,9.2E1,1.75E2,1.963E3,1.5236E4],"tree_param":{"num_deleted":"0","num_feature":"19","num_nodes":"15","size_leaf_vector":"1"}},{"base_weights":[-2.7772665E-1,-2.6775274E1,1.2489666E1,-2.3538242E1,-6.137352E1,3.3267174E1,4.388504E0,-1.9367323E0,-7.3913774E0,-1.3698959E1,-1.9486884E0,6.5299797E0,2.6599047E0,1.0260767E0,-4.734172E0],"categories":[],"categories_nodes":[],"categories_segments":[],"categories_sizes":[],"default_left":[0,0,0,0,0,0,0,0,0,0,0,0,0,0,0],"id":10,"left_children":[1,3,5,7,9,11,13,-1,-1,-1,-1,-1,-1,-1,-1],"loss_changes":[8.678185E6,9.32711E5,2.9136752E6,1.601515E6,2.2556172E6,1.035493E6,3.7842868E6,0E0,0E0,0E0,0E0,0E0,0E0,0E0,0E0],"parents":[2147483647,0,0,1,1,2,2,3,3,4,4,5,5,6,6],"right_children":[2,4,6,8,10,12,14,-1,-1,-1,-1,-1,-1,-1,-1],"split_conditions":[2.5E2,-3.8560715E-1,-9.952976E0,6.7E0,3.1E0,-1.0528171E1,-7.7828616E-1,-1.9367323E0,-7.3913774E0,-1.3698959E1,-1.9486884E0,6.5299797E0,2.6599047E0,1.0260767E0,-4.734172E0],"split_indices":[18,11,17,0,0,17,11,0,0,0,0,0,0,0,0],"split_type":[0,0,0,0,0,0,0,0,0,0,0,0,0,0,0],"sum_hessian":[2.565E4,8.34E3,1.731E4,7.628E3,7.12E2,4.855E3,1.2455E4,7.046E3,5.82E2,2.53E2,4.59E2,8.35E2,4.02E3,1.1186E4,1.269E3],"tree_param":{"num_deleted":"0","num_feature":"19","num_nodes":"15","size_leaf_vector":"1"}},{"base_weights":[-1.6877317E-1,-6.7711365E1,2.3348267E0,2.0290886E1,-1.167351E2,7.3170705E0,-2.4845896E1,3.2512872E0,-8.706855E0,-8.772969E0,-2.0868338E1,7.4648666E0,5.716397E-1,3.196908E0,-3.054467E0],"categories":[],"categories_nodes":[],"categories_segments":[],"categories_sizes":[],"default_left":[0,0,0,0,0,0,0,0,0,0,0,0,0,0,0],"id":11,"left_children":[1,3,5,7,9,11,13,-1,-1,-1,-1,-1,-1,-1,-1],"loss_changes":[4.3526135E6,3.9714315E6,3.3613305E6,4.3583888E5,1.5578875E6,2.260281E6,1.2458938E6,0E0,0E0,0E0,0E0,0E0,0E0,0E0,0E0],"parents":[2147483647,0,0,1,1,2,2,3,3,4,4,5,5,6,6],"right_children":[2,4,6,8,10,12,14,-1,-1,-1,-1,-1,-1,-1,-1],"split_conditions":[9.784483E-1,-4.196118E-1,-9.500761E0,1.3139265E-2,9.8469025E-1,-1.088713E1,-3.1402376E0,3.2512872E0,-8.706855E0,-8.772969E0,-2.0868338E1,7.4648666E0,5.716397E-1,3.196908E0,-3.054467E0],"split_indices":[4,11,17,6,8,17,11,0,0,0,0,0,0,0,0],"split_type":[0,0,0,0,0,0,0,0,0,0,0,0,0,0,0],"sum_hessian":[2.5738E4,9.19E2,2.4819E4,3.29E2,5.9E2,2.0975E4,3.844E3,2.96E2,3.3E1,4.5E2,1.4E2,4.86E2,2.0489E4,3.5E2,3.494E3],"tree_param":{"num_deleted":"0","num_feature":"19","num_nodes":"15","size_leaf_vector":"1"}},{"base_weights":[1.7306006E-1,-1.3511814E1,2.2313913E1,-1.1712061E2,-1.2215032E1,-4.942754E1,2.510269E1,-1.3762179E1,-2.4193287E0,-2.3104656E0,-2.5128443E-2,4.4019747E0,-1.0432625E1,2.9385889E0,-1.3235573E0],"categories":[],"categories_nodes":[],"categories_segments":[],"categories_sizes":[],"default_left":[0,0,0,0,0,0,0,0,0,0,0,0,0,0,0],"id":12,"left_children":[1,3,5,7,9,11,13,-1,-1,-1,-1,-1,-1,-1,-1],"loss_changes":[7.8575625E6,2.1519248E6,1.983142E6,3.7388425E5,2.0623375E6,1.9078725E6,1.5663E6,0E0,0E0,0E0,0E0,0E0,0E0,0E0,0E0],"parents":[2147483647,0,0,1,1,2,2,3,3,4,4,5,5,6,6],"right_children":[2,4,6,8,10,12,14,-1,-1,-1,-1,-1,-1,-1,-1],"split_conditions":[5E2,2.9960644E-1,9.784483E-1,-9.72557E0,2.5E2,-6.764486E-2,-9.322377E0,-1.3762179E1,-2.4193287E0,-2.3104656E0,-2.5128443E-2,4.4019747E0,-1.0432625E1,2.9385889E0,-1.3235573E0],"split_indices":[18,4,4,17,18,9,17,0,0,0,0,0,0,0,0],"split_type":[0,0,0,0,0,0,0,0,0,0,0,0,0,0,0],"sum_hessian":[2.5931E4,1.6026E4,9.905E3,1.97E2,1.5829E4,3.7E2,9.535E3,1.61E2,3.6E1,8.286E3,7.543E3,1.37E2,2.33E2,8.577E3,9.58E2],"tree_param":{"num_deleted":"0","num_feature":"19","num_nodes":"15","size_leaf_vector":"1"}},{"base_weights":[2.515549E-1,-1.220467E1,2.0353031E1,-1.3908939E2,-1.1148927E1,-4.7955235E1,2.2627853E1,-1.5585022E1,-1.6539694E0,4.0700895E-1,-1.8435608E0,4.4762797E0,-1.0455646E1,2.7773864E0,-7.40725E-1],"categories":[],"categories_nodes":[],"categories_segments":[],"categories_sizes":[],"default_left":[0,0,0,0,0,0,0,0,0,0,0,0,0,0,0],"id":13,"left_children":[1,3,5,7,9,11,13,-1,-1,-1,-1,-1,-1,-1,-1],"loss_changes":[6.4915705E6,2.1427108E6,1.54239E6,2.6855475E5,1.7606618E6,1.6840256E6,1.4839905E6,0E0,0E0,0E0,0E0,0E0,0E0,0E0,0E0],"parents":[2147483647,0,0,1,1,2,2,3,3,4,4,5,5,6,6],"right_children":[2,4,6,8,10,12,14,-1,-1,-1,-1,-1,-1,-1,-1],"split_conditions":[5E2,2.133128E-1,8.452222E-1,-9.692732E0,-9.922781E0,-6.402189E-2,5.4E0,-1.5585022E1,-1.6539694E0,4.0700895E-1,-1.8435608E0,4.4762797E0,-1.0455646E1,2.7773864E0,-7.40725E-1],"split_indices":[18,4,4,17,17,9,0,0,0,0,0,0,0,0,0],"split_type":[0,0,0,0,0,0,0,0,0,0,0,0,0,0,0],"sum_hessian":[2.5924E4,1.6006E4,9.918E3,1.31E2,1.5875E4,3.19E2,9.599E3,1.15E2,1.6E1,5.14E3,1.0735E4,1.21E2,1.98E2,8.195E3,1.404E3],"tree_param":{"num_deleted":"0","num_feature":"19","num_nodes":"15","size_leaf_vector":"1"}},{"base_weights":[-3.146288E-2,-1.1009431E1,1.7918474E1,-9.1105896E1,-9.712036E0,3.0477047E1,7.8641925E0,1.2635831E1,-9.683047E0,-1.8989697E0,4.417194E-2,2.8498418E0,1.164181E1,-7.9500237E0,1.140922E0],"categories":[],"categories_nodes":[],"categories_segments":[],"categories_sizes":[],"default_left":[0,0,0,0,0,0,0,0,0,0,0,0,0,0,0],"id":14,"left_children":[1,3,5,7,9,11,13,-1,-1,-1,-1,-1,-1,-1,-1],"loss_changes":[5.1027095E6,1.6688491E6,1.2405902E6,3.3092725E5,1.4896419E6,7.396105E5,1.6916102E6,0E0,0E0,0E0,0E0,0E0,0E0,0E0,0E0],"parents":[2147483647,0,0,1,1,2,2,3,3,4,4,5,5,6,6],"right_children":[2,4,6,8,10,12,14,-1,-1,-1,-1,-1,-1,-1,-1],"split_conditions":[5E2,3.8535932E-1,-9.841182E0,-1.7698464E-1,2.5E2,1.6420054E-1,1.2661456E0,1.2635831E1,-9.683047E0,-1.8989697E0,4.417194E-2,2.8498418E0,1.164181E1,-7.9500237E0,1.140922E0],"split_indices":[18,4,17,10,18,5,4,0,0,0,0,0,0,0,0],"split_type":[0,0,0,0,0,0,0,0,0,0,0,0,0,0,0],"sum_hessian":[2.5893E4,1.6067E4,9.826E3,2.55E2,1.5812E4,4.368E3,5.458E3,6E0,2.49E2,8.262E3,7.55E3,4.271E3,9.7E1,2.12E2,5.246E3],"tree_param":{"num_deleted":"0","num_feature":"19","num_nodes":"15","size_leaf_vector":"1"}},{"base_weights":[-1.5513727E-1,-1.0231105E1,1.615986E1,-7.2402205E0,-4.6028214E1,2.0037685E1,-1.3235161E1,-4.4354892E-1,-6.095819E0,-1.2403559E1,5.5124533E-1,2.3611948E0,-3.751291E0,-2.6749926E0,5.095857E0],"categories":[],"categories_nodes":[],"categories_segments":[],"categories_sizes":[],"default_left":[0,0,0,0,0,0,0,0,0,0,0,0,0,0,0],"id":15,"left_children":[1,3,5,7,9,11,13,-1,-1,-1,-1,-1,-1,-1,-1],"loss_changes":[4.2389455E6,1.7063898E6,1.1224845E6,2.2164562E6,4.941942E6,1.7900728E6,9.9732556E5,0E0,0E0,0E0,0E0,0E0,0E0,0E0,0E0],"parents":[2147483647,0,0,1,1,2,2,3,3,4,4,5,5,6,6],"right_children":[2,4,6,8,10,12,14,-1,-1,-1,-1,-1,-1,-1,-1],"split_conditions":[5E2,-3.8560715E-1,5.7E0,6.8E0,5.834854E0,-3.595116E-1,2.508126E-1,-4.4354892E-1,-6.095819E0,-1.2403559E1,5.5124533E-1,2.3611948E0,-3.751291E0,-2.6749926E0,5.095857E0],"split_indices":[18,11,0,0,4,11,11,0,0,0,0,0,0,0,0],"split_type":[0,0,0,0,0,0,0,0,0,0,0,0,0,0,0],"sum_hessian":[2.5784E4,1.594E4,9.844E3,1.4712E4,1.228E3,8.697E3,1.147E3,1.3983E4,7.29E2,4.88E2,7.4E2,8.189E3,5.08E2,9.48E2,1.99E2],"tree_param":{"num_deleted":"0","num_feature":"19","num_nodes":"15","size_leaf_vector":"1"}},{"base_weights":[1.4942468E-4,-1.7773848E1,8.498678E0,4.5459663E1,-1.9242579E1,3.6328426E1,4.075101E0,6.056072E0,1.8706979E0,-7.0278543E-1,-2.6425645E0,3.8707702E0,-6.96288E0,-7.479773E0,6.245586E-1],"categories":[],"categories_nodes":[],"categories_segments":[],"categories_sizes":[],"default_left":[0,0,0,0,0,0,0,0,0,0,0,0,0,0,0],"id":16,"left_children":[1,3,5,7,9,11,13,-1,-1,-1,-1,-1,-1,-1,-1],"loss_changes":[3.90245E6,7.770145E5,2.151517E6,7.562591E4,7.1646775E5,6.069825E5,2.582389E6,0E0,0E0,0E0,0E0,0E0,0E0,0E0,0E0],"parents":[2147483647,0,0,1,1,2,2,3,3,4,4,5,5,6,6],"right_children":[2,4,6,8,10,12,14,-1,-1,-1,-1,-1,-1,-1,-1],"split_conditions":[2.5E2,-3.2545977E0,-1.0153722E1,6.7509605E1,-9.884317E0,9.7E0,9.784483E-1,6.056072E0,1.8706979E0,-7.0278543E-1,-2.6425645E0,3.8707702E0,-6.96288E0,-7.479773E0,6.245586E-1],"split_indices":[18,11,17,4,17,0,4,0,0,0,0,0,0,0,0],"split_type":[0,0,0,0,0,0,0,0,0,0,0,0,0,0,0],"sum_hessian":[2.5833E4,8.356E3,1.7477E4,1.89E2,8.167E3,2.396E3,1.5081E4,1.2E2,6.9E1,3.025E3,5.142E3,2.344E3,5.2E1,4.03E2,1.4678E4],"tree_param":{"num_deleted":"0","num_feature":"19","num_nodes":"15","size_leaf_vector":"1"}},{"base_weights":[3.2403508E-1,-8.387435E0,1.4344918E1,2.848739E1,-1.0822493E1,4.9132805E1,1.1305182E1,1.6149381E0,9.4107485E0,-7.9723E-1,-4.490418E0,4.2192836E0,1.2909899E1,-3.9669151E0,1.3366168E0],"categories":[],"categories_nodes":[],"categories_segments":[],"categories_sizes":[],"default_left":[0,0,0,0,0,0,0,0,0,0,0,0,0,0,0],"id":17,"left_children":[1,3,5,7,9,11,13,-1,-1,-1,-1,-1,-1,-1,-1],"loss_changes":[3.1544508E6,1.4306102E6,1.0460125E6,7.9757644E5,1.4511955E6,4.357485E5,9.568666E5,0E0,0E0,0E0,0E0,0E0,0E0,0E0,0E0],"parents":[2147483647,0,0,1,1,2,2,3,3,4,4,5,5,6,6],"right_children":[2,4,6,8,10,12,14,-1,-1,-1,-1,-1,-1,-1,-1],"split_conditions":[5E2,-1.0444329E1,-1.0335289E1,4.8568156E-2,-4.9552163E-1,1.6420054E-1,1.4334565E0,1.6149381E0,9.4107485E0,-7.9723E-1,-4.490418E0,4.2192836E0,1.2909899E1,-3.9669151E0,1.3366168E0],"split_indices":[18,17,17,5,11,5,4,0,0,0,0,0,0,0,0],"split_type":[0,0,0,0,0,0,0,0,0,0,0,0,0,0,0],"sum_hessian":[2.5824E4,1.5928E4,9.896E3,9.86E2,1.4942E4,7.94E2,9.102E3,8.31E2,1.55E2,1.379E4,1.152E3,7.32E2,6.2E1,3.53E2,8.749E3],"tree_param":{"num_deleted":"0","num_feature":"19","num_nodes":"15","size_leaf_vector":"1"}},{"base_weights":[5.0089758E-2,3.0782907E1,-2.669527E0,2.492134E1,9.981807E1,-5.8586746E1,-1.0796479E0,3.0913217E0,-9.953465E-1,1.4584636E1,-7.2680984E0,-8.2230395E-1,-1.0337932E1,9.8827206E-2,-4.300486E0],"categories":[],"categories_nodes":[],"categories_segments":[],"categories_sizes":[],"default_left":[0,0,0,0,0,0,0,0,0,0,0,0,0,0,0],"id":18,"left_children":[1,3,5,7,9,11,13,-1,-1,-1,-1,-1,-1,-1,-1],"loss_changes":[2.1456188E6,8.420256E5,2.0965924E6,4.0256612E5,1.3047938E6,1.4700095E6,1.9882871E6,0E0,0E0,0E0,0E0,0E0,0E0,0E0,0E0],"parents":[2147483647,0,0,1,1,2,2,3,3,4,4,5,5,6,6],"right_children":[2,4,6,8,10,12,14,-1,-1,-1,-1,-1,-1,-1,-1],"split_conditions":[-1.0335289E1,1.6420054E-1,9.784483E-1,5.3E0,8.3E0,2.5082612E-3,-8.843296E0,3.0913217E0,-9.953465E-1,1.4584636E1,-7.2680984E0,-8.2230395E-1,-1.0337932E1,9.8827206E-2,-4.300486E0],"split_indices":[17,5,4,0,0,6,17,0,0,0,0,0,0,0,0],"split_type":[0,0,0,0,0,0,0,0,0,0,0,0,0,0,0],"sum_hessian":[2.5669E4,2.086E3,2.3583E4,1.924E3,1.62E2,6.51E2,2.2932E4,1.642E3,2.82E2,1.28E2,3.4E1,3.07E2,3.44E2,2.1855E4,1.077E3],"tree_param":{"num_deleted":"0","num_feature":"19","num_nodes":"15","size_leaf_vector":"1"}},{"base_weights":[6.689133E-2,-1.4650572E1,7.1195674E0,-1.5345036E1,7.426324E1,9.152859E0,-3.578676E1,-1.2111326E0,-3.650306E0,1.4057384E1,-1.2900758E0,-9.08522E0,9.9323195E-1,5.639606E0,-3.7281091E0],"categories":[],"categories_nodes":[],"categories_segments":[],"categories_sizes":[],"default_left":[0,0,0,0,0,0,0,0,0,0,0,0,0,0,0],"id":19,"left_children":[1,3,5,7,9,11,13,-1,-1,-1,-1,-1,-1,-1,-1],"loss_changes":[2.6801555E6,5.17657E5,1.5232079E6,5.67503E5,3.775068E5,1.3000954E6,1.1092644E5,0E0,0E0,0E0,0E0,0E0,0E0,0E0,0E0],"parents":[2147483647,0,0,1,1,2,2,3,3,4,4,5,5,6,6],"right_children":[2,4,6,8,10,12,14,-1,-1,-1,-1,-1,-1,-1,-1],"split_conditions":[2.5E2,2.3135501E-1,-8.843296E0,5.9E0,7.4E0,2.133128E-1,7.1983236E-1,-1.2111326E0,-3.650306E0,1.4057384E1,-1.2900758E0,-9.08522E0,9.9323195E-1,5.639606E0,-3.7281091E0],"split_indices":[18,5,17,0,0,4,4,0,0,0,0,0,0,0,0],"split_type":[0,0,0,0,0,0,0,0,0,0,0,0,0,0,0],"sum_hessian":[2.5819E4,8.364E3,1.7455E4,8.3E3,6.4E1,1.6666E4,7.89E2,7.201E3,1.099E3,3.6E1,2.8E1,1.28E2,1.6538E4,1.2E1,7.77E2],"tree_param":{"num_deleted":"0","num_feature":"19","num_nodes":"15","size_leaf_vector":"1"}},{"base_weights":[1.4773804E-1,-7.1754127E0,1.1910243E1,8.059464E0,-1.1418157E1,1.5951955E1,-1.2777053E1,1.1685628E0,-3.1311295E0,-6.3586097E0,-9.665012E-1,3.3148224E0,1.1472567E0,3.644713E0,-2.307963E0],"categories":[],"categories_nodes":[],"categories_segments":[],"categories_sizes":[],"default_left":[0,0,0,0,0,0,0,0,0,0,0,0,0,0,0],"id":20,"left_children":[1,3,5,7,9,11,13,-1,-1,-1,-1,-1,-1,-1,-1],"loss_changes":[2.226768E6,1.0298996E6,9.899111E5,4.9590244E5,1.1391354E6,6.56213E5,7.088029E5,0E0,0E0,0E0,0E0,0E0,0E0,0E0,0E0],"parents":[2147483647,0,0,1,1,2,2,3,3,4,4,5,5,6,6],"right_children":[2,4,6,8,10,12,14,-1,-1,-1,-1,-1,-1,-1,-1],"split_conditions":[5E2,-1.0027924E1,5.4E0,6.3E0,1.4334565E0,-1.00335E1,-2.7029542E-2,1.1685628E0,-3.1311295E0,-6.3586097E0,-9.665012E-1,3.3148224E0,1.1472567E0,3.644713E0,-2.307963E0],"split_indices":[18,17,0,0,4,17,5,0,0,0,0,0,0,0,0],"split_type":[0,0,0,0,0,0,0,0,0,0,0,0,0,0,0],"sum_hessian":[2.5849E4,1.5931E4,9.918E3,3.47E3,1.2461E4,8.523E3,1.395E3,3.178E3,2.92E2,4.04E2,1.2057E4,1.76E3,6.763E3,2.41E2,1.154E3],"tree_param":{"num_deleted":"0","num_feature":"19","num_nodes":"15","size_leaf_vector":"1"}},{"base_weights":[-3.9703518E-1,-1.2690546E1,5.41958E0,4.948495E1,-1.3774468E1,1.54342375E1,-1.373155E0,2.063516E0,8.012626E0,-8.9126533E-1,-2.602233E0,1.3868783E0,7.501737E0,-6.5510783E0,9.574156E-2],"categories":[],"categories_nodes":[],"categories_segments":[],"categories_sizes":[],"default_left":[0,0,0,0,0,0,0,0,0,0,0,0,0,0,0],"id":21,"left_children":[1,3,5,7,9,11,13,-1,-1,-1,-1,-1,-1,-1,-1],"loss_changes":[1.8552366E6,5.622709E5,1.1981111E6,1.24757875E5,4.87516E5,6.6288925E5,1.5688265E6,0E0,0E0,0E0,0E0,0E0,0E0,0E0,0E0],"parents":[2147483647,0,0,1,1,2,2,3,3,4,4,5,5,6,6],"right_children":[2,4,6,8,10,12,14,-1,-1,-1,-1,-1,-1,-1,-1],"split_conditions":[2.5E2,-3.2907398E0,-9.869179E0,-7.978277E1,3.9553032E1,1.6420054E-1,1.2661456E0,2.063516E0,8.012626E0,-8.9126533E-1,-2.602233E0,1.3868783E0,7.501737E0,-6.5510783E0,9.574156E-2],"split_indices":[18,11,17,2,4,5,4,0,0,0,0,0,0,0,0],"split_type":[0,0,0,0,0,0,0,0,0,0,0,0,0,0,0],"sum_hessian":[2.5943E4,8.332E3,1.7611E4,1.42E2,8.19E3,7.117E3,1.0494E4,7.4E1,6.8E1,5.864E3,2.326E3,6.936E3,1.81E2,3.67E2,1.0127E4],"tree_param":{"num_deleted":"0","num_feature":"19","num_nodes":"15","size_leaf_vector":"1"}},{"base_weights":[-4.23055E-3,-6.238019E0,1.0169621E1,-4.4606776E0,-2.7951557E1,1.3513857E1,-1.4918035E1,-5.349473E-1,1.1688467E1,4.941486E0,-3.508614E0,1.2505208E0,1.0361561E1,3.889415E0,-2.592228E0],"categories":[],"categories_nodes":[],"categories_segments":[],"categories_sizes":[],"default_left":[0,0,0,0,0,0,0,0,0,0,0,0,0,0,0],"id":22,"left_children":[1,3,5,7,9,11,13,-1,-1,-1,-1,-1,-1,-1,-1],"loss_changes":[1.6427472E6,6.197075E5,8.2585194E5,1.6018908E6,6.723859E5,7.879149E5,6.867323E5,0E0,0E0,0E0,0E0,0E0,0E0,0E0,0E0],"parents":[2147483647,0,0,1,1,2,2,3,3,4,4,5,5,6,6],"right_children":[2,4,6,8,10,12,14,-1,-1,-1,-1,-1,-1,-1,-1],"split_conditions":[5E2,6.4E0,5.7E0,1.6420054E-1,-8.168162E-2,8.78481E-2,-3.5248708E-2,-5.349473E-1,1.1688467E1,4.941486E0,-3.508614E0,1.2505208E0,1.0361561E1,3.889415E0,-2.592228E0],"split_indices":[18,0,0,5,5,5,5,0,0,0,0,0,0,0,0],"split_type":[0,0,0,0,0,0,0,0,0,0,0,0,0,0,0],"sum_hessian":[2.59E4,1.606E4,9.84E3,1.4846E4,1.214E3,8.683E3,1.157E3,1.4739E4,1.07E2,1.02E2,1.112E3,8.588E3,9.5E1,1.96E2,9.61E2],"tree_param":{"num_deleted":"0","num_feature":"19","num_nodes":"15","size_leaf_vector":"1"}},{"base_weights":[-1.9347678E-1,-1.0523564E1,4.7807636E0,-1.1144641E1,6.910754E1,7.0042353E0,-1.0645799E1,-8.206237E-1,-2.6196299E0,1.1189576E1,-4.8833704E0,6.3245416E-1,9.389956E0,-2.380381E0,1.0576338E0],"categories":[],"categories_nodes":[],"categories_segments":[],"categories_sizes":[],"default_left":[0,0,0,0,0,0,0,0,0,0,0,0,0,0,0],"id":23,"left_children":[1,3,5,7,9,11,13,-1,-1,-1,-1,-1,-1,-1,-1],"loss_changes":[1.3249955E6,4.152698E5,5.970751E5,3.6762812E5,3.334865E5,8.9791894E5,6.126275E5,0E0,0E0,0E0,0E0,0E0,0E0,0E0,0E0],"parents":[2147483647,0,0,1,1,2,2,3,3,4,4,5,5,6,6],"right_children":[2,4,6,8,10,12,14,-1,-1,-1,-1,-1,-1,-1,-1],"split_conditions":[2.5E2,2.3135501E-1,5.2E0,5.4E0,8E0,8.78481E-2,3.2514063E-1,-8.206237E-1,-2.6196299E0,1.1189576E1,-4.8833704E0,6.3245416E-1,9.389956E0,-2.380381E0,1.0576338E0],"split_indices":[18,5,0,0,0,5,10,0,0,0,0,0,0,0,0],"split_type":[0,0,0,0,0,0,0,0,0,0,0,0,0,0,0],"sum_hessian":[2.5784E4,8.38E3,1.7404E4,8.316E3,6.4E1,1.5212E4,2.192E3,6.959E3,1.357E3,4.7E1,1.7E1,1.5095E4,1.17E2,1.353E3,8.39E2],"tree_param":{"num_deleted":"0","num_feature":"19","num_nodes":"15","size_leaf_vector":"1"}},{"base_weights":[9.861326E-2,6.1894512E1,-8.9927346E-1,9.0393906E1,5.2317635E1,1.0898255E0,-2.8140911E1,1.44586735E1,8.156168E0,-1.332318E0,5.5467277E0,3.3929378E-1,-2.5996797E0,-5.219787E-2,-3.3018901E0],"categories":[],"categories_nodes":[],"categories_segments":[],"categories_sizes":[],"default_left":[0,0,0,0,0,0,0,0,0,0,0,0,0,0,0],"id":24,"left_children":[1,3,5,7,9,11,13,-1,-1,-1,-1,-1,-1,-1,-1],"loss_changes":[1.5948438E6,1.07447375E5,1.3791806E6,3.7028875E4,6.4829938E4,1.479888E6,2.3332625E5,0E0,0E0,0E0,0E0,0E0,0E0,0E0,0E0],"parents":[2147483647,0,0,1,1,2,2,3,3,4,4,5,5,6,6],"right_children":[2,4,6,8,10,12,14,-1,-1,-1,-1,-1,-1,-1,-1],"split_conditions":[-3.2907398E0,-3.5186863E0,-9.141385E0,4.4055695E1,-7.9782814E1,-3.8560715E-1,-2.739969E0,1.44586735E1,8.156168E0,-1.332318E0,5.5467277E0,3.3929378E-1,-2.5996797E0,-5.219787E-2,-3.3018901E0],"split_indices":[11,11,17,4,2,11,11,0,0,0,0,0,0,0,0],"split_type":[0,0,0,0,0,0,0,0,0,0,0,0,0,0,0],"sum_hessian":[2.5861E4,4.1E2,2.5451E4,1.01E2,3.09E2,2.372E4,1.731E3,1.2E1,8.9E1,1.4E1,2.95E2,2.1862E4,1.858E3,2.6E2,1.471E3],"tree_param":{"num_deleted":"0","num_feature":"19","num_nodes":"15","size_leaf_vector":"1"}},{"base_weights":[-1.2639324E-1,4.887061E1,-1.1230617E0,5.526245E1,-1.4734319E1,6.61098E-1,-2.8613829E1,5.2919116E0,1.1844727E1,-4.07629E0,2.374384E0,-4.617829E-1,9.236161E-1,-3.2182674E0,6.9745487E-1],"categories":[],"categories_nodes":[],"categories_segments":[],"categories_sizes":[],"default_left":[0,0,0,0,0,0,0,0,0,0,0,0,0,0,0],"id":25,"left_children":[1,3,5,7,9,11,13,-1,-1,-1,-1,-1,-1,-1,-1],"loss_changes":[1.2664121E6,2.1100188E5,1.2466208E6,6.3321875E4,4.9041395E4,1.0804785E6,1.9696212E5,0E0,0E0,0E0,0E0,0E0,0E0,0E0,0E0],"parents":[2147483647,0,0,1,1,2,2,3,3,4,4,5,5,6,6],"right_children":[2,4,6,8,10,12,14,-1,-1,-1,-1,-1,-1,-1,-1],"split_conditions":[-3.2545977E0,5.9E0,-9.075737E0,4.4601656E-2,2.278484E-2,5E2,-3.3479464E-1,5.2919116E0,1.1844727E1,-4.07629E0,2.374384E0,-4.617829E-1,9.236161E-1,-3.2182674E0,6.9745487E-1],"split_indices":[11,0,17,5,5,18,11,0,0,0,0,0,0,0,0],"split_type":[0,0,0,0,0,0,0,0,0,0,0,0,0,0,0],"sum_hessian":[2.5931E4,5.16E2,2.5415E4,4.69E2,4.7E1,2.3867E4,1.548E3,4.54E2,1.5E1,2.8E1,1.9E1,1.4773E4,9.094E3,1.407E3,1.41E2],"tree_param":{"num_deleted":"0","num_feature":"19","num_nodes":"15","size_leaf_vector":"1"}},{"base_weights":[3.860556E-2,2.7581398E1,-1.67588E0,1.9223537E1,7.1614494E1,-4.120247E1,-3.8618648E-1,2.68729E0,-3.7792745E0,1.1009891E1,-4.896621E0,1.886602E0,-7.4558E0,4.9832163E0,-1.19911514E-1],"categories":[],"categories_nodes":[],"categories_segments":[],"categories_sizes":[],"default_left":[0,0,0,0,0,0,0,0,0,0,0,0,0,0,0],"id":26,"left_children":[1,3,5,7,9,11,13,-1,-1,-1,-1,-1,-1,-1,-1],"loss_changes":[1.2192166E6,5.554414E5,1.2390355E6,5.5621956E5,1.1237462E6,1.5401836E6,9.6101444E5,0E0,0E0,0E0,0E0,0E0,0E0,0E0,0E0],"parents":[2147483647,0,0,1,1,2,2,3,3,4,4,5,5,6,6],"right_children":[2,4,6,8,10,12,14,-1,-1,-1,-1,-1,-1,-1,-1],"split_conditions":[-1.0469634E1,5.3326763E-2,1.1190274E0,-1.6879658E-1,8.1E0,-4.196118E-1,-3.2907398E0,2.68729E0,-3.7792745E0,1.1009891E1,-4.896621E0,1.886602E0,-7.4558E0,4.9832163E0,-1.19911514E-1],"split_indices":[17,5,4,11,0,11,11,0,0,0,0,0,0,0,0],"split_type":[0,0,0,0,0,0,0,0,0,0,0,0,0,0,0],"sum_hessian":[2.5817E4,1.512E3,2.4305E4,1.272E3,2.4E2,7.67E2,2.3538E4,1.122E3,1.5E2,1.82E2,5.8E1,2.74E2,4.93E2,3.74E2,2.3164E4],"tree_param":{"num_deleted":"0","num_feature":"19","num_nodes":"15","size_leaf_vector":"1"}},{"base_weights":[-5.9841722E-2,7.01996E0,-5.848783E0,4.828824E1,5.4966006E0,-5.210388E1,-3.8472905E0,-1.8046143E0,7.2648506E0,6.2874687E-1,-5.537798E0,-1.1390887E1,1.7669744E0,-1.6229187E-1,-2.937622E0],"categories":[],"categories_nodes":[],"categories_segments":[],"categories_sizes":[],"default_left":[0,0,0,0,0,0,0,0,0,0,0,0,0,0,0],"id":27,"left_children":[1,3,5,7,9,11,13,-1,-1,-1,-1,-1,-1,-1,-1],"loss_changes":[1.0598606E6,7.310593E5,1.3169244E6,6.703033E5,5.40521E5,2.5463042E6,7.743975E5,0E0,0E0,0E0,0E0,0E0,0E0,0E0,0E0],"parents":[2147483647,0,0,1,1,2,2,3,3,4,4,5,5,6,6],"right_children":[2,4,6,8,10,12,14,-1,-1,-1,-1,-1,-1,-1,-1],"split_conditions":[-9.838774E0,-1.1079643E1,1.7354839E0,1.7354839E0,9.7E0,-9.741422E0,-8.843296E0,-1.8046143E0,7.2648506E0,6.2874687E-1,-5.537798E0,-1.1390887E1,1.7669744E0,-1.6229187E-1,-2.937622E0],"split_indices":[17,17,4,4,0,17,17,0,0,0,0,0,0,0,0],"split_type":[0,0,0,0,0,0,0,0,0,0,0,0,0,0,0],"sum_hessian":[2.5858E4,1.1632E4,1.4226E4,4.13E2,1.1219E4,5.89E2,1.3637E4,1.11E2,3.02E2,1.1076E4,1.43E2,3.12E2,2.77E2,1.2545E4,1.092E3],"tree_param":{"num_deleted":"0","num_feature":"19","num_nodes":"15","size_leaf_vector":"1"}},{"base_weights":[2.023616E-1,6.684672E0,-5.129575E0,5.712347E0,5.0543125E1,-4.8194805E1,-3.5562427E0,7.0967346E-1,-1.8636999E0,8.793463E0,-5.5130687E0,-1.0461101E1,2.28578E0,-1.6408287E-1,-2.804385E0],"categories":[],"categories_nodes":[],"categories_segments":[],"categories_sizes":[],"default_left":[0,0,0,0,0,0,0,0,0,0,0,0,0,0,0],"id":28,"left_children":[1,3,5,7,9,11,13,-1,-1,-1,-1,-1,-1,-1,-1],"loss_changes":[8.973312E5,4.993788E5,9.6501156E5,3.8657138E5,1.0084787E6,2.0146669E6,6.4460125E5,0E0,0E0,0E0,0E0,0E0,0E0,0E0,0E0],"parents":[2147483647,0,0,1,1,2,2,3,3,4,4,5,5,6,6],"right_children":[2,4,6,8,10,12,14,-1,-1,-1,-1,-1,-1,-1,-1],"split_conditions":[-9.838774E0,1.6420054E-1,1.4334565E0,6.3E0,8.2E0,-9.741422E0,-8.793332E0,7.0967346E-1,-1.8636999E0,8.793463E0,-5.5130687E0,-1.0461101E1,2.28578E0,-1.6408287E-1,-2.804385E0],"split_indices":[17,5,4,0,0,17,17,0,0,0,0,0,0,0,0],"split_type":[0,0,0,0,0,0,0,0,0,0,0,0,0,0,0],"sum_hessian":[2.596E4,1.1716E4,1.4244E4,1.1463E4,2.53E2,5.01E2,1.3743E4,1.0847E4,6.16E2,1.87E2,6.6E1,2.79E2,2.22E2,1.2747E4,9.96E2],"tree_param":{"num_deleted":"0","num_feature":"19","num_nodes":"15","size_leaf_vector":"1"}},{"base_weights":[8.7957256E-2,-9.171859E0,4.4795213E0,-9.939393E0,4.8667515E1,5.2994007E1,3.7656894E0,-7.838381E-1,-3.5266194E0,8.465354E0,2.4845626E0,5.9603286E0,-2.3175738E0,3.4625428E0,2.683477E-1],"categories":[],"categories_nodes":[],"categories_segments":[],"categories_sizes":[],"default_left":[0,0,0,0,0,0,0,0,0,0,0,0,0,0,0],"id":29,"left_children":[1,3,5,7,9,11,13,-1,-1,-1,-1,-1,-1,-1,-1],"loss_changes":[1.0504605E6,3.6939562E5,6.066079E5,4.361678E5,9.1337516E4,1.2925175E5,5.766362E5,0E0,0E0,0E0,0E0,0E0,0E0,0E0,0E0],"parents":[2147483647,0,0,1,1,2,2,3,3,4,4,5,5,6,6],"right_children":[2,4,6,8,10,12,14,-1,-1,-1,-1,-1,-1,-1,-1],"split_conditions":[2.5E2,1.0797013E0,-3.2907398E0,6.8E0,1.13E1,6.2E0,-1.0678908E1,-7.838381E-1,-3.5266194E0,8.465354E0,2.4845626E0,5.9603286E0,-2.3175738E0,3.4625428E0,2.683477E-1],"split_indices":[18,11,11,0,0,0,17,0,0,0,0,0,0,0,0],"split_type":[0,0,0,0,0,0,0,0,0,0,0,0,0,0,0],"sum_hessian":[2.583E4,8.309E3,1.7521E4,8.201E3,1.08E2,2.53E2,1.7268E4,7.574E3,6.27E2,4.2E1,6.6E1,2.33E2,2E1,5.84E2,1.6684E4],"tree_param":{"num_deleted":"0","num_feature":"19","num_nodes":"15","size_leaf_vector":"1"}},{"base_weights":[6.955179E-4,-4.562938E0,7.410851E0,2.3878092E1,-5.747606E0,1.2665675E1,5.967645E-1,5.605659E0,1.8559436E0,-4.1853356E-1,-2.3936667E0,1.4625977E0,-8.0541533E-1,3.042563E-1,-4.70348E0],"categories":[],"categories_nodes":[],"categories_segments":[],"categories_sizes":[],"default_left":[0,0,0,0,0,0,0,0,0,0,0,0,0,0,0],"id":30,"left_children":[1,3,5,7,9,11,13,-1,-1,-1,-1,-1,-1,-1,-1],"loss_changes":[8.715716E5,5.3754325E5,3.5172288E5,1.0815103E5,4.3503756E5,2.2538031E5,4.9851812E5,0E0,0E0,0E0,0E0,0E0,0E0,0E0,0E0],"parents":[2147483647,0,0,1,1,2,2,3,3,4,4,5,5,6,6],"right_children":[2,4,6,8,10,12,14,-1,-1,-1,-1,-1,-1,-1,-1],"split_conditions":[5E2,-3.1402376E0,4.0459003E1,-1.0171322E1,-3.8560715E-1,-9.282103E0,-3.3479464E-1,5.605659E0,1.8559436E0,-4.1853356E-1,-2.3936667E0,1.4625977E0,-8.0541533E-1,3.042563E-1,-4.70348E0],"split_indices":[18,11,3,17,11,17,11,0,0,0,0,0,0,0,0],"split_type":[0,0,0,0,0,0,0,0,0,0,0,0,0,0,0],"sum_hessian":[2.5771E4,1.5949E4,9.822E3,6.37E2,1.5312E4,5.545E3,4.277E3,8.9E1,5.48E2,1.4102E4,1.21E3,5.066E3,4.79E2,4.069E3,2.08E2],"tree_param":{"num_deleted":"0","num_feature":"19","num_nodes":"15","size_leaf_vector":"1"}},{"base_weights":[3.3924438E-2,2.05657E1,-1.3409121E0,-2.163363E1,2.6183805E1,3.8211647E1,-1.998598E0,-1.2259033E1,8.5266954E-1,1.8194436E0,7.5267406E0,5.242606E0,2.3586805E0,1.5869628E-1,-1.1829842E0],"categories":[],"categories_nodes":[],"categories_segments":[],"categories_sizes":[],"default_left":[0,0,0,0,0,0,0,0,0,0,0,0,0,0,0],"id":31,"left_children":[1,3,5,7,9,11,13,-1,-1,-1,-1,-1,-1,-1,-1],"loss_changes":[7.290961E5,3.8487344E5,6.298029E5,5.826187E5,5.597931E5,8.108531E4,8.394394E5,0E0,0E0,0E0,0E0,0E0,0E0,0E0,0E0],"parents":[2147483647,0,0,1,1,2,2,3,3,4,4,5,5,6,6],"right_children":[2,4,6,8,10,12,14,-1,-1,-1,-1,-1,-1,-1,-1],"split_conditions":[-1.0444329E1,-2.6224574E-1,-3.2907398E0,3.6714826E0,5.3326763E-2,-3.4070752E0,4.018108E1,-1.2259033E1,8.5266954E-1,1.8194436E0,7.5267406E0,5.242606E0,2.3586805E0,1.5869628E-1,-1.1829842E0],"split_indices":[17,15,11,4,5,11,4,0,0,0,0,0,0,0,0],"split_type":[0,0,0,0,0,0,0,0,0,0,0,0,0,0,0],"sum_hessian":[2.5827E4,1.62E3,2.4207E4,1.9E2,1.43E3,3.95E2,2.3812E4,4.3E1,1.47E2,1.231E3,1.99E2,1.99E2,1.96E2,1.7449E4,6.363E3],"tree_param":{"num_deleted":"0","num_feature":"19","num_nodes":"15","size_leaf_vector":"1"}},{"base_weights":[-2.2726524E-1,1.4814819E0,-1.5967975E1,9.340573E-1,7.6690155E1,2.492358E1,-2.4740973E1,-2.666917E0,2.0379467E-1,9.726649E0,4.4697857E0,-5.4898014E0,4.264219E0,-2.2386653E0,-8.860957E0],"categories":[],"categories_nodes":[],"categories_segments":[],"categories_sizes":[],"default_left":[0,0,0,0,0,0,0,0,0,0,0,0,0,0,0],"id":32,"left_children":[1,3,5,7,9,11,13,-1,-1,-1,-1,-1,-1,-1,-1],"loss_changes":[6.973794E5,9.6287875E5,9.1146144E5,7.0761944E5,1.06902375E5,6.37374E5,3.12434E5,0E0,0E0,0E0,0E0,0E0,0E0,0E0,0E0],"parents":[2147483647,0,0,1,1,2,2,3,3,4,4,5,5,6,6],"right_children":[2,4,6,8,10,12,14,-1,-1,-1,-1,-1,-1,-1,-1],"split_conditions":[5.9E0,1.3411948E-1,-4.0401552E-2,9.784483E-1,1.225353E0,3.8420305E0,1.17E1,-2.666917E0,2.0379467E-1,9.726649E0,4.4697857E0,-5.4898014E0,4.264219E0,-2.2386653E0,-8.860957E0],"split_indices":[0,5,5,4,10,10,0,0,0,0,0,0,0,0,0],"split_type":[0,0,0,0,0,0,0,0,0,0,0,0,0,0,0],"sum_hessian":[2.5926E4,2.3388E4,2.538E3,2.322E4,1.68E2,4.48E2,2.09E3,8.92E2,2.2328E4,1.01E2,6.7E1,8.1E1,3.67E2,2.017E3,7.3E1],"tree_param":{"num_deleted":"0","num_feature":"19","num_nodes":"15","size_leaf_vector":"1"}},{"base_weights":[-9.134363E-2,-7.6145654E0,3.5374944E0,4.398417E1,-8.316813E0,4.9774284E0,-1.4734231E1,6.6618342E0,1.1945851E0,-6.7501366E-1,-3.0706108E0,6.726146E-1,-3.3980286E0,-8.090964E0,2.7613144E0],"categories":[],"categories_nodes":[],"categories_segments":[],"categories_sizes":[],"default_left":[0,0,0,0,0,0,0,0,0,0,0,0,0,0,0],"id":33,"left_children":[1,3,5,7,9,11,13,-1,-1,-1,-1,-1,-1,-1,-1],"loss_changes":[7.05091E5,3.0488578E5,4.5847375E5,8.114734E4,2.906495E5,1.1005321E6,3.5696318E6,0E0,0E0,0E0,0E0,0E0,0E0,0E0,0E0],"parents":[2147483647,0,0,1,1,2,2,3,3,4,4,5,5,6,6],"right_children":[2,4,6,8,10,12,14,-1,-1,-1,-1,-1,-1,-1,-1],"split_conditions":[2.5E2,-8.168162E-2,-3.8560715E-1,-3.7847217E-2,7.980211E1,6.5E0,6.493411E0,6.6618342E0,1.1945851E0,-6.7501366E-1,-3.0706108E0,6.726146E-1,-3.3980286E0,-8.090964E0,2.7613144E0],"split_indices":[18,5,11,6,4,0,4,0,0,0,0,0,0,0,0],"split_type":[0,0,0,0,0,0,0,0,0,0,0,0,0,0,0],"sum_hessian":[2.5825E4,8.403E3,1.7422E4,1.12E2,8.291E3,1.615E4,1.272E3,6.5E1,4.7E1,7.75E3,5.41E2,1.5457E4,6.93E2,4.96E2,7.76E2],"tree_param":{"num_deleted":"0","num_feature":"19","num_nodes":"15","size_leaf_vector":"1"}},{"base_weights":[-1.1943168E-2,9.936759E0,-2.828069E0,1.1085513E1,-5.2070007E1,-1.0507935E0,-2.0042692E1,8.209139E-1,5.0951495E0,-1.6971534E0,-8.071311E0,1.5624015E-1,-2.3355777E0,-8.862732E0,5.04009E-2],"categories":[],"categories_nodes":[],"categories_segments":[],"categories_sizes":[],"default_left":[0,0,0,0,0,0,0,0,0,0,0,0,0,0,0],"id":34,"left_children":[1,3,5,7,9,11,13,-1,-1,-1,-1,-1,-1,-1,-1],"loss_changes":[7.248787E5,4.07161E5,6.169296E5,6.423042E5,1.0318441E5,1.0654695E6,2.659182E6,0E0,0E0,0E0,0E0,0E0,0E0,0E0,0E0],"parents":[2147483647,0,0,1,1,2,2,3,3,4,4,5,5,6,6],"right_children":[2,4,6,8,10,12,14,-1,-1,-1,-1,-1,-1,-1,-1],"split_conditions":[-1.0022745E1,9.9E0,-6.692331E-1,5.069489E-2,-1.5091205E-2,5.4E0,-1.263797E-1,8.209139E-1,5.0951495E0,-1.6971534E0,-8.071311E0,1.5624015E-1,-2.3355777E0,-8.862732E0,5.04009E-2],"split_indices":[17,0,11,5,6,0,16,0,0,0,0,0,0,0,0],"split_type":[0,0,0,0,0,0,0,0,0,0,0,0,0,0,0],"sum_hessian":[2.5871E4,5.707E3,2.0164E4,5.604E3,1.03E2,1.8278E4,1.886E3,5.228E3,3.76E2,4.7E1,5.6E1,1.6362E4,1.916E3,4.34E2,1.452E3],"tree_param":{"num_deleted":"0","num_feature":"19","num_nodes":"15","size_leaf_vector":"1"}},{"base_weights":[-3.26821E-2,-4.047501E0,6.4221706E0,5.196437E-1,-8.269123E0,8.693176E0,-7.584819E0,1.0274018E-1,-4.5772133E0,-3.4287393E0,-6.4945406E-1,-2.6819153E0,9.6815556E-1,-1.9963467E0,1.3619385E0],"categories":[],"categories_nodes":[],"categories_segments":[],"categories_sizes":[],"default_left":[0,0,0,0,0,0,0,0,0,0,0,0,0,0,0],"id":35,"left_children":[1,3,5,7,9,11,13,-1,-1,-1,-1,-1,-1,-1,-1],"loss_changes":[6.6917894E5,3.0695394E5,3.1504803E5,1.7981347E5,3.8175475E5,2.9934388E5,3.6301838E5,0E0,0E0,0E0,0E0,0E0,0E0,0E0,0E0],"parents":[2147483647,0,0,1,1,2,2,3,3,4,4,5,5,6,6],"right_children":[2,4,6,8,10,12,14,-1,-1,-1,-1,-1,-1,-1,-1],"split_conditions":[5E2,-9.820401E0,5.4E0,9.9E0,2.8723686E0,9E-1,2.9824063E-1,1.0274018E-1,-4.5772133E0,-3.4287393E0,-6.4945406E-1,-2.6819153E0,9.6815556E-1,-1.9963467E0,1.3619385E0],"split_indices":[18,17,0,0,4,0,10,0,0,0,0,0,0,0,0],"split_type":[0,0,0,0,0,0,0,0,0,0,0,0,0,0,0],"sum_hessian":[2.582E4,1.5919E4,9.901E3,7.647E3,8.272E3,8.52E3,1.381E3,7.565E3,8.2E1,5.27E2,7.745E3,2.3E2,8.29E3,8.72E2,5.09E2],"tree_param":{"num_deleted":"0","num_feature":"19","num_nodes":"15","size_leaf_vector":"1"}},{"base_weights":[1.7002189E-1,2.9849667E1,-6.76421E-1,4.202578E1,1.2025358E1,1.0036445E0,-1.3397423E1,6.8495865E0,3.470995E0,5.781339E0,-6.55703E-3,2.4066229E-1,-1.6452566E0,-1.7736771E0,1.4731821E0],"categories":[],"categories_nodes":[],"categories_segments":[],"categories_sizes":[],"default_left":[0,0,0,0,0,0,0,0,0,0,0,0,0,0,0],"id":36,"left_children":[1,3,5,7,9,11,13,-1,-1,-1,-1,-1,-1,-1,-1],"loss_changes":[6.4869856E5,1.5488869E5,5.3658175E5,7.9924E4,1.6166078E5,5.4319406E5,3.5778262E5,0E0,0E0,0E0,0E0,0E0,0E0,0E0,0E0],"parents":[2147483647,0,0,1,1,2,2,3,3,4,4,5,5,6,6],"right_children":[2,4,6,8,10,12,14,-1,-1,-1,-1,-1,-1,-1,-1],"split_conditions":[-3.198052E0,4.6E0,-9.418018E0,4.5311794E1,-3.5186863E0,-3.8560715E-1,-4.196118E-1,6.8495865E0,3.470995E0,5.781339E0,-6.55703E-3,2.4066229E-1,-1.6452566E0,-1.7736771E0,1.4731821E0],"split_indices":[11,0,17,4,11,11,11,0,0,0,0,0,0,0,0],"split_type":[0,0,0,0,0,0,0,0,0,0,0,0,0,0,0],"sum_hessian":[2.582E4,7.15E2,2.5105E4,4.24E2,2.91E2,2.2177E4,2.928E3,9E1,3.34E2,6E1,2.31E2,2.0528E4,1.649E3,2.537E3,3.91E2],"tree_param":{"num_deleted":"0","num_feature":"19","num_nodes":"15","size_leaf_vector":"1"}},{"base_weights":[-1.6106834E-1,-3.6984262E0,5.537985E0,3.2983402E1,-4.281665E0,9.460635E1,5.2398686E0,4.7999377E0,-3.8409562E0,-5.0783294E-1,1.9010623E0,1.228564E1,4.7491546E0,7.310795E-1,-7.870155E-1],"categories":[],"categories_nodes":[],"categories_segments":[],"categories_sizes":[],"default_left":[0,0,0,0,0,0,0,0,0,0,0,0,0,0,0],"id":37,"left_children":[1,3,5,7,9,11,13,-1,-1,-1,-1,-1,-1,-1,-1],"loss_changes":[5.2164994E5,3.4172184E5,2.6264194E5,2.6985234E5,2.9174334E5,3.808822E4,2.682442E5,0E0,0E0,0E0,0E0,0E0,0E0,0E0,0E0],"parents":[2147483647,0,0,1,1,2,2,3,3,4,4,5,5,6,6],"right_children":[2,4,6,8,10,12,14,-1,-1,-1,-1,-1,-1,-1,-1],"split_conditions":[5E2,-1.1079643E1,-1.2080995E-1,1.7137304E-1,3.973643E-2,1.3957414E-1,5.4E0,4.7999377E0,-3.8409562E0,-5.0783294E-1,1.9010623E0,1.228564E1,4.7491546E0,7.310795E-1,-7.870155E-1],"split_indices":[18,17,5,13,11,7,0,0,0,0,0,0,0,0,0],"split_type":[0,0,0,0,0,0,0,0,0,0,0,0,0,0,0],"sum_hessian":[2.5874E4,1.5965E4,9.909E3,2.49E2,1.5716E4,3.2E1,9.877E3,2.06E2,4.3E1,1.5197E4,5.19E2,1.9E1,1.3E1,8.53E3,1.347E3],"tree_param":{"num_deleted":"0","num_feature":"19","num_nodes":"15","size_leaf_vector":"1"}},{"base_weights":[-3.085913E-1,3.0402601E1,-9.136362E-1,3.4663586E1,-1.5589789E1,-1.6708593E0,2.233492E1,7.061854E0,2.8196864E0,-5.228505E0,1.2922199E0,1.1839829E-2,-3.556502E0,-1.7943476E1,2.460242E0],"categories":[],"categories_nodes":[],"categories_segments":[],"categories_sizes":[],"default_left":[0,0,0,0,0,0,0,0,0,0,0,0,0,0,0],"id":38,"left_children":[1,3,5,7,9,11,13,-1,-1,-1,-1,-1,-1,-1,-1],"loss_changes":[4.7991747E5,9.833091E4,4.4592025E5,1.04266125E5,4.5664598E4,1.4876358E6,3.699671E5,0E0,0E0,0E0,0E0,0E0,0E0,0E0,0E0],"parents":[2147483647,0,0,1,1,2,2,3,3,4,4,5,5,6,6],"right_children":[2,4,6,8,10,12,14,-1,-1,-1,-1,-1,-1,-1,-1],"split_conditions":[-3.2545977E0,6E0,1.0949723E-1,4.5311794E1,1.2837288E-1,-3.8560715E-1,9.784483E-1,7.061854E0,2.8196864E0,-5.228505E0,1.2922199E0,1.1839829E-2,-3.556502E0,-1.7943476E1,2.460242E0],"split_indices":[11,0,11,4,15,11,4,0,0,0,0,0,0,0,0],"split_type":[0,0,0,0,0,0,0,0,0,0,0,0,0,0,0],"sum_hessian":[2.5825E4,4.98E2,2.5327E4,4.56E2,4.2E1,2.4529E4,7.98E2,6.8E1,3.88E2,1.8E1,2.4E1,2.33E4,1.229E3,8E0,7.9E2],"tree_param":{"num_deleted":"0","num_feature":"19","num_nodes":"15","size_leaf_vector":"1"}},{"base_weights":[9.058441E-2,1.0338062E1,-1.9423895E0,1.3142564E1,-1.6607958E1,-2.16988E1,-1.0285159E0,1.0173782E0,6.198802E0,7.7972794E0,-2.579034E0,1.5406624E0,-5.4859214E0,-1.353987E-3,-2.1074789E0],"categories":[],"categories_nodes":[],"categories_segments":[],"categories_sizes":[],"default_left":[0,0,0,0,0,0,0,0,0,0,0,0,0,0,0],"id":39,"left_children":[1,3,5,7,9,11,13,-1,-1,-1,-1,-1,-1,-1,-1],"loss_changes":[5.3873694E5,3.2373406E5,3.895836E5,5.6172375E5,3.528755E5,1.1746766E6,4.196663E5,0E0,0E0,0E0,0E0,0E0,0E0,0E0,0E0],"parents":[2147483647,0,0,1,1,2,2,3,3,4,4,5,5,6,6],"right_children":[2,4,6,8,10,12,14,-1,-1,-1,-1,-1,-1,-1,-1],"split_conditions":[-1.0105828E1,6.3E0,1.8980162E0,5.3326763E-2,-5.6681193E-2,1.7793798E-3,-8.793332E0,1.0173782E0,6.198802E0,7.7972794E0,-2.579034E0,1.5406624E0,-5.4859214E0,-1.353987E-3,-2.1074789E0],"split_indices":[17,0,4,5,5,6,17,0,0,0,0,0,0,0,0],"split_type":[0,0,0,0,0,0,0,0,0,0,0,0,0,0,0],"sum_hessian":[2.5858E4,4.28E3,2.1578E4,3.877E3,4.03E2,9.53E2,2.0625E4,3.656E3,2.21E2,3.5E1,3.68E2,4.5E2,5.03E2,1.9632E4,9.93E2],"tree_param":{"num_deleted":"0","num_feature":"19","num_nodes":"15","size_leaf_vector":"1"}},{"base_weights":[1.0609181E-1,9.94518E0,-1.815443E0,1.117147E1,-4.718214E1,-3.0545577E-1,-1.5252532E1,8.6601114E-1,4.5611506E0,-1.5983213E0,-7.119764E0,1.7996822E-1,-1.7509679E0,-6.0840397E0,8.599653E-1],"categories":[],"categories_nodes":[],"categories_segments":[],"categories_sizes":[],"default_left":[0,0,0,0,0,0,0,0,0,0,0,0,0,0,0],"id":40,"left_children":[1,3,5,7,9,11,13,-1,-1,-1,-1,-1,-1,-1,-1],"loss_changes":[4.8900675E5,2.96578E5,4.39047E5,3.5750578E5,6.5545984E4,7.046021E5,2.3775142E6,0E0,0E0,0E0,0E0,0E0,0E0,0E0,0E0],"parents":[2147483647,0,0,1,1,2,2,3,3,4,4,5,5,6,6],"right_children":[2,4,6,8,10,12,14,-1,-1,-1,-1,-1,-1,-1,-1],"split_conditions":[-1.0105828E1,9.9E0,-7.7828616E-1,7.116207E-2,-4.4166083E-3,5.3E0,8.150137E0,8.6601114E-1,4.5611506E0,-1.5983213E0,-7.119764E0,1.7996822E-1,-1.7509679E0,-6.0840397E0,8.599653E-1],"split_indices":[17,0,11,5,6,0,4,0,0,0,0,0,0,0,0],"split_type":[0,0,0,0,0,0,0,0,0,0,0,0,0,0,0],"sum_hessian":[2.5863E4,4.225E3,2.1638E4,4.137E3,8.8E1,1.9453E4,2.185E3,3.857E3,2.8E2,3.9E1,4.9E1,1.7333E4,2.12E3,7.5E2,1.435E3],"tree_param":{"num_deleted":"0","num_feature":"19","num_nodes":"15","size_leaf_vector":"1"}},{"base_weights":[-6.992372E-2,1.8813814E1,-9.828595E-1,-2.3958733E1,2.3491344E1,-1.7238686E0,2.008048E1,-1.4459778E1,-2.2214897E-1,2.8330345E0,-1.6372702E0,-2.182299E-2,-3.9541245E0,1.073782E0,2.9853742E0],"categories":[],"categories_nodes":[],"categories_segments":[],"categories_sizes":[],"default_left":[0,0,0,0,0,0,0,0,0,0,0,0,0,0,0],"id":41,"left_children":[1,3,5,7,9,11,13,-1,-1,-1,-1,-1,-1,-1,-1],"loss_changes":[4.4561144E5,2.3904619E5,3.848686E5,3.0911725E5,2.0783362E5,1.3562288E6,7.619578E4,0E0,0E0,0E0,0E0,0E0,0E0,0E0,0E0],"parents":[2147483647,0,0,1,1,2,2,3,3,4,4,5,5,6,6],"right_children":[2,4,6,8,10,12,14,-1,-1,-1,-1,-1,-1,-1,-1],"split_conditions":[-1.0556391E1,-4.6326727E-1,3.973643E-2,1.9E0,-1.6879658E-1,-3.8560715E-1,7.447495E1,-1.4459778E1,-2.2214897E-1,2.8330345E0,-1.6372702E0,-2.182299E-2,-3.9541245E0,1.073782E0,2.9853742E0],"split_indices":[17,15,11,0,11,11,4,0,0,0,0,0,0,0,0],"split_type":[0,0,0,0,0,0,0,0,0,0,0,0,0,0,0],"sum_hessian":[2.5846E4,1.191E3,2.4655E4,1.17E2,1.074E3,2.3818E4,8.37E2,1.7E1,1E2,9.58E2,1.16E2,2.2907E4,9.11E2,4.29E2,4.08E2],"tree_param":{"num_deleted":"0","num_feature":"19","num_nodes":"15","size_leaf_vector":"1"}},{"base_weights":[-2.0229697E-1,1.2767749E0,-9.542289E0,-1.3353895E0,7.050393E0,-1.9112223E1,7.1010523E0,-6.313465E0,-7.164946E-2,4.9706335E0,5.9065545E-1,-3.8370252E0,-1.1038334E0,2.5585997E0,-1.6009455E0],"categories":[],"categories_nodes":[],"categories_segments":[],"categories_sizes":[],"default_left":[0,0,0,0,0,0,0,0,0,0,0,0,0,0,0],"id":42,"left_children":[1,3,5,7,9,11,13,-1,-1,-1,-1,-1,-1,-1,-1],"loss_changes":[3.5630244E5,3.3581722E5,5.6174175E5,5.8632325E5,3.381244E5,3.477122E5,5.506386E5,0E0,0E0,0E0,0E0,0E0,0E0,0E0,0E0],"parents":[2147483647,0,0,1,1,2,2,3,3,4,4,5,5,6,6],"right_children":[2,4,6,8,10,12,14,-1,-1,-1,-1,-1,-1,-1,-1],"split_conditions":[5.3E0,3.1E0,3.2514063E-1,-3.3258092E-1,-1.1079643E1,-7.493147E-3,8.6E0,-6.313465E0,-7.164946E-2,4.9706335E0,5.9065545E-1,-3.8370252E0,-1.1038334E0,2.5585997E0,-1.6009455E0],"split_indices":[0,0,10,15,17,5,0,0,0,0,0,0,0,0,0],"split_type":[0,0,0,0,0,0,0,0,0,0,0,0,0,0,0],"sum_hessian":[2.579E4,2.2265E4,3.525E3,1.533E4,6.935E3,2.238E3,1.287E3,1.51E2,1.5179E4,1.8E2,6.755E3,6.6E2,1.578E3,7.15E2,5.72E2],"tree_param":{"num_deleted":"0","num_feature":"19","num_nodes":"15","size_leaf_vector":"1"}},{"base_weights":[-5.1687833E-2,-3.2213352E0,5.1019993E0,2.3890587E1,-3.7278159E0,9.33169E0,-1.0009209E0,9.0636295E-1,4.5743365E0,-1.0464901E-1,-1.0468502E0,1.0086043E0,-2.4416006E0,3.3082598E-1,-1.1827196E0],"categories":[],"categories_nodes":[],"categories_segments":[],"categories_sizes":[],"default_left":[0,0,0,0,0,0,0,0,0,0,0,0,0,0,0],"id":43,"left_children":[1,3,5,7,9,11,13,-1,-1,-1,-1,-1,-1,-1,-1],"loss_changes":[4.24197E5,2.208804E5,2.5527869E5,9.516844E4,2.8528675E5,1.4894456E5,1.889346E5,0E0,0E0,0E0,0E0,0E0,0E0,0E0,0E0],"parents":[2147483647,0,0,1,1,2,2,3,3,4,4,5,5,6,6],"right_children":[2,4,6,8,10,12,14,-1,-1,-1,-1,-1,-1,-1,-1],"split_conditions":[5E2,-3.2545977E0,4.045901E1,-7.978277E1,3.7601337E1,9.3248594E-1,3.509456E1,9.0636295E-1,4.5743365E0,-1.0464901E-1,-1.0468502E0,1.0086043E0,-2.4416006E0,3.3082598E-1,-1.1827196E0],"split_indices":[18,11,3,2,4,16,4,0,0,0,0,0,0,0,0],"split_type":[0,0,0,0,0,0,0,0,0,0,0,0,0,0,0],"sum_hessian":[2.5966E4,1.6078E4,9.888E3,2.94E2,1.5784E4,5.84E3,4.048E3,1.76E2,1.18E2,1.1293E4,4.491E3,5.713E3,1.27E2,2.896E3,1.152E3],"tree_param":{"num_deleted":"0","num_feature":"19","num_nodes":"15","size_leaf_vector":"1"}},{"base_weights":[1.572673E-1,1.9336245E1,-6.161036E-1,2.5542755E1,-1.07622795E1,3.5012312E-2,-2.0189505E1,2.7865644E0,-7.0043616E0,-1.0403081E1,1.3824795E0,-5.4337597E-1,1.9901496E-1,3.596978E-1,-2.2691398E0],"categories":[],"categories_nodes":[],"categories_segments":[],"categories_sizes":[],"default_left":[0,0,0,0,0,0,0,0,0,0,0,0,0,0,0],"id":44,"left_children":[1,3,5,7,9,11,13,-1,-1,-1,-1,-1,-1,-1,-1],"loss_changes":[3.834311E5,1.8745528E5,3.1669006E5,1.8646406E5,3.9586866E5,2.5715823E5,4.7690594E4,0E0,0E0,0E0,0E0,0E0,0E0,0E0,0E0],"parents":[2147483647,0,0,1,1,2,2,3,3,4,4,5,5,6,6],"right_children":[2,4,6,8,10,12,14,-1,-1,-1,-1,-1,-1,-1,-1],"split_conditions":[-1.0633052E1,1.8307385E-1,-8.706882E0,9.9E0,2.3772626E0,8.614858E-3,-1.6900776E-1,2.7865644E0,-7.0043616E0,-1.0403081E1,1.3824795E0,-5.4337597E-1,1.9901496E-1,3.596978E-1,-2.2691398E0],"split_indices":[17,13,17,0,4,15,13,0,0,0,0,0,0,0,0],"split_type":[0,0,0,0,0,0,0,0,0,0,0,0,0,0,0],"sum_hessian":[2.5849E4,1.001E3,2.4848E4,8.3E2,1.71E2,2.4049E4,7.99E2,8.11E2,1.9E1,3.5E1,1.36E2,6.333E3,1.7716E4,7.6E1,7.23E2],"tree_param":{"num_deleted":"0","num_feature":"19","num_nodes":"15","size_leaf_vector":"1"}},{"base_weights":[-6.571857E-3,-4.975294E-1,3.0792847E1,1.9138723E1,-1.2136228E0,5.9283928E1,-3.204026E1,3.012952E0,3.1270495E-1,1.6043977E-1,-9.181326E-1,8.253045E0,4.6241446E0,-4.5741773E0,1.8038008E0],"categories":[],"categories_nodes":[],"categories_segments":[],"categories_sizes":[],"default_left":[0,0,0,0,0,0,0,0,0,0,0,0,0,0,0],"id":45,"left_children":[1,3,5,7,9,11,13,-1,-1,-1,-1,-1,-1,-1,-1],"loss_changes":[3.9030875E5,3.5728097E5,7.269236E5,1.5723284E5,5.5043125E5,8.077425E4,8.796588E4,0E0,0E0,0E0,0E0,0E0,0E0,0E0,0E0],"parents":[2147483647,0,0,1,1,2,2,3,3,4,4,5,5,6,6],"right_children":[2,4,6,8,10,12,14,-1,-1,-1,-1,-1,-1,-1,-1],"split_conditions":[1.6420054E-1,-3.1579988E0,8E0,4.6E0,3.8893837E1,8.6328554E-1,1.425601E-1,3.012952E0,3.1270495E-1,1.6043977E-1,-9.181326E-1,8.253045E0,4.6241446E0,-4.5741773E0,1.8038008E0],"split_indices":[5,11,0,0,4,10,7,0,0,0,0,0,0,0,0],"split_type":[0,0,0,0,0,0,0,0,0,0,0,0,0,0,0],"sum_hessian":[2.581E4,2.5406E4,4.04E2,8.93E2,2.4513E4,2.78E2,1.26E2,5.29E2,3.64E2,1.8109E4,6.404E3,9.8E1,1.8E2,9.9E1,2.7E1],"tree_param":{"num_deleted":"0","num_feature":"19","num_nodes":"15","size_leaf_vector":"1"}},{"base_weights":[1.7103997E-1,-5.5862365E0,2.9049854E0,4.2891182E1,-6.2012773E0,1.0176618E1,7.6162714E-1,-5.709592E0,4.84615E0,-1.0591635E0,6.2420603E-2,7.950321E0,9.774541E-1,1.5254252E-1,-1.9615631E0],"categories":[],"categories_nodes":[],"categories_segments":[],"categories_sizes":[],"default_left":[0,0,0,0,0,0,0,0,0,0,0,0,0,0,0],"id":46,"left_children":[1,3,5,7,9,11,13,-1,-1,-1,-1,-1,-1,-1,-1],"loss_changes":[4.092268E5,2.4985231E5,2.7473722E5,6.1247688E4,2.4773812E5,1.1108372E5,2.1195084E5,0E0,0E0,0E0,0E0,0E0,0E0,0E0,0E0],"parents":[2147483647,0,0,1,1,2,2,3,3,4,4,5,5,6,6],"right_children":[2,4,6,8,10,12,14,-1,-1,-1,-1,-1,-1,-1,-1],"split_conditions":[2.5E2,-8.168162E-2,-1.0004151E1,-7.978278E1,4.045902E1,-1.2080995E-1,-8.661598E0,-5.709592E0,4.84615E0,-1.0591635E0,6.2420603E-2,7.950321E0,9.774541E-1,1.5254252E-1,-1.9615631E0],"split_indices":[18,5,17,2,3,5,17,0,0,0,0,0,0,0,0],"split_type":[0,0,0,0,0,0,0,0,0,0,0,0,0,0,0],"sum_hessian":[2.5997E4,8.37E3,1.7627E4,1.04E2,8.266E3,4.012E3,1.3615E4,5E0,9.9E1,5.03E3,3.236E3,2.2E1,3.99E3,1.3124E4,4.91E2],"tree_param":{"num_deleted":"0","num_feature":"19","num_nodes":"15","size_leaf_vector":"1"}},{"base_weights":[1.8839434E-1,1.9515018E1,-4.4342878E-1,1.0538543E1,4.1292397E1,-5.171705E0,1.7992908E0,1.7277529E0,-5.434733E0,5.86311E0,-1.9194481E0,3.410753E0,-5.688796E-1,2.4503429E-1,-1.6919323E0],"categories":[],"categories_nodes":[],"categories_segments":[],"categories_sizes":[],"default_left":[0,0,0,0,0,0,0,0,0,0,0,0,0,0,0],"id":47,"left_children":[1,3,5,7,9,11,13,-1,-1,-1,-1,-1,-1,-1,-1],"loss_changes":[3.162982E5,1.5986178E5,2.6599438E5,2.5542719E5,2.5178003E5,1.6410333E5,2.073875E5,0E0,0E0,0E0,0E0,0E0,0E0,0E0,0E0],"parents":[2147483647,0,0,1,1,2,2,3,3,4,4,5,5,6,6],"right_children":[2,4,6,8,10,12,14,-1,-1,-1,-1,-1,-1,-1,-1],"split_conditions":[-1.0741674E1,2.9075705E-2,2.5E2,4.9882486E-1,7.1E0,-8.168162E-2,-8.706882E0,1.7277529E0,-5.434733E0,5.86311E0,-1.9194481E0,3.410753E0,-5.688796E-1,2.4503429E-1,-1.6919323E0],"split_indices":[17,5,18,15,0,5,17,0,0,0,0,0,0,0,0],"split_type":[0,0,0,0,0,0,0,0,0,0,0,0,0,0,0],"sum_hessian":[2.5901E4,8.19E2,2.5082E4,5.81E2,2.38E2,8.069E3,1.7013E4,5.27E2,5.4E1,1.85E2,5.3E1,1.04E2,7.965E3,1.6442E4,5.71E2],"tree_param":{"num_deleted":"0","num_feature":"19","num_nodes":"15","size_leaf_vector":"1"}},{"base_weights":[-1.9963916E-1,3.1251883E1,-5.747717E-1,4.9028164E1,2.2341366E1,1.5174338E0,-5.9350395E0,-2.728794E0,5.500158E0,7.2737E0,1.8831084E0,3.9117357E-1,-3.5167508E0,-9.9993277E-1,1.9423583E0],"categories":[],"categories_nodes":[],"categories_segments":[],"categories_sizes":[],"default_left":[0,0,0,0,0,0,0,0,0,0,0,0,0,0,0],"id":48,"left_children":[1,3,5,7,9,11,13,-1,-1,-1,-1,-1,-1,-1,-1],"loss_changes":[3.0530384E5,4.7215406E4,2.867822E5,4.75435E4,3.48954E4,1.6156836E6,7.4009606E5,0E0,0E0,0E0,0E0,0E0,0E0,0E0,0E0],"parents":[2147483647,0,0,1,1,2,2,3,3,4,4,5,5,6,6],"right_children":[2,4,6,8,10,12,14,-1,-1,-1,-1,-1,-1,-1,-1],"split_conditions":[-3.3417132E0,-3.5186863E0,3.9553032E1,-7.9782814E1,4.0458904E1,-3.8560715E-1,-5.41189E-1,-2.728794E0,5.500158E0,7.2737E0,1.8831084E0,3.9117357E-1,-3.5167508E0,-9.9993277E-1,1.9423583E0],"split_indices":[11,11,4,2,3,11,11,0,0,0,0,0,0,0,0],"split_type":[0,0,0,0,0,0,0,0,0,0,0,0,0,0,0],"sum_hessian":[2.5874E4,3.04E2,2.557E4,1E2,2.04E2,1.8392E4,7.178E3,7E0,9.3E1,1.2E1,1.92E2,1.7266E4,1.126E3,6.187E3,9.91E2],"tree_param":{"num_deleted":"0","num_feature":"19","num_nodes":"15","size_leaf_vector":"1"}},{"base_weights":[1.08247384E-1,-2.4856355E0,4.2870517E0,-2.9215574E0,2.8419083E1,6.2968087E0,-5.10578E0,-1.6292736E-1,-1.0844992E0,5.8847604E0,-2.324853E0,6.993206E-1,-2.1447809E0,-8.632015E0,-3.345524E-1],"categories":[],"categories_nodes":[],"categories_segments":[],"categories_sizes":[],"default_left":[0,0,0,0,0,0,0,0,0,0,0,0,0,0,0],"id":49,"left_children":[1,3,5,7,9,11,13,-1,-1,-1,-1,-1,-1,-1,-1],"loss_changes":[2.802723E5,2.150161E5,1.8697414E5,1.6107766E5,3.5038966E5,1.5777297E5,2.4931602E5,0E0,0E0,0E0,0E0,0E0,0E0,0E0,0E0],"parents":[2147483647,0,0,1,1,2,2,3,3,4,4,5,5,6,6],"right_children":[2,4,6,8,10,12,14,-1,-1,-1,-1,-1,-1,-1,-1],"split_conditions":[5E2,1.9433045E-1,4.0459057E1,5E0,7.7E0,9.6E0,8.452222E-1,-1.6292736E-1,-1.0844992E0,5.8847604E0,-2.324853E0,6.993206E-1,-2.1447809E0,-8.632015E0,-3.345524E-1],"split_indices":[18,5,3,0,0,0,4,0,0,0,0,0,0,0,0],"split_type":[0,0,0,0,0,0,0,0,0,0,0,0,0,0,0],"sum_hessian":[2.5855E4,1.5953E4,9.902E3,1.5732E4,2.21E2,8.157E3,1.745E3,1.3527E4,2.205E3,1.39E2,8.2E1,7.958E3,1.99E2,3.6E1,1.709E3],"tree_param":{"num_deleted":"0","num_feature":"19","num_nodes":"15","size_leaf_vector":"1"}},{"base_weights":[-5.593733E-2,4.9536777E1,-2.5466102E-1,9.0022415E1,3.0021805E1,7.463119E-1,-1.3131657E1,1.1733043E1,2.4740005E0,-4.5068884E0,5.2685804E0,2.497263E-2,3.324085E0,-4.3271384E0,-8.077976E-1],"categories":[],"categories_nodes":[],"categories_segments":[],"categories_sizes":[],"default_left":[0,0,0,0,0,0,0,0,0,0,0,0,0,0,0],"id":50,"left_children":[1,3,5,7,9,11,13,-1,-1,-1,-1,-1,-1,-1,-1],"loss_changes":[2.5433711E5,7.8675234E4,3.313221E5,5.5927406E4,1.232062E5,3.8485903E5,2.8204538E5,0E0,0E0,0E0,0E0,0E0,0E0,0E0,0E0],"parents":[2147483647,0,0,1,1,2,2,3,3,4,4,5,5,6,6],"right_children":[2,4,6,8,10,12,14,-1,-1,-1,-1,-1,-1,-1,-1],"split_conditions":[-1.2080995E-1,7.197562E1,6.4E0,1.49E2,7.4028824E1,7.116207E-2,-5.8945054E-1,1.1733043E1,2.4740005E0,-4.5068884E0,5.2685804E0,2.497263E-2,3.324085E0,-4.3271384E0,-8.077976E-1],"split_indices":[5,4,0,1,4,5,7,0,0,0,0,0,0,0,0],"split_type":[0,0,0,0,0,0,0,0,0,0,0,0,0,0,0],"sum_hessian":[2.5805E4,1.02E2,2.5703E4,3.2E1,7E1,2.385E4,1.853E3,2.2E1,1E1,1.6E1,5.4E1,2.3492E4,3.58E2,2.65E2,1.588E3],"tree_param":{"num_deleted":"0","num_feature":"19","num_nodes":"15","size_leaf_vector":"1"}},{"base_weights":[-1.9694865E-1,1.6822676E1,-8.8520926E-1,4.9900215E1,1.4071824E1,1.150547E0,-6.353802E0,2.828451E0,7.2504096E0,3.2580154E0,9.225637E-1,3.264219E-1,-3.059655E0,-1.0568837E0,1.99586E0],"categories":[],"categories_nodes":[],"categories_segments":[],"categories_sizes":[],"default_left":[0,0,0,0,0,0,0,0,0,0,0,0,0,0,0],"id":51,"left_children":[1,3,5,7,9,11,13,-1,-1,-1,-1,-1,-1,-1,-1],"loss_changes":[3.037924E5,9.101716E4,2.7750156E5,3.557136E4,8.3295016E4,1.2190249E6,7.501685E5,0E0,0E0,0E0,0E0,0E0,0E0,0E0,0E0],"parents":[2147483647,0,0,1,1,2,2,3,3,4,4,5,5,6,6],"right_children":[2,4,6,8,10,12,14,-1,-1,-1,-1,-1,-1,-1,-1],"split_conditions":[-3.1402376E0,3.9553032E1,3.8263588E1,8.475454E-1,-3.4070752E0,-3.8560715E-1,-4.196118E-1,2.828451E0,7.2504096E0,3.2580154E0,9.225637E-1,3.264219E-1,-3.059655E0,-1.0568837E0,1.99586E0],"split_indices":[11,4,4,8,11,11,11,0,0,0,0,0,0,0,0],"split_type":[0,0,0,0,0,0,0,0,0,0,0,0,0,0,0],"sum_hessian":[2.5932E4,1.007E3,2.4925E4,7.6E1,9.31E2,1.8164E4,6.761E3,4E1,3.6E1,1.92E2,7.39E2,1.7031E4,1.133E3,5.828E3,9.33E2],"tree_param":{"num_deleted":"0","num_feature":"19","num_nodes":"15","size_leaf_vector":"1"}},{"base_weights":[9.03395E-2,1.8617794E1,-4.4256276E-1,2.767338E1,5.86007E0,-8.883308E-1,2.1140326E1,5.450351E0,2.2901237E0,3.5090108E0,-1.4112614E-1,1.6604848E-2,-1.7064933E0,8.424414E0,1.7699665E0],"categories":[],"categories_nodes":[],"categories_segments":[],"categories_sizes":[],"default_left":[0,0,0,0,0,0,0,0,0,0,0,0,0,0,0],"id":52,"left_children":[1,3,5,7,9,11,13,-1,-1,-1,-1,-1,-1,-1,-1],"loss_changes":[2.5496705E5,8.324953E4,2.4152417E5,5.27835E4,6.4024445E4,4.1950184E5,1.0880525E5,0E0,0E0,0E0,0E0,0E0,0E0,0E0,0E0],"parents":[2147483647,0,0,1,1,2,2,3,3,4,4,5,5,6,6],"right_children":[2,4,6,8,10,12,14,-1,-1,-1,-1,-1,-1,-1,-1],"split_conditions":[-3.198052E0,4.6E0,3.3475462E-1,4.3426334E1,-3.5186863E0,-3.8560715E-1,9.7409046E-1,5.450351E0,2.2901237E0,3.5090108E0,-1.4112614E-1,1.6604848E-2,-1.7064933E0,8.424414E0,1.7699665E0],"split_indices":[11,0,11,4,11,11,8,0,0,0,0,0,0,0,0],"split_type":[0,0,0,0,0,0,0,0,0,0,0,0,0,0,0],"sum_hessian":[2.5822E4,7.21E2,2.5101E4,4.21E2,3E2,2.4594E4,5.07E2,6.2E1,3.59E2,5.9E1,2.41E2,2.309E4,1.504E3,2.5E1,4.82E2],"tree_param":{"num_deleted":"0","num_feature":"19","num_nodes":"15","size_leaf_vector":"1"}},{"base_weights":[4.8033196E-2,-3.1168014E-1,2.9351833E1,1.5729988E1,-8.9780784E-1,7.816683E1,1.2465343E1,5.081311E0,1.337519E0,-1.8605286E-1,8.444883E-1,6.0726094E0,1.1410743E1,-3.2364163E-1,7.813573E0],"categories":[],"categories_nodes":[],"categories_segments":[],"categories_sizes":[],"default_left":[0,0,0,0,0,0,0,0,0,0,0,0,0,0,0],"id":53,"left_children":[1,3,5,7,9,11,13,-1,-1,-1,-1,-1,-1,-1,-1],"loss_changes":[2.7120716E5,2.389966E5,2.5621162E5,7.33422E4,2.2057647E5,4.3217188E4,2.4050866E5,0E0,0E0,0E0,0E0,0E0,0E0,0E0,0E0],"parents":[2147483647,0,0,1,1,2,2,3,3,4,4,5,5,6,6],"right_children":[2,4,6,8,10,12,14,-1,-1,-1,-1,-1,-1,-1,-1],"split_conditions":[1.9433045E-1,-3.1579988E0,8.6328554E-1,-3.4274125E-1,-7.978272E1,-8.986195E-2,5.1207733E-1,5.081311E0,1.337519E0,-1.8605286E-1,8.444883E-1,6.0726094E0,1.1410743E1,-3.2364163E-1,7.813573E0],"split_indices":[5,11,10,9,2,13,13,0,0,0,0,0,0,0,0],"split_type":[0,0,0,0,0,0,0,0,0,0,0,0,0,0,0],"sum_hessian":[2.5727E4,2.5416E4,3.11E2,8.95E2,2.4521E4,7.9E1,2.32E2,5.5E1,8.4E2,2.2231E4,2.29E3,5.5E1,2.4E1,1.88E2,4.4E1],"tree_param":{"num_deleted":"0","num_feature":"19","num_nodes":"15","size_leaf_vector":"1"}},{"base_weights":[4.448085E-2,8.235475E0,-1.0618072E0,1.0162308E1,-1.9556173E1,-1.7166669E0,1.5908319E1,3.1274242E0,7.3933434E-1,-8.626056E0,1.8939701E0,-3.940321E-2,-3.8762214E0,9.8831505E-1,2.2848203E0],"categories":[],"categories_nodes":[],"categories_segments":[],"categories_sizes":[],"default_left":[0,0,0,0,0,0,0,0,0,0,0,0,0,0,0],"id":54,"left_children":[1,3,5,7,9,11,13,-1,-1,-1,-1,-1,-1,-1,-1],"loss_changes":[2.3333584E5,1.6427553E5,2.5213802E5,1.6730994E5,5.126346E5,1.0702911E6,3.5023344E4,0E0,0E0,0E0,0E0,0E0,0E0,0E0,0E0],"parents":[2147483647,0,0,1,1,2,2,3,3,4,4,5,5,6,6],"right_children":[2,4,6,8,10,12,14,-1,-1,-1,-1,-1,-1,-1,-1],"split_conditions":[-1.0211308E1,-1.1500352E-1,-5.2608557E-2,-1.1079643E1,6.493411E0,-3.8560715E-1,7.447495E1,3.1274242E0,7.3933434E-1,-8.626056E0,1.8939701E0,-3.940321E-2,-3.8762214E0,9.8831505E-1,2.2848203E0],"split_indices":[17,11,11,17,4,11,4,0,0,0,0,0,0,0,0],"split_type":[0,0,0,0,0,0,0,0,0,0,0,0,0,0,0],"sum_hessian":[2.5748E4,3.063E3,2.2685E4,2.865E3,1.98E2,2.1843E4,8.42E2,3.31E2,2.534E3,7.2E1,1.26E2,2.1091E4,7.52E2,4.52E2,3.9E2],"tree_param":{"num_deleted":"0","num_feature":"19","num_nodes":"15","size_leaf_vector":"1"}},{"base_weights":[3.5411957E-1,8.613685E0,-7.3011994E-1,9.7916765E0,-3.7411415E1,-1.2803576E0,1.4910052E1,7.568482E-1,2.927694E0,-5.4493423E0,6.21766E-1,-1.8722212E-2,-2.9770057E0,5.2427545E0,1.3694475E0],"categories":[],"categories_nodes":[],"categories_segments":[],"categories_sizes":[],"default_left":[0,0,0,0,0,0,0,0,0,0,0,0,0,0,0],"id":55,"left_children":[1,3,5,7,9,11,13,-1,-1,-1,-1,-1,-1,-1,-1],"loss_changes":[2.3129605E5,1.6285522E5,1.9649839E5,1.26401375E5,5.623422E4,6.868867E5,3.4671844E4,0E0,0E0,0E0,0E0,0E0,0E0,0E0,0E0],"parents":[2147483647,0,0,1,1,2,2,3,3,4,4,5,5,6,6],"right_children":[2,4,6,8,10,12,14,-1,-1,-1,-1,-1,-1,-1,-1],"split_conditions":[-1.0211308E1,9.9E0,3.973643E-2,5.069489E-2,9.801575E1,-3.8560715E-1,9.7409046E-1,7.568482E-1,2.927694E0,-5.4493423E0,6.21766E-1,-1.8722212E-2,-2.9770057E0,5.2427545E0,1.3694475E0],"split_indices":[17,0,11,5,4,11,8,0,0,0,0,0,0,0,0],"split_type":[0,0,0,0,0,0,0,0,0,0,0,0,0,0,0],"sum_hessian":[2.5826E4,2.996E3,2.283E4,2.922E3,7.4E1,2.2055E4,7.75E2,2.624E3,2.98E2,5.3E1,2.1E1,2.1241E4,8.14E2,2.3E1,7.52E2],"tree_param":{"num_deleted":"0","num_feature":"19","num_nodes":"15","size_leaf_vector":"1"}},{"base_weights":[-2.089544E-2,1.8828592E1,-4.6345887E-1,-2.000443E1,2.3925623E1,8.6829203E-1,-7.382802E0,1.0169729E-1,-1.6026012E1,2.0033352E0,6.108911E0,2.1486369E-1,-2.0738673E0,-1.642829E0,7.831409E-1],"categories":[],"categories_nodes":[],"categories_segments":[],"categories_sizes":[],"default_left":[0,0,0,0,0,0,0,0,0,0,0,0,0,0,0],"id":56,"left_children":[1,3,5,7,9,11,13,-1,-1,-1,-1,-1,-1,-1,-1],"loss_changes":[2.1455069E5,1.1725914E5,2.3156616E5,2.0360061E5,7.428366E4,5.8304344E5,5.583151E5,0E0,0E0,0E0,0E0,0E0,0E0,0E0,0E0],"parents":[2147483647,0,0,1,1,2,2,3,3,4,4,5,5,6,6],"right_children":[2,4,6,8,10,12,14,-1,-1,-1,-1,-1,-1,-1,-1],"split_conditions":[-3.6758327E-1,2.3E0,4.9E0,-1.6879658E-1,9.291299E-1,-3.8560715E-1,-1.6976671E0,1.0169729E-1,-1.6026012E1,2.0033352E0,6.108911E0,2.1486369E-1,-2.0738673E0,-1.642829E0,7.831409E-1],"split_indices":[13,0,0,11,15,11,11,0,0,0,0,0,0,0,0],"split_type":[0,0,0,0,0,0,0,0,0,0,0,0,0,0,0],"sum_hessian":[2.5717E4,5.89E2,2.5128E4,6.8E1,5.21E2,2.1073E4,4.055E3,6E1,8E0,4.73E2,4.8E1,1.9895E4,1.178E3,2.543E3,1.512E3],"tree_param":{"num_deleted":"0","num_feature":"19","num_nodes":"15","size_leaf_vector":"1"}},{"base_weights":[1.2119665E-2,4.48761E0,-1.6453995E0,5.193655E0,-3.483484E1,3.2181937E-1,-6.3923416E0,7.1270404E0,4.9020195E-1,-4.3174205E0,1.3084549E0,3.1059885E-1,-6.195637E-1,-3.7721107E0,-2.549916E-1],"categories":[],"categories_nodes":[],"categories_segments":[],"categories_sizes":[],"default_left":[0,0,0,0,0,0,0,0,0,0,0,0,0,0,0],"id":57,"left_children":[1,3,5,7,9,11,13,-1,-1,-1,-1,-1,-1,-1,-1],"loss_changes":[1.9120434E5,1.9358094E5,1.7564566E5,1.3153672E5,4.9717844E4,2.413389E5,6.633095E5,0E0,0E0,0E0,0E0,0E0,0E0,0E0,0E0],"parents":[2147483647,0,0,1,1,2,2,3,3,4,4,5,5,6,6],"right_children":[2,4,6,8,10,12,14,-1,-1,-1,-1,-1,-1,-1,-1],"split_conditions":[-9.967737E0,9.9E0,1.4297982E-3,-1.2080995E-1,3.15E2,3.8893837E1,2.8723686E0,7.1270404E0,4.9020195E-1,-4.3174205E0,1.3084549E0,3.1059885E-1,-6.195637E-1,-3.7721107E0,-2.549916E-1],"split_indices":[17,0,6,5,1,4,4,0,0,0,0,0,0,0,0],"split_type":[0,0,0,0,0,0,0,0,0,0,0,0,0,0,0],"sum_hessian":[2.5773E4,6.965E3,1.8808E4,6.843E3,1.22E2,1.3298E4,5.51E3,2.9E1,6.814E3,1.04E2,1.8E1,9.318E3,3.98E3,6.01E2,4.909E3],"tree_param":{"num_deleted":"0","num_feature":"19","num_nodes":"15","size_leaf_vector":"1"}},{"base_weights":[1.7936501E-1,1.1700863E1,-5.421638E-1,1.999412E1,-6.185863E0,1.2967293E0,-5.5870223E0,4.6667385E0,1.73762E0,2.5549223E0,-1.3656228E0,2.5566804E-1,-2.0804458E0,-9.4868535E-1,1.8086586E0],"categories":[],"categories_nodes":[],"categories_segments":[],"categories_sizes":[],"default_left":[0,0,0,0,0,0,0,0,0,0,0,0,0,0,0],"id":58,"left_children":[1,3,5,7,9,11,13,-1,-1,-1,-1,-1,-1,-1,-1],"loss_changes":[2.1384402E5,2.2500588E5,2.245838E5,7.153144E4,1.1438086E5,4.941042E5,5.9722494E5,0E0,0E0,0E0,0E0,0E0,0E0,0E0,0E0],"parents":[2147483647,0,0,1,1,2,2,3,3,4,4,5,5,6,6],"right_children":[2,4,6,8,10,12,14,-1,-1,-1,-1,-1,-1,-1,-1],"split_conditions":[-3.0741308E0,5E0,3.6346466E1,4.018108E1,4.0458908E1,-3.3479464E-1,-4.196118E-1,4.6667385E0,1.73762E0,2.5549223E0,-1.3656228E0,2.5566804E-1,-2.0804458E0,-9.4868535E-1,1.8086586E0],"split_indices":[11,0,4,4,3,11,11,0,0,0,0,0,0,0,0],"split_type":[0,0,0,0,0,0,0,0,0,0,0,0,0,0,0],"sum_hessian":[2.5722E4,1.515E3,2.4207E4,1.035E3,4.8E2,1.7741E4,6.466E3,9.1E1,9.44E2,9.1E1,3.89E2,1.6785E4,9.56E2,5.552E3,9.14E2],"tree_param":{"num_deleted":"0","num_feature":"19","num_nodes":"15","size_leaf_vector":"1"}},{"base_weights":[-1.08709216E-1,-2.3103337E0,3.4359505E0,-7.057381E0,-6.2157905E-1,5.3127227E0,-5.4264007E0,-3.0164409E0,-4.0200123E-1,1.6609326E-1,-5.816285E-1,5.912098E-1,-1.7968949E0,-6.626126E-1,6.5089426E0],"categories":[],"categories_nodes":[],"categories_segments":[],"categories_sizes":[],"default_left":[0,0,0,0,0,0,0,0,0,0,0,0,0,0,0],"id":59,"left_children":[1,3,5,7,9,11,13,-1,-1,-1,-1,-1,-1,-1,-1],"loss_changes":[2.0134358E5,1.2757977E5,1.6444222E5,2.9296947E5,1.3921056E5,1.1394666E5,1.4661938E5,0E0,0E0,0E0,0E0,0E0,0E0,0E0,0E0],"parents":[2147483647,0,0,1,1,2,2,3,3,4,4,5,5,6,6],"right_children":[2,4,6,8,10,12,14,-1,-1,-1,-1,-1,-1,-1,-1],"split_conditions":[5E2,-4.209657E-3,4.0459057E1,2.1E0,9.7859675E-1,9.5E0,4.170298E-2,-3.0164409E0,-4.0200123E-1,1.6609326E-1,-5.816285E-1,5.912098E-1,-1.7968949E0,-6.626126E-1,6.5089426E0],"split_indices":[18,15,3,0,8,0,6,0,0,0,0,0,0,0,0],"split_type":[0,0,0,0,0,0,0,0,0,0,0,0,0,0,0],"sum_hessian":[2.5798E4,1.5914E4,9.884E3,4.175E3,1.1739E4,8.157E3,1.727E3,4.84E2,3.691E3,8.156E3,3.583E3,7.953E3,2.04E2,1.699E3,2.8E1],"tree_param":{"num_deleted":"0","num_feature":"19","num_nodes":"15","size_leaf_vector":"1"}},{"base_weights":[2.953328E-1,-3.6821647E0,2.2147255E0,-4.0195704E0,3.666629E1,2.9769318E0,-9.410452E0,-6.916987E-1,4.7225315E-2,5.3779755E0,-6.42951E-2,2.4743633E-1,3.5819032E0,-1.9175905E0,1.6965119E0],"categories":[],"categories_nodes":[],"categories_segments":[],"categories_sizes":[],"default_left":[0,0,0,0,0,0,0,0,0,0,0,0,0,0,0],"id":60,"left_children":[1,3,5,7,9,11,13,-1,-1,-1,-1,-1,-1,-1,-1],"loss_changes":[1.977004E5,1.14898016E5,1.5479938E5,1.08806E5,4.4728906E4,2.704845E5,2.772124E5,0E0,0E0,0E0,0E0,0E0,0E0,0E0,0E0],"parents":[2147483647,0,0,1,1,2,2,3,3,4,4,5,5,6,6],"right_children":[2,4,6,8,10,12,14,-1,-1,-1,-1,-1,-1,-1,-1],"split_conditions":[2.5E2,2.3135501E-1,6.3E0,4.045902E1,7.7303E1,7.116207E-2,1.8655877E-1,-6.916987E-1,4.7225315E-2,5.3779755E0,-6.42951E-2,2.4743633E-1,3.5819032E0,-1.9175905E0,1.6965119E0],"split_indices":[18,5,0,3,4,5,11,0,0,0,0,0,0,0,0],"split_type":[0,0,0,0,0,0,0,0,0,0,0,0,0,0,0],"sum_hessian":[2.5894E4,8.428E3,1.7466E4,8.359E3,6.9E1,1.6392E4,1.074E3,5.081E3,3.278E3,4.7E1,2.2E1,1.6146E4,2.46E2,7.84E2,2.9E2],"tree_param":{"num_deleted":"0","num_feature":"19","num_nodes":"15","size_leaf_vector":"1"}},{"base_weights":[3.4803737E-2,-2.0324616E0,3.3231037E0,-2.3879209E0,2.2681787E1,4.861885E0,-4.0055847E0,-6.432648E-2,-7.961476E-1,1.5082073E0,8.570098E0,-9.277507E-1,5.6070584E-1,2.7200935E0,-6.0784286E-1],"categories":[],"categories_nodes":[],"categories_segments":[],"categories_sizes":[],"default_left":[0,0,0,0,0,0,0,0,0,0,0,0,0,0,0],"id":61,"left_children":[1,3,5,7,9,11,13,-1,-1,-1,-1,-1,-1,-1,-1],"loss_changes":[1.7561403E5,1.394004E5,1.1247622E5,1.520578E5,1.06466195E5,8.689216E4,1.12137234E5,0E0,0E0,0E0,0E0,0E0,0E0,0E0,0E0],"parents":[2147483647,0,0,1,1,2,2,3,3,4,4,5,5,6,6],"right_children":[2,4,6,8,10,12,14,-1,-1,-1,-1,-1,-1,-1,-1],"split_conditions":[5E2,1.9433045E-1,4.0459057E1,5.4037543E-3,6.6797227E-1,-9.8948944E-1,-3.1402376E0,-6.432648E-2,-7.961476E-1,1.5082073E0,8.570098E0,-9.277507E-1,5.6070584E-1,2.7200935E0,-6.0784286E-1],"split_indices":[18,5,3,6,13,7,11,0,0,0,0,0,0,0,0],"split_type":[0,0,0,0,0,0,0,0,0,0,0,0,0,0,0],"sum_hessian":[2.5832E4,1.5861E4,9.971E3,1.5637E4,2.24E2,8.241E3,1.73E3,1.191E4,3.727E3,2.01E2,2.3E1,4.12E2,7.829E3,1.07E2,1.623E3],"tree_param":{"num_deleted":"0","num_feature":"19","num_nodes":"15","size_leaf_vector":"1"}},{"base_weights":[-2.175048E-1,8.0821496E-1,-5.351736E0,-1.8790202E0,5.1799607E0,-9.662779E0,9.249267E0,-1.3059638E0,1.6759312E-2,-9.194274E-1,6.8658835E-1,-1.2305502E0,1.5271475E0,1.526874E0,-7.316516E-1],"categories":[],"categories_nodes":[],"categories_segments":[],"categories_sizes":[],"default_left":[0,0,0,0,0,0,0,0,0,0,0,0,0,0,0],"id":62,"left_children":[1,3,5,7,9,11,13,-1,-1,-1,-1,-1,-1,-1,-1],"loss_changes":[1.3700666E5,2.5475139E5,2.7276953E5,3.0731284E5,2.0011353E5,2.2060431E5,9.8632375E4,0E0,0E0,0E0,0E0,0E0,0E0,0E0,0E0],"parents":[2147483647,0,0,1,1,2,2,3,3,4,4,5,5,6,6],"right_children":[2,4,6,8,10,12,14,-1,-1,-1,-1,-1,-1,-1,-1],"split_conditions":[4.9E0,2.8E0,-7.978273E1,2.1483402E-3,-7.9782814E1,1.6420054E-1,9.6E0,-1.3059638E0,1.6759312E-2,-9.194274E-1,6.8658835E-1,-1.2305502E0,1.5271475E0,1.526874E0,-7.316516E-1],"split_indices":[0,0,2,15,2,5,0,0,0,0,0,0,0,0,0],"split_type":[0,0,0,0,0,0,0,0,0,0,0,0,0,0,0],"sum_hessian":[2.6014E4,2.1683E4,4.331E3,1.3429E4,8.254E3,3.344E3,9.87E2,2.077E3,1.1352E4,8.66E2,7.388E3,3.024E3,3.2E2,7.24E2,2.63E2],"tree_param":{"num_deleted":"0","num_feature":"19","num_nodes":"15","size_leaf_vector":"1"}},{"base_weights":[-2.4591272E-1,9.55663E0,-8.8833463E-1,8.250873E1,8.902929E0,7.312563E-1,-5.674617E0,-6.1879885E-1,8.980756E0,3.027926E0,6.880681E-1,2.0796275E-1,-1.7908396E0,-9.2133325E-1,1.4545634E0],"categories":[],"categories_nodes":[],"categories_segments":[],"categories_sizes":[],"default_left":[0,0,0,0,0,0,0,0,0,0,0,0,0,0,0],"id":63,"left_children":[1,3,5,7,9,11,13,-1,-1,-1,-1,-1,-1,-1,-1],"loss_changes":[1.6279545E5,7.509069E4,1.8807105E5,9.61907E3,6.796264E4,4.5565138E5,4.390445E5,0E0,0E0,0E0,0E0,0E0,0E0,0E0,0E0],"parents":[2147483647,0,0,1,1,2,2,3,3,4,4,5,5,6,6],"right_children":[2,4,6,8,10,12,14,-1,-1,-1,-1,-1,-1,-1,-1],"split_conditions":[-3.0645835E0,-1.0969745E1,3.8263588E1,-5.0430562E-2,3.9553032E1,-4.196118E-1,-4.196118E-1,-6.1879885E-1,8.980756E0,3.027926E0,6.880681E-1,2.0796275E-1,-1.7908396E0,-9.2133325E-1,1.4545634E0],"split_indices":[11,17,4,5,4,11,11,0,0,0,0,0,0,0,0],"split_type":[0,0,0,0,0,0,0,0,0,0,0,0,0,0,0],"sum_hessian":[2.5849E4,1.589E3,2.426E4,1.3E1,1.576E3,1.8127E4,6.133E3,1E0,1.2E1,1.35E2,1.441E3,1.6905E4,1.222E3,5.22E3,9.13E2],"tree_param":{"num_deleted":"0","num_feature":"19","num_nodes":"15","size_leaf_vector":"1"}},{"base_weights":[-9.3777455E-2,-4.1999495E-1,1.933476E1,5.656162E-1,-5.6938343E0,3.9234364E1,-3.68055E1,1.4987332E-1,-1.4384023E0,-1.4967419E0,9.162098E-1,2.0020435E0,5.003221E0,-6.7504983E0,3.5608175E0],"categories":[],"categories_nodes":[],"categories_segments":[],"categories_sizes":[],"default_left":[0,0,0,0,0,0,0,0,0,0,0,0,0,0,0],"id":64,"left_children":[1,3,5,7,9,11,13,-1,-1,-1,-1,-1,-1,-1,-1],"loss_changes":[1.6350133E5,1.3188053E5,4.773579E5,2.9822566E5,5.5051925E5,6.4351125E4,2.5138672E5,0E0,0E0,0E0,0E0,0E0,0E0,0E0,0E0],"parents":[2147483647,0,0,1,1,2,2,3,3,4,4,5,5,6,6],"right_children":[2,4,6,8,10,12,14,-1,-1,-1,-1,-1,-1,-1,-1],"split_conditions":[1.6420054E-1,4.9E0,8.4E0,-3.8560715E-1,-1.668737E0,-2.5297534E-1,5.1207733E-1,1.4987332E-1,-1.4384023E0,-1.4967419E0,9.162098E-1,2.0020435E0,5.003221E0,-6.7504983E0,3.5608175E0],"split_indices":[5,0,0,11,11,13,13,0,0,0,0,0,0,0,0],"split_type":[0,0,0,0,0,0,0,0,0,0,0,0,0,0,0],"sum_hessian":[2.5795E4,2.537E4,4.25E2,2.1376E4,3.994E3,3.14E2,1.11E2,2.0121E4,1.255E3,2.459E3,1.535E3,1.14E2,2E2,7.8E1,3.3E1],"tree_param":{"num_deleted":"0","num_feature":"19","num_nodes":"15","size_leaf_vector":"1"}},{"base_weights":[5.5985027E-3,-1.8672568E0,3.0390637E0,8.901574E0,-2.6090374E0,4.6452217E0,-4.63512E0,1.8881375E0,1.2989491E-1,-2.3004858E-1,-3.8786805E0,-2.3599138E0,5.2112263E-1,-2.8676698E-1,-5.4714217E0],"categories":[],"categories_nodes":[],"categories_segments":[],"categories_sizes":[],"default_left":[0,0,0,0,0,0,0,0,0,0,0,0,0,0,0],"id":65,"left_children":[1,3,5,7,9,11,13,-1,-1,-1,-1,-1,-1,-1,-1],"loss_changes":[1.4640558E5,1.27297766E5,1.21271914E5,7.789671E4,1.6631317E5,1.3017266E5,1.5057955E5,0E0,0E0,0E0,0E0,0E0,0E0,0E0,0E0],"parents":[2147483647,0,0,1,1,2,2,3,3,4,4,5,5,6,6],"right_children":[2,4,6,8,10,12,14,-1,-1,-1,-1,-1,-1,-1,-1],"split_conditions":[5E2,-3.931256E-2,4.0459057E1,3.3281067E1,1.01E1,9E-1,-2.8244296E-1,1.8881375E0,1.2989491E-1,-2.3004858E-1,-3.8786805E0,-2.3599138E0,5.2112263E-1,-2.8676698E-1,-5.4714217E0],"split_indices":[18,6,3,4,0,0,11,0,0,0,0,0,0,0,0],"split_type":[0,0,0,0,0,0,0,0,0,0,0,0,0,0,0],"sum_hessian":[2.5768E4,1.5932E4,9.836E3,1.026E3,1.4906E4,8.134E3,1.702E3,4.43E2,5.83E2,1.4781E4,1.25E2,1.59E2,7.975E3,1.645E3,5.7E1],"tree_param":{"num_deleted":"0","num_feature":"19","num_nodes":"15","size_leaf_vector":"1"}},{"base_weights":[-1.15772225E-1,1.8738813E1,-4.1837853E-1,6.2448097E1,1.6324808E1,-4.243842E0,8.832853E-1,8.586299E0,-1.0399617E0,1.1456379E0,4.034091E0,-1.9809828E0,-1.7015775E-1,3.1562436E-1,-4.5943642E-1],"categories":[],"categories_nodes":[],"categories_segments":[],"categories_sizes":[],"default_left":[0,0,0,0,0,0,0,0,0,0,0,0,0,0,0],"id":66,"left_children":[1,3,5,7,9,11,13,-1,-1,-1,-1,-1,-1,-1,-1],"loss_changes":[1.4736992E5,4.203042E4,1.265868E5,3.6713086E4,4.490308E4,2.5536947E5,2.3617498E5,0E0,0E0,0E0,0E0,0E0,0E0,0E0,0E0],"parents":[2147483647,0,0,1,1,2,2,3,3,4,4,5,5,6,6],"right_children":[2,4,6,8,10,12,14,-1,-1,-1,-1,-1,-1,-1,-1],"split_conditions":[-3.2907398E0,-4.604001E-2,-1.3286154E-3,5.8E0,2.9075705E-2,2.1E0,3.7011713E-1,8.586299E0,-1.0399617E0,1.1456379E0,4.034091E0,-1.9809828E0,-1.7015775E-1,3.1562436E-1,-4.5943642E-1],"split_indices":[11,6,15,0,5,0,15,0,0,0,0,0,0,0,0],"split_type":[0,0,0,0,0,0,0,0,0,0,0,0,0,0,0],"sum_hessian":[2.5827E4,4.07E2,2.542E4,2E1,3.87E2,6.453E3,1.8967E4,1.5E1,5E0,3.23E2,6.4E1,9.05E2,5.548E3,1.3405E4,5.562E3],"tree_param":{"num_deleted":"0","num_feature":"19","num_nodes":"15","size_leaf_vector":"1"}},{"base_weights":[-6.901328E-2,8.568638E0,-6.535989E-1,1.6081457E1,-2.3321311E0,8.5074604E-1,-5.013819E0,5.142513E0,1.4586833E0,3.3694763E0,-6.591427E-1,2.0406309E-1,-1.7309725E0,-8.183281E-1,1.3310237E0],"categories":[],"categories_nodes":[],"categories_segments":[],"categories_sizes":[],"default_left":[0,0,0,0,0,0,0,0,0,0,0,0,0,0,0],"id":67,"left_children":[1,3,5,7,9,11,13,-1,-1,-1,-1,-1,-1,-1,-1],"loss_changes":[1.3063984E5,1.3434611E5,1.5894862E5,5.0543453E4,1.03033055E5,3.8936228E5,3.6111797E5,0E0,0E0,0E0,0E0,0E0,0E0,0E0,0E0],"parents":[2147483647,0,0,1,1,2,2,3,3,4,4,5,5,6,6],"right_children":[2,4,6,8,10,12,14,-1,-1,-1,-1,-1,-1,-1,-1],"split_conditions":[-3.0645835E0,4.6E0,3.7601337E1,-3.523249E-1,3.9553032E1,-3.8560715E-1,-4.196118E-1,5.142513E0,1.4586833E0,3.3694763E0,-6.591427E-1,2.0406309E-1,-1.7309725E0,-8.183281E-1,1.3310237E0],"split_indices":[11,0,4,12,4,11,11,0,0,0,0,0,0,0,0],"split_type":[0,0,0,0,0,0,0,0,0,0,0,0,0,0,0],"sum_hessian":[2.587E4,1.639E3,2.4231E4,9.7E2,6.69E2,1.8016E4,6.215E3,3.8E1,9.32E2,7E1,5.99E2,1.6909E4,1.107E3,5.299E3,9.16E2],"tree_param":{"num_deleted":"0","num_feature":"19","num_nodes":"15","size_leaf_vector":"1"}},{"base_weights":[-1.1864514E-1,2.9806252E0,-1.5920677E0,2.1276978E1,2.1367552E0,-2.2257605E0,1.2102294E1,3.2356117E0,-7.065784E0,2.0489318E0,1.5326211E-1,-1.2608014E-1,-3.1904066E0,6.9493585E0,1.018589E0],"categories":[],"categories_nodes":[],"categories_segments":[],"categories_sizes":[],"default_left":[0,0,0,0,0,0,0,0,0,0,0,0,0,0,0],"id":68,"left_children":[1,3,5,7,9,11,13,-1,-1,-1,-1,-1,-1,-1,-1],"loss_changes":[1.1864789E5,1.2921603E5,1.5284681E5,3.781343E5,8.871226E4,4.820005E5,8.497035E4,0E0,0E0,0E0,0E0,0E0,0E0,0E0,0E0],"parents":[2147483647,0,0,1,1,2,2,3,3,4,4,5,5,6,6],"right_children":[2,4,6,8,10,12,14,-1,-1,-1,-1,-1,-1,-1,-1],"split_conditions":[-9.922781E0,8.452222E-1,-1.6879658E-1,9.8734057E-1,-1.1229735E1,-3.8560715E-1,3.8535932E-1,3.2356117E0,-7.065784E0,2.0489318E0,1.5326211E-1,-1.2608014E-1,-3.1904066E0,6.9493585E0,1.018589E0],"split_indices":[17,4,11,8,17,11,4,0,0,0,0,0,0,0,0],"split_type":[0,0,0,0,0,0,0,0,0,0,0,0,0,0,0],"sum_hessian":[2.598E4,8.371E3,1.7609E4,3.68E2,8.003E3,1.6831E4,7.78E2,3.29E2,3.9E1,2.54E2,7.749E3,1.6302E4,5.29E2,2.4E1,7.54E2],"tree_param":{"num_deleted":"0","num_feature":"19","num_nodes":"15","size_leaf_vector":"1"}},{"base_weights":[1.5743089E-1,1.5209772E1,-3.3311132E-1,-2.3695282E1,1.9898129E1,1.5763175E1,-6.7396176E-1,-1.7329947E1,-6.568622E-1,1.5449331E0,4.471139E0,-6.8310803E-1,7.681646E0,8.2108416E-2,-4.10897E-1],"categories":[],"categories_nodes":[],"categories_segments":[],"categories_sizes":[],"default_left":[0,0,0,0,0,0,0,0,0,0,0,0,0,0,0],"id":69,"left_children":[1,3,5,7,9,11,13,-1,-1,-1,-1,-1,-1,-1,-1],"loss_changes":[1.9044086E5,1.4894569E5,1.370506E5,2.24337E5,7.956216E4,7.150816E5,1.2562272E5,0E0,0E0,0E0,0E0,0E0,0E0,0E0,0E0],"parents":[2147483647,0,0,1,1,2,2,3,3,4,4,5,5,6,6],"right_children":[2,4,6,8,10,12,14,-1,-1,-1,-1,-1,-1,-1,-1],"split_conditions":[-1.0741674E1,4.0458908E1,6.0195243E-1,2E0,3.029336E-2,-9.74595E0,-1.0184656E0,-1.7329947E1,-6.568622E-1,1.5449331E0,4.471139E0,-6.8310803E-1,7.681646E0,8.2108416E-2,-4.10897E-1],"split_indices":[17,3,4,0,6,17,11,0,0,0,0,0,0,0,0],"split_type":[0,0,0,0,0,0,0,0,0,0,0,0,0,0,0],"sum_hessian":[2.579E4,8.13E2,2.4977E4,8.7E1,7.26E2,5.17E2,2.446E4,8E0,7.9E1,6.17E2,1.09E2,3.78E2,1.39E2,1.7043E4,7.417E3],"tree_param":{"num_deleted":"0","num_feature":"19","num_nodes":"15","size_leaf_vector":"1"}},{"base_weights":[1.1498595E-1,1.5769257E1,-2.6144028E-1,3.544584E1,-5.4708893E1,1.965672E1,-5.5234104E-1,2.4632065E0,8.369566E0,3.3735301E0,-6.6336226E0,2.8489635E0,-3.108763E0,5.906095E-1,-1.2532498E-1],"categories":[],"categories_nodes":[],"categories_segments":[],"categories_sizes":[],"default_left":[0,0,0,0,0,0,0,0,0,0,0,0,0,0,0],"id":70,"left_children":[1,3,5,7,9,11,13,-1,-1,-1,-1,-1,-1,-1,-1],"loss_changes":[1.513222E5,8.3816094E5,1.453122E5,2.4421038E5,1.3798272E5,1.6269331E5,1.1189568E5,0E0,0E0,0E0,0E0,0E0,0E0,0E0,0E0],"parents":[2147483647,0,0,1,1,2,2,3,3,4,4,5,5,6,6],"right_children":[2,4,6,8,10,12,14,-1,-1,-1,-1,-1,-1,-1,-1],"split_conditions":[6.0195243E-1,9.8469025E-1,-1.1079643E1,2.4E0,-1.02270246E-1,2.2452663E-1,-2.9787676E0,2.4632065E0,8.369566E0,3.3735301E0,-6.6336226E0,2.8489635E0,-3.108763E0,5.906095E-1,-1.2532498E-1],"split_indices":[4,8,17,0,10,12,11,0,0,0,0,0,0,0,0],"split_type":[0,0,0,0,0,0,0,0,0,0,0,0,0,0,0],"sum_hessian":[2.5678E4,6.02E2,2.5076E4,4.71E2,1.31E2,3.6E2,2.4716E4,3.86E2,8.5E1,1.5E1,1.16E2,3.07E2,5.3E1,2.419E3,2.2297E4],"tree_param":{"num_deleted":"0","num_feature":"19","num_nodes":"15","size_leaf_vector":"1"}},{"base_weights":[-1.538715E-1,-3.9315483E-1,1.9948795E1,-4.054686E0,8.499083E-1,2.5986935E1,-3.406407E1,-2.4628453E0,-2.132486E-1,2.9924113E-1,-2.4037182E-1,2.8722367E-1,3.8437154E0,-6.38744E0,1.845848E0],"categories":[],"categories_nodes":[],"categories_segments":[],"categories_sizes":[],"default_left":[0,0,0,0,0,0,0,0,0,0,0,0,0,0,0],"id":71,"left_children":[1,3,5,7,9,11,13,-1,-1,-1,-1,-1,-1,-1,-1],"loss_changes":[1.2431388E5,1.1624458E5,1.00030945E5,2.5593453E5,1.3292144E5,7.874214E4,4.971617E4,0E0,0E0,0E0,0E0,0E0,0E0,0E0,0E0],"parents":[2147483647,0,0,1,1,2,2,3,3,4,4,5,5,6,6],"right_children":[2,4,6,8,10,12,14,-1,-1,-1,-1,-1,-1,-1,-1],"split_conditions":[1.9433045E-1,2.1483402E-3,1.94E2,3.8477006E0,3.053153E-1,-2.5297534E-1,1.2782322E-1,-2.4628453E0,-2.132486E-1,2.9924113E-1,-2.4037182E-1,2.8722367E-1,3.8437154E0,-6.38744E0,1.845848E0],"split_indices":[5,15,1,4,15,13,7,0,0,0,0,0,0,0,0],"split_type":[0,0,0,0,0,0,0,0,0,0,0,0,0,0,0],"sum_hessian":[2.5841E4,2.5538E4,3.03E2,6.472E3,1.9066E4,2.73E2,3E1,5.52E2,5.92E3,1.1496E4,7.57E3,9.6E1,1.77E2,1.9E1,1.1E1],"tree_param":{"num_deleted":"0","num_feature":"19","num_nodes":"15","size_leaf_vector":"1"}},{"base_weights":[1.9730544E-1,-3.1423185E0,1.7754291E0,-2.1641073E0,-1.6030355E1,1.5574403E1,1.3605492E0,-2.4146762E-1,7.846311E0,3.8483202E-1,-2.5702646E0,2.108012E0,-1.2071251E0,1.9058647E0,9.960705E-2],"categories":[],"categories_nodes":[],"categories_segments":[],"categories_sizes":[],"default_left":[0,0,0,0,0,0,0,0,0,0,0,0,0,0,0],"id":72,"left_children":[1,3,5,7,9,11,13,-1,-1,-1,-1,-1,-1,-1,-1],"loss_changes":[1.3669183E5,1.0489523E5,1.008118E5,1.564976E5,1.1296275E5,7.848993E4,1.1028594E5,0E0,0E0,0E0,0E0,0E0,0E0,0E0,0E0],"parents":[2147483647,0,0,1,1,2,2,3,3,4,4,5,5,6,6],"right_children":[2,4,6,8,10,12,14,-1,-1,-1,-1,-1,-1,-1,-1],"split_conditions":[2.5E2,7.980211E1,-1.0741674E1,2.684321E-1,4.045893E1,4.8451757E-1,6.0195243E-1,-2.4146762E-1,7.846311E0,3.8483202E-1,-2.5702646E0,2.108012E0,-1.2071251E0,1.9058647E0,9.960705E-2],"split_indices":[18,4,17,5,3,16,4,0,0,0,0,0,0,0,0],"split_type":[0,0,0,0,0,0,0,0,0,0,0,0,0,0,0],"sum_hessian":[2.5934E4,8.322E3,1.7612E4,7.736E3,5.86E2,5.13E2,1.7099E4,7.713E3,2.3E1,1.92E2,3.94E2,4.28E2,8.5E1,3.44E2,1.6755E4],"tree_param":{"num_deleted":"0","num_feature":"19","num_nodes":"15","size_leaf_vector":"1"}},{"base_weights":[1.9643162E-1,4.0788883E-1,-2.003767E1,-2.3594028E-1,1.1030349E1,-2.9073124E1,3.0476616E1,4.436252E-2,-1.797088E0,1.7493632E0,-1.6826095E-1,-6.1190324E0,-6.732588E-1,3.7986686E0,-1.966326E0],"categories":[],"categories_nodes":[],"categories_segments":[],"categories_sizes":[],"default_left":[0,0,0,0,0,0,0,0,0,0,0,0,0,0,0],"id":73,"left_children":[1,3,5,7,9,11,13,-1,-1,-1,-1,-1,-1,-1,-1],"loss_changes":[1.1045716E5,1.7472664E5,1.2275004E5,2.903299E5,1.1999391E5,1.6246405E5,1.6185664E4,0E0,0E0,0E0,0E0,0E0,0E0,0E0,0E0],"parents":[2147483647,0,0,1,1,2,2,3,3,4,4,5,5,6,6],"right_children":[2,4,6,8,10,12,14,-1,-1,-1,-1,-1,-1,-1,-1],"split_conditions":[1.03E1,4.9664137E-1,-1.23993166E-1,-3.3479464E-1,8E0,7.331774E1,-7.978253E1,4.436252E-2,-1.797088E0,1.7493632E0,-1.6826095E-1,-6.1190324E0,-6.732588E-1,3.7986686E0,-1.966326E0],"split_indices":[0,10,9,11,0,4,2,0,0,0,0,0,0,0,0],"split_type":[0,0,0,0,0,0,0,0,0,0,0,0,0,0,0],"sum_hessian":[2.5813E4,2.5547E4,2.66E2,2.4088E4,1.459E3,2.26E2,4E1,2.32E4,8.88E2,9.67E2,4.92E2,9.2E1,1.34E2,3.5E1,5E0],"tree_param":{"num_deleted":"0","num_feature":"19","num_nodes":"15","size_leaf_vector":"1"}},{"base_weights":[-1.9644047E-1,3.2827526E1,-3.3160976E-1,3.987109E1,-5.844002E1,-5.077232E0,6.137942E-1,1.3310216E1,3.5571141E0,5.44043E-1,-6.8343005E0,-2.6044486E0,-2.7239457E-1,2.2105297E-2,1.8698233E0],"categories":[],"categories_nodes":[],"categories_segments":[],"categories_sizes":[],"default_left":[0,0,0,0,0,0,0,0,0,0,0,0,0,0,0],"id":74,"left_children":[1,3,5,7,9,11,13,-1,-1,-1,-1,-1,-1,-1,-1],"loss_changes":[1.16074836E5,7.047205E4,1.161863E5,3.4953406E4,5.432672E3,2.1219812E5,1.5337447E5,0E0,0E0,0E0,0E0,0E0,0E0,0E0,0E0],"parents":[2147483647,0,0,1,1,2,2,3,3,4,4,5,5,6,6],"right_children":[2,4,6,8,10,12,14,-1,-1,-1,-1,-1,-1,-1,-1],"split_conditions":[-1.2080995E-1,-9.527254E-4,-9.104048E-2,-1.1980106E0,8.2E1,6.0190563E0,6.196263E-2,1.3310216E1,3.5571141E0,5.44043E-1,-6.8343005E0,-2.6044486E0,-2.7239457E-1,2.2105297E-2,1.8698233E0],"split_indices":[5,6,15,11,1,4,5,0,0,0,0,0,0,0,0],"split_type":[0,0,0,0,0,0,0,0,0,0,0,0,0,0,0],"sum_hessian":[2.6E4,1.05E2,2.5895E4,9.8E1,7E0,4.301E3,2.1594E4,3E0,9.5E1,1E0,6E0,4.33E2,3.868E3,2.1136E4,4.58E2],"tree_param":{"num_deleted":"0","num_feature":"19","num_nodes":"15","size_leaf_vector":"1"}},{"base_weights":[-1.4182612E-1,1.2203588E1,-4.955883E-1,3.1578949E1,-2.48708E1,-2.041638E-1,-1.492539E1,2.04536E0,7.922563E0,-4.644764E0,2.5231388E0,-1.8180487E-1,2.4265645E-1,3.2726057E0,-1.9291182E0],"categories":[],"categories_nodes":[],"categories_segments":[],"categories_sizes":[],"default_left":[0,0,0,0,0,0,0,0,0,0,0,0,0,0,0],"id":75,"left_children":[1,3,5,7,9,11,13,-1,-1,-1,-1,-1,-1,-1,-1],"loss_changes":[1.12565516E5,5.1654606E5,1.0536239E5,2.4858022E5,2.681905E5,1.0428286E5,1.0381733E5,0E0,0E0,0E0,0E0,0E0,0E0,0E0,0E0],"parents":[2147483647,0,0,1,1,2,2,3,3,4,4,5,5,6,6],"right_children":[2,4,6,8,10,12,14,-1,-1,-1,-1,-1,-1,-1,-1],"split_conditions":[7.1983236E-1,-2.7303225E-1,-8.572635E0,-9.618678E0,1.771527E-1,5E2,-2.838537E0,2.04536E0,7.922563E0,-4.644764E0,2.5231388E0,-1.8180487E-1,2.4265645E-1,3.2726057E0,-1.9291182E0],"split_indices":[4,7,17,17,7,18,11,0,0,0,0,0,0,0,0],"split_type":[0,0,0,0,0,0,0,0,0,0,0,0,0,0,0],"sum_hessian":[2.5772E4,7.17E2,2.5055E4,4.71E2,2.46E2,2.456E4,4.95E2,3.83E2,8.8E1,1.72E2,7.4E1,1.5222E4,9.338E3,4.1E1,4.54E2],"tree_param":{"num_deleted":"0","num_feature":"19","num_nodes":"15","size_leaf_vector":"1"}},{"base_weights":[-3.2065693E-2,-8.2623655E-1,6.58308E0,6.267846E-2,-1.15895E1,1.1308697E-1,1.309039E1,8.112048E-2,-1.5896564E0,-1.5726115E0,1.4244016E0,3.562409E0,-1.5678343E-1,1.8622458E0,4.0311956E-1],"categories":[],"categories_nodes":[],"categories_segments":[],"categories_sizes":[],"default_left":[0,0,0,0,0,0,0,0,0,0,0,0,0,0,0],"id":76,"left_children":[1,3,5,7,9,11,13,-1,-1,-1,-1,-1,-1,-1,-1],"loss_changes":[1.3606203E5,2.2123295E5,1.1687437E5,2.5517761E5,1.8873084E5,8.320569E4,6.928559E4,0E0,0E0,0E0,0E0,0E0,0E0,0E0,0E0],"parents":[2147483647,0,0,1,1,2,2,3,3,4,4,5,5,6,6],"right_children":[2,4,6,8,10,12,14,-1,-1,-1,-1,-1,-1,-1,-1],"split_conditions":[-7.978273E1,5.9E0,3.5E0,-3.3479464E-1,9.8982525E-1,8.452222E-1,9.859211E-1,8.112048E-2,-1.5896564E0,-1.5726115E0,1.4244016E0,3.562409E0,-1.5678343E-1,1.8622458E0,4.0311956E-1],"split_indices":[2,0,0,11,8,4,8,0,0,0,0,0,0,0,0],"split_type":[0,0,0,0,0,0,0,0,0,0,0,0,0,0,0],"sum_hessian":[2.5897E4,2.3122E4,2.775E3,2.1359E4,1.763E3,1.392E3,1.383E3,2.0403E4,9.56E2,1.52E3,2.43E2,6.2E1,1.33E3,8.58E2,5.25E2],"tree_param":{"num_deleted":"0","num_feature":"19","num_nodes":"15","size_leaf_vector":"1"}},{"base_weights":[1.03349864E-1,1.42358E1,-2.2758704E-1,-1.3489246E1,1.8337526E1,7.495584E-2,-1.3272903E1,-1.2900838E1,5.677914E-1,2.488937E0,1.9887558E-1,2.0775893E-1,-2.2137497E-1,-1.3942531E0,8.563473E0],"categories":[],"categories_nodes":[],"categories_segments":[],"categories_sizes":[],"default_left":[0,0,0,0,0,0,0,0,0,0,0,0,0,0,0],"id":77,"left_children":[1,3,5,7,9,11,13,-1,-1,-1,-1,-1,-1,-1,-1],"loss_changes":[1.2121107E5,6.768366E4,9.9948945E4,1.7122389E5,5.532872E4,1.1344927E5,3.921075E4,0E0,0E0,0E0,0E0,0E0,0E0,0E0,0E0],"parents":[2147483647,0,0,1,1,2,2,3,3,4,4,5,5,6,6],"right_children":[2,4,6,8,10,12,14,-1,-1,-1,-1,-1,-1,-1,-1],"split_conditions":[-3.6758327E-1,2.5E0,-8.621961E0,-9.07921E-2,7.447495E1,-5.167635E-3,2.3135501E-1,-1.2900838E1,5.677914E-1,2.488937E0,1.9887558E-1,2.0775893E-1,-2.2137497E-1,-1.3942531E0,8.563473E0],"split_indices":[13,0,17,14,4,6,5,0,0,0,0,0,0,0,0],"split_type":[0,0,0,0,0,0,0,0,0,0,0,0,0,0,0],"sum_hessian":[2.5915E4,5.92E2,2.5323E4,7.6E1,5.16E2,2.475E4,5.73E2,1E1,6.6E1,3.68E2,1.48E2,1.32E4,1.155E4,5.7E2,3E0],"tree_param":{"num_deleted":"0","num_feature":"19","num_nodes":"15","size_leaf_vector":"1"}},{"base_weights":[-1.2814428E-1,8.819325E-2,-2.0054083E1,-4.871973E-1,7.6801744E0,-6.669283E-1,-3.6120625E1,3.5169255E-2,-5.896257E-1,1.0757821E0,-3.1067984E0,7.990242E0,-3.936683E-1,-4.9669647E0,-1.735079E-1],"categories":[],"categories_nodes":[],"categories_segments":[],"categories_sizes":[],"default_left":[0,0,0,0,0,0,0,0,0,0,0,0,0,0,0],"id":78,"left_children":[1,3,5,7,9,11,13,-1,-1,-1,-1,-1,-1,-1,-1],"loss_changes":[1.1157635E5,1.1185981E5,8.65686E4,1.08010695E5,2.1546688E5,3.3771688E4,7.072917E4,0E0,0E0,0E0,0E0,0E0,0E0,0E0,0E0],"parents":[2147483647,0,0,1,1,2,2,3,3,4,4,5,5,6,6],"right_children":[2,4,6,8,10,12,14,-1,-1,-1,-1,-1,-1,-1,-1],"split_conditions":[1.03E1,3.829472E-2,6.5952847E-3,4.8E0,8.7E0,2.504489E1,9.801575E1,3.5169255E-2,-5.896257E-1,1.0757821E0,-3.1067984E0,7.990242E0,-3.936683E-1,-4.9669647E0,-1.735079E-1],"split_indices":[0,5,5,0,0,4,4,0,0,0,0,0,0,0,0],"split_type":[0,0,0,0,0,0,0,0,0,0,0,0,0,0,0],"sum_hessian":[2.5882E4,2.5605E4,2.77E2,2.3802E4,1.803E3,1.26E2,1.51E2,2.0607E4,3.195E3,1.671E3,1.32E2,4E0,1.22E2,1.08E2,4.3E1],"tree_param":{"num_deleted":"0","num_feature":"19","num_nodes":"15","size_leaf_vector":"1"}},{"base_weights":[1.06029205E-1,1.1714906E0,-3.8754306E0,1.9741383E1,6.940323E-1,-1.878881E0,-3.2410717E1,3.0609097E0,-4.176939E0,6.311042E-1,-4.2472616E-2,-7.7665865E-2,-3.2831142E0,-8.54469E0,-7.073644E-1],"categories":[],"categories_nodes":[],"categories_segments":[],"categories_sizes":[],"default_left":[0,0,0,0,0,0,0,0,0,0,0,0,0,0,0],"id":79,"left_children":[1,3,5,7,9,11,13,-1,-1,-1,-1,-1,-1,-1,-1],"loss_changes":[1.0941233E5,1.8038989E5,3.1015225E5,3.4220406E5,1.24666195E5,1.7362633E5,4.7778188E5,0E0,0E0,0E0,0E0,0E0,0E0,0E0,0E0],"parents":[2147483647,0,0,1,1,2,2,3,3,4,4,5,5,6,6],"right_children":[2,4,6,8,10,12,14,-1,-1,-1,-1,-1,-1,-1,-1],"split_conditions":[3.778957E-1,6.0195243E-1,-7.502748E-1,9.839187E-1,-1.00911255E1,6.6E0,2.1E0,3.0609097E0,-4.176939E0,6.311042E-1,-4.2472616E-2,-7.7665865E-2,-3.2831142E0,-8.54469E0,-7.073644E-1],"split_indices":[15,4,11,8,17,0,0,0,0,0,0,0,0,0,0],"split_type":[0,0,0,0,0,0,0,0,0,0,0,0,0,0,0],"sum_hessian":[2.579E4,2.0346E4,5.444E3,5.09E2,1.9837E4,5.089E3,3.55E2,4.33E2,7.6E1,3.294E3,1.6543E4,4.915E3,1.74E2,1.14E2,2.41E2],"tree_param":{"num_deleted":"0","num_feature":"19","num_nodes":"15","size_leaf_vector":"1"}},{"base_weights":[-3.3964727E-2,1.993372E1,-2.617109E-1,2.4990631E1,3.2281883E0,1.3008986E1,-5.845213E-1,7.032289E0,2.0446067E0,-4.2617383E0,8.2708997E-1,2.891647E0,-4.0374007E0,-4.5035443E-1,3.9012432E-2],"categories":[],"categories_nodes":[],"categories_segments":[],"categories_sizes":[],"default_left":[0,0,0,0,0,0,0,0,0,0,0,0,0,0,0],"id":80,"left_children":[1,3,5,7,9,11,13,-1,-1,-1,-1,-1,-1,-1,-1],"loss_changes":[1.1775075E5,2.4587016E4,1.0968021E5,4.4709594E4,1.6304316E4,5.174745E5,9.54703E4,0E0,0E0,0E0,0E0,0E0,0E0,0E0,0E0],"parents":[2147483647,0,0,1,1,2,2,3,3,4,4,5,5,6,6],"right_children":[2,4,6,8,10,12,14,-1,-1,-1,-1,-1,-1,-1,-1],"split_conditions":[-3.3417132E0,7.038554E1,6.0195243E-1,4.0458904E1,-2.4522017E-1,9.8469025E-1,-9.708131E-1,7.032289E0,2.0446067E0,-4.2617383E0,8.2708997E-1,2.891647E0,-4.0374007E0,-4.5035443E-1,3.9012432E-2],"split_indices":[11,4,4,3,12,8,7,0,0,0,0,0,0,0,0],"split_type":[0,0,0,0,0,0,0,0,0,0,0,0,0,0,0],"sum_hessian":[2.5891E4,2.91E2,2.56E4,2.23E2,6.8E1,6.07E2,2.4993E4,1.9E1,2.04E2,6E0,6.2E1,4.68E2,1.39E2,4.977E3,2.0016E4],"tree_param":{"num_deleted":"0","num_feature":"19","num_nodes":"15","size_leaf_vector":"1"}},{"base_weights":[-4.228067E-2,-6.916941E-1,5.281072E0,6.589536E-2,-1.2209876E1,-9.916822E-2,1.0813105E1,8.7361984E-2,-1.0348228E0,-4.3729153E0,-8.6432725E-1,1.1267408E0,-5.915082E-1,1.4337577E0,-3.8359612E-1],"categories":[],"categories_nodes":[],"categories_segments":[],"categories_sizes":[],"default_left":[0,0,0,0,0,0,0,0,0,0,0,0,0,0,0],"id":81,"left_children":[1,3,5,7,9,11,13,-1,-1,-1,-1,-1,-1,-1,-1],"loss_changes":[8.918534E4,2.0063895E5,8.348816E4,1.8149238E5,1.5914142E5,9.413695E4,7.145958E4,0E0,0E0,0E0,0E0,0E0,0E0,0E0,0E0],"parents":[2147483647,0,0,1,1,2,2,3,3,4,4,5,5,6,6],"right_children":[2,4,6,8,10,12,14,-1,-1,-1,-1,-1,-1,-1,-1],"split_conditions":[-7.978273E1,6.2E0,3.6E0,-5.8249414E-1,7.9508674E-1,-7.188576E-1,9.6E0,8.7361984E-2,-1.0348228E0,-4.3729153E0,-8.6432725E-1,1.1267408E0,-5.915082E-1,1.4337577E0,-3.8359612E-1],"split_indices":[2,0,0,11,8,7,0,0,0,0,0,0,0,0,0],"split_type":[0,0,0,0,0,0,0,0,0,0,0,0,0,0,0],"sum_hessian":[2.5796E4,2.2992E4,2.804E3,2.1574E4,1.418E3,1.422E3,1.382E3,2.0022E4,1.552E3,1.43E2,1.275E3,4.81E2,9.41E2,1.114E3,2.68E2],"tree_param":{"num_deleted":"0","num_feature":"19","num_nodes":"15","size_leaf_vector":"1"}},{"base_weights":[-1.8487157E-1,-6.384039E-1,7.658285E0,-1.7565149E-1,-3.6391396E1,-2.1997942E1,1.162693E1,9.530466E-2,-7.547571E-1,-1.0370176E1,1.8209156E-1,-4.6023936E0,2.5175455E0,-4.595595E0,1.303684E0],"categories":[],"categories_nodes":[],"categories_segments":[],"categories_sizes":[],"default_left":[0,0,0,0,0,0,0,0,0,0,0,0,0,0,0],"id":82,"left_children":[1,3,5,7,9,11,13,-1,-1,-1,-1,-1,-1,-1,-1],"loss_changes":[9.1881875E4,4.039841E5,1.6644117E5,2.0059361E5,8.0267925E5,1.9043444E5,1.0175767E5,0E0,0E0,0E0,0E0,0E0,0E0,0E0,0E0],"parents":[2147483647,0,0,1,1,2,2,3,3,4,4,5,5,6,6],"right_children":[2,4,6,8,10,12,14,-1,-1,-1,-1,-1,-1,-1,-1],"split_conditions":[-2.38298E-1,-3.051591E-1,-2.4404432E-1,5.1E0,-7.0197874E-1,-9.780282E0,-1.1900922E1,9.530466E-2,-7.547571E-1,-1.0370176E1,1.8209156E-1,-4.6023936E0,2.5175455E0,-4.595595E0,1.303684E0],"split_indices":[11,11,16,0,7,17,17,0,0,0,0,0,0,0,0],"split_type":[0,0,0,0,0,0,0,0,0,0,0,0,0,0,0],"sum_hessian":[2.5828E4,2.4417E4,1.411E3,2.4106E4,3.11E2,1.66E2,1.245E3,2.0906E4,3.2E3,1.12E2,1.99E2,1.1E2,5.6E1,2.9E1,1.216E3],"tree_param":{"num_deleted":"0","num_feature":"19","num_nodes":"15","size_leaf_vector":"1"}},{"base_weights":[-1.0306214E-2,2.5620263E0,-1.503923E0,1.3407959E1,1.5712135E0,-3.2434332E-1,-6.3641033E0,2.1793592E0,-4.9448514E0,1.3191733E-1,4.1236706E0,2.4725024E-1,-4.5881057E-1,-2.2837427E0,2.2917438E-1],"categories":[],"categories_nodes":[],"categories_segments":[],"categories_sizes":[],"default_left":[0,0,0,0,0,0,0,0,0,0,0,0,0,0,0],"id":83,"left_children":[1,3,5,7,9,11,13,-1,-1,-1,-1,-1,-1,-1,-1],"loss_changes":[9.947529E4,1.0218689E5,9.3903984E4,4.2064234E5,8.708209E4,1.5720781E5,4.5619953E5,0E0,0E0,0E0,0E0,0E0,0E0,0E0,0E0],"parents":[2147483647,0,0,1,1,2,2,3,3,4,4,5,5,6,6],"right_children":[2,4,6,8,10,12,14,-1,-1,-1,-1,-1,-1,-1,-1],"split_conditions":[-9.892899E0,1.8980162E0,-9.5036715E-1,-1.6879658E-1,1.8775902E0,-9.652427E0,-9.762394E0,2.1793592E0,-4.9448514E0,1.3191733E-1,4.1236706E0,2.4725024E-1,-4.5881057E-1,-2.2837427E0,2.2917438E-1],"split_indices":[17,4,11,11,11,17,17,0,0,0,0,0,0,0,0],"split_type":[0,0,0,0,0,0,0,0,0,0,0,0,0,0,0],"sum_hessian":[2.5889E4,9.51E3,1.6379E4,7.95E2,8.715E3,1.3181E4,3.198E3,7.02E2,9.3E1,8.661E3,5.4E1,7.96E3,5.221E3,1.101E3,2.097E3],"tree_param":{"num_deleted":"0","num_feature":"19","num_nodes":"15","size_leaf_vector":"1"}},{"base_weights":[1.8207884E-1,1.3255249E1,-1.2585506E-1,2.6700134E1,-3.2317562E1,-4.688532E-1,1.2052744E1,-9.126527E-1,3.5803692E0,5.619668E0,-4.4587765E0,7.107123E-2,-4.2992505E-1,3.0082986E0,7.925635E-2],"categories":[],"categories_nodes":[],"categories_segments":[],"categories_sizes":[],"default_left":[0,0,0,0,0,0,0,0,0,0,0,0,0,0,0],"id":84,"left_children":[1,3,5,7,9,11,13,-1,-1,-1,-1,-1,-1,-1,-1],"loss_changes":[1.0408543E5,3.6543197E5,1.05526836E5,1.5035584E5,1.5021364E5,1.1101533E5,1.4046862E5,0E0,0E0,0E0,0E0,0E0,0E0,0E0,0E0],"parents":[2147483647,0,0,1,1,2,2,3,3,4,4,5,5,6,6],"right_children":[2,4,6,8,10,12,14,-1,-1,-1,-1,-1,-1,-1,-1],"split_conditions":[6.0195243E-1,9.8469025E-1,3.029336E-2,-1.1608923E-1,-1.02270246E-1,